{"learner":{"attributes":{},"feature_names":["prime_cost","overhead_pct","profit_pct","estimated_budget","complexity_score","competitor_density"],"feature_types":["float","float","float","float","int","int"],"gradient_booster":{"model":{"cats":{"enc":[],"feature_segments":[],"sorted_idx":[]},"gbtree_model_param":{"num_parallel_tree":"1","num_trees":"300"},"iteration_indptr":[0,1,2,3,4,5,6,7,8,9,10,11,12,13,14,15,16,17,18,19,20,21,22,23,24,25,26,27,28,29,30,31,32,33,34,35,36,37,38,39,40,41,42,43,44,45,46,47,48,49,50,51,52,53,54,55,56,57,58,59,60,61,62,63,64,65,66,67,68,69,70,71,72,73,74,75,76,77,78,79,80,81,82,83,84,85,86,87,88,89,90,91,92,93,94,95,96,97,98,99,100,101,102,103,104,105,106,107,108,109,110,111,112,113,114,115,116,117,118,119,120,121,122,123,124,125,126,127,128,129,130,131,132,133,134,135,136,137,138,139,140,141,142,143,144,145,146,147,148,149,150,151,152,153,154,155,156,157,158,159,160,161,162,163,164,165,166,167,168,169,170,171,172,173,174,175,176,177,178,179,180,181,182,183,184,185,186,187,188,189,190,191,192,193,194,195,196,197,198,199,200,201,202,203,204,205,206,207,208,209,210,211,212,213,214,215,216,217,218,219,220,221,222,223,224,225,226,227,228,229,230,231,232,233,234,235,236,237,238,239,240,241,242,243,244,245,246,247,248,249,250,251,252,253,254,255,256,257,258,259,260,261,262,263,264,265,266,267,268,269,270,271,272,273,274,275,276,277,278,279,280,281,282,283,284,285,286,287,288,289,290,291,292,293,294,295,296,297,298,299,300],"tree_info":[0,0,0,0,0,0,0,0,0,0,0,0,0,0,0,0,0,0,0,0,0,0,0,0,0,0,0,0,0,0,0,0,0,0,0,0,0,0,0,0,0,0,0,0,0,0,0,0,0,0,0,0,0,0,0,0,0,0,0,0,0,0,0,0,0,0,0,0,0,0,0,0,0,0,0,0,0,0,0,0,0,0,0,0,0,0,0,0,0,0,0,0,0,0,0,0,0,0,0,0,0,0,0,0,0,0,0,0,0,0,0,0,0,0,0,0,0,0,0,0,0,0,0,0,0,0,0,0,0,0,0,0,0,0,0,0,0,0,0,0,0,0,0,0,0,0,0,0,0,0,0,0,0,0,0,0,0,0,0,0,0,0,0,0,0,0,0,0,0,0,0,0,0,0,0,0,0,0,0,0,0,0,0,0,0,0,0,0,0,0,0,0,0,0,0,0,0,0,0,0,0,0,0,0,0,0,0,0,0,0,0,0,0,0,0,0,0,0,0,0,0,0,0,0,0,0,0,0,0,0,0,0,0,0,0,0,0,0,0,0,0,0,0,0,0,0,0,0,0,0,0,0,0,0,0,0,0,0,0,0,0,0,0,0,0,0,0,0,0,0,0,0,0,0,0,0,0,0,0,0,0,0,0,0,0,0,0,0,0,0,0,0,0,0,0,0,0,0,0,0],"trees":[{"base_weights":[-3.463153E-2,1.2528616E0,-1.280215E0,2.6639407E0,-6.3702054E-2,-1.1686212E-2,-1.2951709E0,1.1864161E-2,2.7277408E0,-1.9919345E-2,-6.552695E-2,1.6400473E0,1.4412397E-1,1.00275315E-1,1.4073779E-2],"categories":[],"categories_nodes":[],"categories_segments":[],"categories_sizes":[],"default_left":[0,0,0,0,0,0,0,0,0,0,0,0,0,0,0],"id":0,"left_children":[1,3,5,7,-1,-1,9,-1,11,-1,-1,13,-1,-1,-1],"loss_changes":[2.0222993E2,2.2454413E2,7.002487E-1,5.564453E0,0E0,0E0,3.455658E-1,0E0,1.8363342E0,0E0,0E0,2.9989452E0,0E0,0E0,0E0],"parents":[2147483647,0,0,1,1,2,2,3,3,6,6,8,8,11,11],"right_children":[2,4,6,8,-1,-1,10,-1,12,-1,-1,14,-1,-1,-1],"split_conditions":[1.7741411E1,8E0,1.0732284E1,1.227011E1,-6.3702054E-2,-1.1686212E-2,1.806298E1,1.1864161E-2,3E0,-1.9919345E-2,-6.552695E-2,1.6527954E1,1.4412397E-1,1.00275315E-1,1.4073779E-2],"split_indices":[2,5,3,3,0,0,2,0,5,0,0,1,0,0,0],"split_type":[0,0,0,0,0,0,0,0,0,0,0,0,0,0,0],"sum_hessian":[1.241035E2,6.1022232E1,6.3081264E1,3.9121616E1,2.1900618E1,1.1231086E0,6.1958157E1,1.1231086E0,3.799851E1,1.4974781E0,6.046068E1,6.1770973E0,3.1821411E1,4.4924345E0,1.6846629E0],"tree_param":{"num_deleted":"0","num_feature":"6","num_nodes":"15","size_leaf_vector":"1"}},{"base_weights":[-2.3408853E-3,1.1850425E0,-6.448262E-2,1.0025741E0,1.0486416E-1,1.1924134E0,-5.6152E-1,8.463215E-1,1.8163986E0,-5.0266415E-2,6.315088E-2,5.5876162E-2,-5.9610354E-3,1.1600304E-1,3.956995E-2,4.52166E-2,-3.9886657E-2],"categories":[],"categories_nodes":[],"categories_segments":[],"categories_sizes":[],"default_left":[0,0,0,0,0,0,0,0,0,0,0,0,0,0,0,0,0],"id":1,"left_children":[1,3,-1,5,-1,7,9,11,13,-1,15,-1,-1,-1,-1,-1,-1],"loss_changes":[1.9126244E2,8.732117E0,0E0,1.7344269E1,0E0,9.34684E0,1.937078E0,9.112577E0,6.9962273E0,0E0,3.43556E0,0E0,0E0,0E0,0E0,0E0,0E0],"parents":[2147483647,0,0,1,1,3,3,5,5,6,6,7,7,8,8,10,10],"right_children":[2,4,-1,6,-1,8,10,12,14,-1,16,-1,-1,-1,-1,-1,-1],"split_conditions":[1.8011234E1,4.8355988E1,-6.448262E-2,3.1962442E1,1.0486416E-1,3.1798197E1,4.3836163E1,1.8937037E1,2.8625492E1,-5.0266415E-2,3.6386765E1,5.5876162E-2,-5.9610354E-3,1.1600304E-1,3.956995E-2,4.52166E-2,-3.9886657E-2],"split_indices":[2,3,0,0,0,3,3,0,0,0,0,0,0,0,0,0,0],"split_type":[0,0,0,0,0,0,0,0,0,0,0,0,0,0,0,0,0],"sum_hessian":[1.2312832E2,6.4091446E1,5.903687E1,5.5157707E1,8.933739E0,4.9399555E1,5.758154E0,3.329106E1,1.6108492E1,3.0101604E0,2.7479935E0,2.586788E1,7.4231815E0,9.953895E0,6.154597E0,1.3643754E0,1.3836181E0],"tree_param":{"num_deleted":"0","num_feature":"6","num_nodes":"17","size_leaf_vector":"1"}},{"base_weights":[3.4008753E-2,7.83939E-1,-6.4043365E-2,1.3126439E0,6.2907714E-1,1.5035878E-1,1.5067941E0,2.5000337E-1,8.1706744E-1,3.8440973E-2,-3.376558E-2,1.5955607E0,6.6743875E-1,1.0323712E0,-3.570297E-1,1.8160517E0,5.813937E-1,2.6313124E-2,8.3698176E-2,-1.1578877E-2,6.4059645E-2,-1.3978305E-2,7.132648E-2,-3.0495536E-3,-5.0611235E-2,5.081013E-2,1.1704723E-1,-4.463948E-2,3.508843E-2],"categories":[],"categories_nodes":[],"categories_segments":[],"categories_sizes":[],"default_left":[0,0,0,0,0,0,0,0,0,0,0,0,0,0,0,0,0,0,0,0,0,0,0,0,0,0,0,0,0],"id":2,"left_children":[1,3,-1,5,7,9,11,13,15,-1,-1,17,19,21,23,25,27,-1,-1,-1,-1,-1,-1,-1,-1,-1,-1,-1,-1],"loss_changes":[1.24849525E2,5.773472E0,0E0,3.6862621E0,4.3750706E0,2.3537934E0,3.3805847E-2,1.1170318E1,8.953943E0,0E0,0E0,1.7684937E-1,2.023497E0,5.6702175E0,2.566504E0,8.3062935E-1,6.9921064E0,0E0,0E0,0E0,0E0,0E0,0E0,0E0,0E0,0E0,0E0,0E0,0E0],"parents":[2147483647,0,0,1,1,3,3,4,4,5,5,6,6,7,7,8,8,11,11,12,12,13,13,14,14,15,15,16,16],"right_children":[2,4,-1,6,8,10,12,14,16,-1,-1,18,20,22,24,26,28,-1,-1,-1,-1,-1,-1,-1,-1,-1,-1,-1,-1],"split_conditions":[8E0,1.0798737E1,-6.4043365E-2,8.60747E0,2.499709E1,8.295043E0,3.4643578E1,1.2233214E1,2.086179E1,3.8440973E-2,-3.376558E-2,1.5944733E1,4.9402218E1,1.1948516E1,1.7513306E1,6E0,2.9984106E1,2.6313124E-2,8.3698176E-2,-1.1578877E-2,6.4059645E-2,-1.3978305E-2,7.132648E-2,-3.0495536E-3,-5.0611235E-2,5.081013E-2,1.1704723E-1,-4.463948E-2,3.508843E-2],"split_indices":[5,1,0,1,3,1,0,0,0,0,0,3,3,3,0,5,3,0,0,0,0,0,0,0,0,0,0,0,0],"split_type":[0,0,0,0,0,0,0,0,0,0,0,0,0,0,0,0,0,0,0,0,0,0,0,0,0,0,0,0,0],"sum_hessian":[1.2459555E2,7.960003E1,4.499552E1,1.6339628E1,6.32604E1,2.592715E0,1.3746913E1,2.174417E1,4.1516228E1,1.5217309E0,1.0709841E0,1.1617374E1,2.129539E0,9.193957E0,1.2550212E1,6.6446805E0,3.4871548E1,1.3204669E0,1.0296907E1,1.1166203E0,1.0129188E0,2.1912417E0,7.002715E0,9.397294E0,3.1529176E0,3.7960913E0,2.8485892E0,2.1480849E0,3.2723465E1],"tree_param":{"num_deleted":"0","num_feature":"6","num_nodes":"29","size_leaf_vector":"1"}},{"base_weights":[3.387749E-2,1.1254987E0,-1.2520349E0,1.2494586E0,2.2465381E-1,-9.17079E-3,-6.341733E-2,1.3332015E0,4.4993076E-1,1.0205014E0,-3.5322663E-1,8.697489E-1,1.533426E0,4.998631E-2,6.178508E-2,9.911578E-3,6.286895E-2,2.3779979E-2,-6.754096E-1,5.8906663E-2,-4.7112416E-2,9.3453765E-2,5.5116583E-2,3.3888377E-2,-3.2222267E-2,-4.963736E-2,1.4008137E-2],"categories":[],"categories_nodes":[],"categories_segments":[],"categories_sizes":[],"default_left":[0,0,0,0,0,0,0,0,0,0,0,0,0,0,0,0,0,0,0,0,0,0,0,0,0,0,0],"id":3,"left_children":[1,3,5,7,9,-1,-1,11,13,15,17,19,21,23,-1,-1,-1,-1,25,-1,-1,-1,-1,-1,-1,-1,-1],"loss_changes":[1.8140704E2,7.522728E0,8.0184174E-1,3.4983444E0,4.8086157E0,0E0,0E0,3.7603378E0,2.23631E0,5.9330845E-1,2.015854E0,1.165559E1,3.296875E0,3.0037394E0,0E0,0E0,0E0,0E0,1.7891593E0,0E0,0E0,0E0,0E0,0E0,0E0,0E0,0E0],"parents":[2147483647,0,0,1,1,2,2,3,3,4,4,7,7,8,8,9,9,10,10,11,11,12,12,13,13,18,18],"right_children":[2,4,6,8,10,-1,-1,12,14,16,18,20,22,24,-1,-1,-1,-1,26,-1,-1,-1,-1,-1,-1,-1,-1],"split_conditions":[1.8011234E1,1.8375925E1,1.0732284E1,1.6259274E1,5E0,-9.17079E-3,-6.341733E-2,2.4786926E1,4.725846E1,6.5843744E0,8.187142E0,1.781685E1,2.8625492E1,2.2317196E1,6.178508E-2,9.911578E-3,6.286895E-2,2.3779979E-2,4.057707E1,5.8906663E-2,-4.7112416E-2,9.3453765E-2,5.5116583E-2,3.3888377E-2,-3.2222267E-2,-4.963736E-2,1.4008137E-2],"split_indices":[2,1,3,2,4,0,0,3,3,2,2,0,0,0,0,0,0,0,3,0,0,0,0,0,0,0,0],"split_type":[0,0,0,0,0,0,0,0,0,0,0,0,0,0,0,0,0,0,0,0,0,0,0,0,0,0,0],"sum_hessian":[1.2722835E2,6.888017E1,5.834817E1,6.0208286E1,8.671888E0,1.0613385E0,5.7286835E1,5.389573E1,6.3125563E0,3.3257632E0,5.3461256E0,1.7871971E1,3.6023758E1,4.8881717E0,1.4243847E0,1.154616E0,2.1711473E0,1.3631637E0,3.9829617E0,1.5571644E1,2.300327E0,1.8378578E1,1.764518E1,2.5798912E0,2.3082805E0,2.9608014E0,1.0221604E0],"tree_param":{"num_deleted":"0","num_feature":"6","num_nodes":"27","size_leaf_vector":"1"}},{"base_weights":[-3.5285473E-2,9.6450585E-1,-1.1872228E0,8.0736125E-1,9.197335E-2,-2.2987472E-1,-1.2320385E0,9.640248E-1,-4.7363335E-1,-4.177884E-2,3.0738298E-2,-8.631434E-3,-6.2450863E-2,6.7964995E-1,1.4470015E0,-5.15894E-2,2.9209718E-1,4.13264E-2,-2.8296484E-2,9.63139E-2,4.7289237E-2,3.2309517E-2,-1.3682808E-2],"categories":[],"categories_nodes":[],"categories_segments":[],"categories_sizes":[],"default_left":[0,0,0,0,0,0,0,0,0,0,0,0,0,0,0,0,0,0,0,0,0,0,0],"id":4,"left_children":[1,3,5,7,-1,9,11,13,15,-1,-1,-1,-1,17,19,-1,21,-1,-1,-1,-1,-1,-1],"loss_changes":[1.4660121E2,7.887333E0,2.2537918E0,1.2411236E1,0E0,2.4954643E0,7.963257E-1,6.351841E0,3.362342E0,0E0,0E0,0E0,0E0,6.962536E0,2.7199364E0,0E0,9.37853E-1,0E0,0E0,0E0,0E0,0E0,0E0],"parents":[2147483647,0,0,1,1,2,2,3,3,5,5,6,6,7,7,8,8,13,13,14,14,16,16],"right_children":[2,4,6,8,-1,10,12,14,16,-1,-1,-1,-1,18,20,-1,22,-1,-1,-1,-1,-1,-1],"split_conditions":[1.7431347E1,4.8355988E1,1.8011234E1,3.1962442E1,9.197335E-2,1.7720352E1,8.470188E0,3.1824715E1,4.3836163E1,-4.177884E-2,3.0738298E-2,-8.631434E-3,-6.2450863E-2,1.8531765E1,2.6759356E1,-5.15894E-2,1.3421212E1,4.13264E-2,-2.8296484E-2,9.63139E-2,4.7289237E-2,3.2309517E-2,-1.3682808E-2],"split_indices":[2,3,2,0,0,2,0,3,3,0,0,0,0,1,0,0,1,0,0,0,0,0,0],"split_type":[0,0,0,0,0,0,0,0,0,0,0,0,0,0,0,0,0,0,0,0,0,0,0],"sum_hessian":[1.2529722E2,6.716552E1,5.81317E1,5.8569138E1,8.596384E0,2.8736858E0,5.525801E1,5.2407257E1,6.161882E0,1.679807E0,1.193879E0,1.0477796E0,5.421023E1,3.450063E1,1.7906628E1,3.3630435E0,2.7988381E0,3.1162405E1,3.3382225E0,7.700248E0,1.020638E1,1.6339846E0,1.1648537E0],"tree_param":{"num_deleted":"0","num_feature":"6","num_nodes":"23","size_leaf_vector":"1"}},{"base_weights":[5.747172E-3,9.011611E-1,-6.1666694E-2,1.9531397E0,-6.4137526E-2,2.0384333E0,7.9674274E-1,1.500152E0,2.2644258E0,1.760003E-1,6.433343E-2,9.0646185E-2,-2.8546466E-2,1.1998965E-1,4.5321904E-2,3.661367E-2,-1.8829865E-2],"categories":[],"categories_nodes":[],"categories_segments":[],"categories_sizes":[],"default_left":[0,0,0,0,0,0,0,0,0,0,0,0,0,0,0,0,0],"id":5,"left_children":[1,3,-1,5,-1,7,9,11,13,15,-1,-1,-1,-1,-1,-1,-1],"loss_changes":[1.4331079E2,1.7476381E2,0E0,3.4061737E0,0E0,2.3028107E0,1.3382046E0,1.19291115E1,3.5302124E0,1.3295014E0,0E0,0E0,0E0,0E0,0E0,0E0,0E0],"parents":[2147483647,0,0,1,1,3,3,5,5,6,6,7,7,8,8,9,9],"right_children":[2,4,-1,6,-1,8,10,12,14,16,-1,-1,-1,-1,-1,-1,-1],"split_conditions":[1.8011234E1,8E0,-6.1666694E-2,1.6642063E1,-6.4137526E-2,2.4786926E1,6E0,1.781685E1,3.669486E1,2.2317196E1,6.433343E-2,9.0646185E-2,-2.8546466E-2,1.1998965E-1,4.5321904E-2,3.661367E-2,-1.8829865E-2],"split_indices":[2,5,0,2,0,3,5,0,0,0,0,0,0,0,0,0,0],"split_type":[0,0,0,0,0,0,0,0,0,0,0,0,0,0,0,0,0],"sum_hessian":[1.2716637E2,7.397879E1,5.3187576E1,4.9999817E1,2.3978977E1,4.5854904E1,4.1449113E0,1.5817643E1,3.003726E1,2.4279304E0,1.7169812E0,1.3850595E1,1.9670482E0,2.6616863E1,3.420396E0,1.0479064E0,1.380024E0],"tree_param":{"num_deleted":"0","num_feature":"6","num_nodes":"17","size_leaf_vector":"1"}},{"base_weights":[-7.6458612E-3,8.956514E-1,-1.1999943E0,9.918935E-1,1.500662E-1,-6.7216493E-3,-6.087811E-2,6.355714E-1,1.14981E0,1.1236819E0,-5.03894E-1,8.5725456E-1,-5.3332096E-1,1.6155518E0,8.0287814E-1,9.511279E-3,7.116067E-2,-6.985591E-2,-4.5377456E-2,9.42347E-2,3.1703886E-2,1.2713152E-2,-4.4315126E-2,3.498166E-2,8.94294E-2,-3.047212E-2,5.1333286E-2,-3.471918E-2,1.94828E-2],"categories":[],"categories_nodes":[],"categories_segments":[],"categories_sizes":[],"default_left":[0,0,0,0,0,0,0,0,0,0,0,0,0,0,0,0,0,0,0,0,0,0,0,0,0,0,0,0,0],"id":6,"left_children":[1,3,5,7,9,-1,-1,11,13,15,17,19,21,23,25,-1,-1,27,-1,-1,-1,-1,-1,-1,-1,-1,-1,-1,-1],"loss_changes":[1.3495413E2,4.96714E0,8.4729767E-1,2.8123207E0,6.5061927E0,0E0,0E0,6.0471077E0,5.55307E0,8.6390686E-1,1.0353179E0,3.0508938E0,1.3527956E0,1.4604263E0,8.933094E0,0E0,0E0,1.4486835E0,0E0,0E0,0E0,0E0,0E0,0E0,0E0,0E0,0E0,0E0,0E0],"parents":[2147483647,0,0,1,1,2,2,3,3,4,4,7,7,8,8,9,9,10,10,11,11,12,12,13,13,14,14,17,17],"right_children":[2,4,6,8,10,-1,-1,12,14,16,18,20,22,24,26,-1,-1,28,-1,-1,-1,-1,-1,-1,-1,-1,-1,-1,-1],"split_conditions":[1.8011234E1,1.859072E1,1.0732284E1,2.4786926E1,5E0,-6.7216493E-3,-6.087811E-2,1.7513306E1,2.55351E1,8.450387E0,1.1859615E1,5.885559E0,1.0645862E1,1.0026251E1,3.6431755E1,9.511279E-3,7.116067E-2,1.901303E1,-4.5377456E-2,9.42347E-2,3.1703886E-2,1.2713152E-2,-4.4315126E-2,3.498166E-2,8.94294E-2,-3.047212E-2,5.1333286E-2,-3.471918E-2,1.94828E-2],"split_indices":[2,1,3,3,4,0,0,0,0,2,2,2,1,1,3,0,0,1,0,0,0,0,0,0,0,0,0,0,0],"split_type":[0,0,0,0,0,0,0,0,0,0,0,0,0,0,0,0,0,0,0,0,0,0,0,0,0,0,0,0,0],"sum_hessian":[1.2330246E2,7.0296326E1,5.3006134E1,6.1967094E1,8.329232E0,1.000076E0,5.2006058E1,2.0572384E1,4.139471E1,3.0580845E0,5.2711477E0,1.7516878E1,3.0555072E0,1.6110428E1,2.5284283E1,1.1401165E0,1.9179679E0,3.105238E0,2.1659095E0,1.79739E0,1.5719487E1,1.0321686E0,2.0233386E0,3.3613465E0,1.2749082E1,3.2226791E0,2.2061604E1,1.0996112E0,2.0056267E0],"tree_param":{"num_deleted":"0","num_feature":"6","num_nodes":"29","size_leaf_vector":"1"}},{"base_weights":[-1.7246047E-2,6.13097E-1,-6.2327553E-2,7.368442E-1,1.3251947E-1,3.4705585E-1,9.8591423E-1,-7.1359044E-1,7.831092E-1,1.0849E0,-4.284676E-2,1.2532507E0,6.511986E-1,9.920675E-3,-8.8402337E-1,1.1477423E0,4.0105548E-2,8.550434E-2,7.0744925E-3,3.258221E-2,-2.1585396E-2,6.555885E-2,7.487786E-3,-2.7776906E-2,5.869735E-2,-4.867617E-2,-8.983693E-3,-8.139107E-3,6.949129E-2,3.0190518E-2,-3.5923455E-2],"categories":[],"categories_nodes":[],"categories_segments":[],"categories_sizes":[],"default_left":[0,0,0,0,0,0,0,0,0,0,0,0,0,0,0,0,0,0,0,0,0,0,0,0,0,0,0,0,0,0,0],"id":7,"left_children":[1,3,-1,5,7,9,11,13,15,17,19,21,23,-1,25,27,29,-1,-1,-1,-1,-1,-1,-1,-1,-1,-1,-1,-1,-1,-1],"loss_changes":[9.573476E1,4.7603664E0,0E0,5.9432526E0,1.0437851E1,7.7518806E0,2.6698914E0,1.4692893E0,2.8317895E0,5.2421646E0,5.2735953E0,1.118969E0,1.2877789E1,0E0,2.7876997E-1,2.475336E0,2.3722045E0,0E0,0E0,0E0,0E0,0E0,0E0,0E0,0E0,0E0,0E0,0E0,0E0,0E0,0E0],"parents":[2147483647,0,0,1,1,3,3,4,4,5,5,6,6,7,7,8,8,9,9,10,10,11,11,12,12,14,14,15,15,16,16],"right_children":[2,4,-1,6,8,10,12,14,16,18,20,22,24,-1,26,28,30,-1,-1,-1,-1,-1,-1,-1,-1,-1,-1,-1,-1,-1,-1],"split_conditions":[8E0,3.1962442E1,-6.2327553E-2,2.4373093E1,4.8355988E1,1.1758475E1,2.5070755E1,1.0362655E1,1.5802009E1,1.3145858E1,1.0829063E1,3.7017864E1,3.6431755E1,9.920675E-3,1.8838684E1,1.0965239E1,5.3554974E1,8.550434E-2,7.0744925E-3,3.258221E-2,-2.1585396E-2,6.555885E-2,7.487786E-3,-2.7776906E-2,5.869735E-2,-4.867617E-2,-8.983693E-3,-8.139107E-3,6.949129E-2,3.0190518E-2,-3.5923455E-2],"split_indices":[5,0,0,3,3,1,0,1,1,0,0,3,3,0,1,1,3,0,0,0,0,0,0,0,0,0,0,0,0,0,0],"split_type":[0,0,0,0,0,0,0,0,0,0,0,0,0,0,0,0,0,0,0,0,0,0,0,0,0,0,0,0,0,0,0],"sum_hessian":[1.2156095E2,8.0688225E1,4.087273E1,6.3741695E1,1.6946527E1,2.5783922E1,3.795777E1,7.3242726E0,9.622255E0,8.298159E0,1.7485764E1,1.9577248E1,1.8380526E1,1.1273791E0,6.1968937E0,6.0892096E0,3.5330458E0,4.502043E0,3.7961156E0,6.03382E0,1.1451943E1,1.842201E1,1.1552379E0,5.5366764E0,1.2843848E1,5.1591706E0,1.037723E0,1.0005093E0,5.0887003E0,2.143906E0,1.3891395E0],"tree_param":{"num_deleted":"0","num_feature":"6","num_nodes":"31","size_leaf_vector":"1"}},{"base_weights":[1.6825164E-2,8.83609E-1,-1.1371981E0,9.5422894E-1,1.8866128E-1,-2.4118005E-1,-1.1830457E0,5.846921E-1,1.1431059E0,8.6514884E-1,-3.2040167E-1,-3.7949648E-2,1.8203955E-2,-1.4396577E-2,-6.005357E-2,8.1755054E-1,-7.698697E-1,1.5040666E0,8.82066E-1,1.5826473E-2,5.5895288E-2,-4.0671293E-2,1.2652102E-1,1.6490392E-2,5.9284717E-2,-1.1001083E-2,-4.5070376E-2,2.1866344E-2,8.269948E-2,-1.954892E-2,5.3843845E-2,4.929543E-2,-3.7098203E-2],"categories":[],"categories_nodes":[],"categories_segments":[],"categories_sizes":[],"default_left":[0,0,0,0,0,0,0,0,0,0,0,0,0,0,0,0,0,0,0,0,0,0,0,0,0,0,0,0,0,0,0,0,0],"id":8,"left_children":[1,3,5,7,9,11,13,15,17,19,21,-1,-1,-1,-1,23,25,27,29,-1,-1,-1,31,-1,-1,-1,-1,-1,-1,-1,-1,-1,-1],"loss_changes":[1.24932526E2,3.3198547E0,1.9156723E0,3.8327675E0,2.971852E0,1.4873894E0,4.7245026E-1,8.155261E0,2.595829E0,1.4953089E-1,1.2475231E0,0E0,0E0,0E0,0E0,3.3518143E0,9.205866E-2,1.8439674E0,7.012085E0,0E0,0E0,0E0,3.4110417E0,0E0,0E0,0E0,0E0,0E0,0E0,0E0,0E0,0E0,0E0],"parents":[2147483647,0,0,1,1,2,2,3,3,4,4,5,5,6,6,7,7,8,8,9,9,10,10,15,15,16,16,17,17,18,18,22,22],"right_children":[2,4,6,8,10,12,14,16,18,20,22,-1,-1,-1,-1,24,26,28,30,-1,-1,-1,32,-1,-1,-1,-1,-1,-1,-1,-1,-1,-1],"split_conditions":[1.7431347E1,1.859072E1,1.8011234E1,2.4786926E1,5E0,1.7720352E1,8.780825E0,1.7406372E1,2.4961998E1,1.0781999E1,1.909572E1,-3.7949648E-2,1.8203955E-2,-1.4396577E-2,-6.005357E-2,6E0,8.659349E0,7.2050424E0,3.6431755E1,1.5826473E-2,5.5895288E-2,-4.0671293E-2,1.940285E1,1.6490392E-2,5.9284717E-2,-1.1001083E-2,-4.5070376E-2,2.1866344E-2,8.269948E-2,-1.954892E-2,5.3843845E-2,4.929543E-2,-3.7098203E-2],"split_indices":[2,1,2,3,4,2,0,0,0,2,1,0,0,0,0,4,2,2,3,0,0,0,1,0,0,0,0,0,0,0,0,0,0],"split_type":[0,0,0,0,0,0,0,0,0,0,0,0,0,0,0,0,0,0,0,0,0,0,0,0,0,0,0,0,0,0,0,0,0],"sum_hessian":[1.22891914E2,7.031376E1,5.2578156E1,6.3488976E1,6.824781E0,2.864115E0,4.9714043E1,2.2859707E1,4.062927E1,2.6301343E0,4.1946464E0,1.4066756E0,1.4574393E0,1.316433E0,4.839761E1,1.9844713E1,3.0149944E0,1.505277E1,2.55765E1,1.5399394E0,1.0901948E0,1.604537E0,2.5901093E0,9.35131E0,1.04934025E1,1.0979761E0,1.9170183E0,2.3375456E0,1.2715224E1,3.2608204E0,2.231568E1,1.233915E0,1.3561945E0],"tree_param":{"num_deleted":"0","num_feature":"6","num_nodes":"33","size_leaf_vector":"1"}},{"base_weights":[-2.6764376E-2,7.449796E-1,-5.9416484E-2,1.617547E0,-6.310581E-2,1.6961924E0,3.1731445E-1,1.7602676E0,6.4528155E-1,5.2048456E-2,-1.4802937E-2,2.4774313E-2,8.92971E-2,-4.2453583E-2,8.473442E-2],"categories":[],"categories_nodes":[],"categories_segments":[],"categories_sizes":[],"default_left":[0,0,0,0,0,0,0,0,0,0,0,0,0,0,0],"id":9,"left_children":[1,3,-1,5,-1,7,9,11,13,-1,-1,-1,-1,-1,-1],"loss_changes":[1.09520226E2,1.3063322E2,0E0,4.7397614E0,0E0,2.1260223E0,2.160913E0,5.789032E-1,8.280127E0,0E0,0E0,0E0,0E0,0E0,0E0],"parents":[2147483647,0,0,1,1,3,3,5,5,6,6,7,7,8,8],"right_children":[2,4,-1,6,-1,8,10,12,14,-1,-1,-1,-1,-1,-1],"split_conditions":[1.8011234E1,8E0,-5.9416484E-2,1.6642063E1,-6.310581E-2,3.669486E1,4E0,1.227011E1,4.8355988E1,5.2048456E-2,-1.4802937E-2,2.4774313E-2,8.92971E-2,-4.2453583E-2,8.473442E-2],"split_indices":[2,5,0,2,0,0,4,3,3,0,0,0,0,0,0],"split_type":[0,0,0,0,0,0,0,0,0,0,0,0,0,0,0],"sum_hessian":[1.2018604E2,7.242531E1,4.7760735E1,5.0614975E1,2.1810337E1,4.7440952E1,3.1740222E0,4.407845E1,3.362506E0,1.1362995E0,2.0377226E0,1.2808247E0,4.2797623E1,1.4659289E0,1.896577E0],"tree_param":{"num_deleted":"0","num_feature":"6","num_nodes":"15","size_leaf_vector":"1"}},{"base_weights":[3.0511993E-3,7.458467E-1,-5.8758345E-2,1.5574591E0,-6.2206645E-2,1.0462713E-1,1.4005401E0,1.482206E0,2.6602322E-1,3.336512E-2,7.920794E-2,-3.925312E-3,3.3040658E-2],"categories":[],"categories_nodes":[],"categories_segments":[],"categories_sizes":[],"default_left":[0,0,0,0,0,0,0,0,0,0,0,0,0],"id":10,"left_children":[1,3,-1,5,-1,-1,7,9,11,-1,-1,-1,-1],"loss_changes":[1.0816553E2,1.2436326E2,0E0,1.6274109E0,0E0,0E0,3.774971E0,2.4123306E0,6.2864876E-1,0E0,0E0,0E0,0E0],"parents":[2147483647,0,0,1,1,3,3,6,6,7,7,8,8],"right_children":[2,4,-1,6,-1,-1,8,10,12,-1,-1,-1,-1],"split_conditions":[1.8011234E1,8E0,-5.8758345E-2,1.0362655E1,-6.2206645E-2,1.0462713E-1,1.6259274E1,1.1253155E1,1.7445312E1,3.336512E-2,7.920794E-2,-3.925312E-3,3.3040658E-2],"split_indices":[2,5,0,1,0,0,2,1,2,0,0,0,0],"split_type":[0,0,0,0,0,0,0,0,0,0,0,0,0],"sum_hessian":[1.2159152E2,7.480098E1,4.6790543E1,5.3285755E1,2.1515224E1,9.285981E0,4.399977E1,4.0759335E1,3.2404392E0,5.371378E0,3.5387955E1,2.1581695E0,1.0822698E0],"tree_param":{"num_deleted":"0","num_feature":"6","num_nodes":"13","size_leaf_vector":"1"}},{"base_weights":[-2.1035735E-2,6.8663925E-1,-1.1403695E0,1.4984287E0,-6.105947E-2,-7.3224874E-3,-5.804921E-2,1.3105121E-2,1.5323099E0,1.0260021E-1,1.3593428E0,-7.78908E-3,7.124493E-2],"categories":[],"categories_nodes":[],"categories_segments":[],"categories_sizes":[],"default_left":[0,0,0,0,0,0,0,0,0,0,0,0,0],"id":11,"left_children":[1,3,5,7,-1,-1,-1,-1,9,-1,11,-1,-1],"loss_changes":[9.190175E1,1.11944595E2,7.505989E-1,1.7064056E0,0E0,0E0,0E0,0E0,1.5951538E0,0E0,4.1511765E0,0E0,0E0],"parents":[2147483647,0,0,1,1,2,2,3,3,8,8,10,10],"right_children":[2,4,6,8,-1,-1,-1,-1,10,-1,12,-1,-1],"split_conditions":[1.8011234E1,8E0,1.0847256E1,1.227011E1,-6.105947E-2,-7.3224874E-3,-5.804921E-2,1.3105121E-2,7.7722707E0,1.0260021E-1,8.187142E0,-7.78908E-3,7.124493E-2],"split_indices":[2,5,3,3,0,0,0,0,2,0,2,0,0],"split_type":[0,0,0,0,0,0,0,0,0,0,0,0,0],"sum_hessian":[1.1403082E2,7.009887E1,4.3931953E1,4.9325317E1,2.077355E1,1.0573398E0,4.2874615E1,1.5487113E0,4.7776608E1,9.217699E0,3.8558907E1,1.5420814E0,3.7016827E1],"tree_param":{"num_deleted":"0","num_feature":"6","num_nodes":"13","size_leaf_vector":"1"}},{"base_weights":[2.7674435E-2,6.677635E-1,-1.1273311E0,1.364076E0,-6.0253453E-2,-6.2781693E-3,-5.7463866E-2,1.5161562E0,8.5943896E-1,1.5983559E0,4.8347852E-1,1.8886055E-1,1.0210022E0,7.62885E-3,8.187511E-2,-4.467072E-2,7.451477E-2,2.4836779E-2,-1.7521327E-2,3.5285612E-4,5.6531798E-2],"categories":[],"categories_nodes":[],"categories_segments":[],"categories_sizes":[],"default_left":[0,0,0,0,0,0,0,0,0,0,0,0,0,0,0,0,0,0,0,0,0],"id":12,"left_children":[1,3,5,7,-1,-1,-1,9,11,13,15,17,19,-1,-1,-1,-1,-1,-1,-1,-1],"loss_changes":[8.737676E1,1.00776344E2,7.8240585E-1,2.985756E0,0E0,0E0,0E0,2.7613297E0,1.4593706E0,1.9082108E0,7.574276E0,8.693821E-1,1.3328867E0,0E0,0E0,0E0,0E0,0E0,0E0,0E0,0E0],"parents":[2147483647,0,0,1,1,2,2,3,3,7,7,8,8,9,9,10,10,11,11,12,12],"right_children":[2,4,6,8,-1,-1,-1,10,12,14,16,18,20,-1,-1,-1,-1,-1,-1,-1,-1],"split_conditions":[1.8011234E1,8E0,8.755039E0,1.4638839E1,-6.0253453E-2,-6.2781693E-3,-5.7463866E-2,3.669486E1,3E0,1.227011E1,4.8355988E1,2.6759356E1,1.4809843E1,7.62885E-3,8.187511E-2,-4.467072E-2,7.451477E-2,2.4836779E-2,-1.7521327E-2,3.5285612E-4,5.6531798E-2],"split_indices":[2,5,0,2,0,0,0,0,5,3,3,0,2,0,0,0,0,0,0,0,0],"split_type":[0,0,0,0,0,0,0,0,0,0,0,0,0,0,0,0,0,0,0,0,0],"sum_hessian":[1.16169235E2,7.501741E1,4.1151825E1,5.4883553E1,2.0133862E1,1.026302E0,4.0125523E1,4.0633556E1,1.4249998E1,3.713026E1,3.5032961E0,3.1877983E0,1.10622E1,1.1079584E0,3.60223E1,1.5272748E0,1.9760213E0,2.0795193E0,1.108279E0,1.1832557E0,9.878943E0],"tree_param":{"num_deleted":"0","num_feature":"6","num_nodes":"21","size_leaf_vector":"1"}},{"base_weights":[3.765529E-3,6.426949E-1,-5.7038296E-2,1.3173263E0,-5.9485253E-2,1.4146764E0,6.368149E-1,1.5145968E0,8.1786376E-1,6.5625325E-2,2.0444585E-1,7.989103E-3,7.750012E-2,-4.8448708E-2,7.002597E-2,-2.5987446E-2,2.6799256E-2],"categories":[],"categories_nodes":[],"categories_segments":[],"categories_sizes":[],"default_left":[0,0,0,0,0,0,0,0,0,0,0,0,0,0,0,0,0],"id":13,"left_children":[1,3,-1,5,-1,7,9,11,13,-1,15,-1,-1,-1,-1,-1,-1],"loss_changes":[8.399452E1,9.268417E1,0E0,2.6995468E0,0E0,1.5477905E0,2.2500825E0,1.6159973E0,1.0597098E1,0E0,1.8250954E0,0E0,0E0,0E0,0E0,0E0,0E0],"parents":[2147483647,0,0,1,1,3,3,5,5,6,6,7,7,8,8,10,10],"right_children":[2,4,-1,6,-1,8,10,12,14,-1,16,-1,-1,-1,-1,-1,-1],"split_conditions":[1.8011234E1,8E0,-5.7038296E-2,1.5593456E1,-5.9485253E-2,3.1962442E1,4E0,1.1145166E1,4.314064E1,6.5625325E-2,6E0,7.989103E-3,7.750012E-2,-4.8448708E-2,7.002597E-2,-2.5987446E-2,2.6799256E-2],"split_indices":[2,5,0,2,0,0,4,3,3,0,4,0,0,0,0,0,0],"split_type":[0,0,0,0,0,0,0,0,0,0,0,0,0,0,0,0,0],"sum_hessian":[1.1285784E2,7.270761E1,4.0150223E1,5.334776E1,1.9359856E1,4.5727406E1,7.620351E0,3.7852245E1,7.875163E0,2.1791825E0,5.4411683E0,1.1044039E0,3.674784E1,1.7734547E0,6.1017084E0,1.5304527E0,3.9107156E0],"tree_param":{"num_deleted":"0","num_feature":"6","num_nodes":"17","size_leaf_vector":"1"}},{"base_weights":[-3.2992646E-2,5.7042927E-1,-1.1065058E0,4.378498E-1,6.296407E-2,-7.953633E-3,-5.646648E-2,5.7826954E-1,-6.449916E-1,3.91377E-1,9.2509544E-1,1.5526126E-2,-9.120996E-1,2.9171202E-2,-1.1978636E-2,5.1078405E-2,5.4094574E-4,-1.7717268E-2,-5.49524E-2],"categories":[],"categories_nodes":[],"categories_segments":[],"categories_sizes":[],"default_left":[0,0,0,0,0,0,0,0,0,0,0,0,0,0,0,0,0,0,0],"id":14,"left_children":[1,3,5,7,-1,-1,-1,9,11,13,15,-1,17,-1,-1,-1,-1,-1,-1],"loss_changes":[7.2343155E1,5.9811535E0,6.891136E-1,9.726752E0,0E0,0E0,0E0,3.2018566E0,2.2061791E0,4.6791854E0,1.6224585E0,0E0,2.5101948E-1,0E0,0E0,0E0,0E0,0E0,0E0],"parents":[2147483647,0,0,1,1,2,2,3,3,7,7,8,8,9,9,10,10,12,12],"right_children":[2,4,6,8,-1,-1,-1,10,12,14,16,-1,18,-1,-1,-1,-1,-1,-1],"split_conditions":[1.8011234E1,4.8355988E1,1.1145166E1,3.1447472E1,6.296407E-2,-7.953633E-3,-5.646648E-2,3.1798197E1,1.0362655E1,1.894097E1,3.008309E1,1.5526126E-2,1.0938603E1,2.9171202E-2,-1.1978636E-2,5.1078405E-2,5.4094574E-4,-1.7717268E-2,-5.49524E-2],"split_indices":[2,3,3,0,0,0,0,3,1,0,0,0,2,0,0,0,0,0,0],"split_type":[0,0,0,0,0,0,0,0,0,0,0,0,0,0,0,0,0,0,0],"sum_hessian":[1.0970399E2,7.052853E1,3.9175465E1,6.051682E1,1.0011707E1,1.1090165E0,3.806645E1,5.3982494E1,6.534323E0,3.6462543E1,1.7519953E1,1.392054E0,5.142269E0,2.8011723E1,8.450821E0,1.5741581E1,1.7783716E0,2.0177617E0,3.1245074E0],"tree_param":{"num_deleted":"0","num_feature":"6","num_nodes":"19","size_leaf_vector":"1"}},{"base_weights":[-3.9567082E-4,5.7006866E-1,-1.0967059E0,1.154373E0,-5.8810532E-2,-7.847732E-3,-5.6005295E-2,1.2015744E0,2.664349E-1,1.2718116E0,5.688063E-1,-1.9889502E-2,3.511348E-2,4.4867627E-2,7.283638E-2,-4.9011685E-2,6.719345E-2],"categories":[],"categories_nodes":[],"categories_segments":[],"categories_sizes":[],"default_left":[0,0,0,0,0,0,0,0,0,0,0,0,0,0,0,0,0],"id":15,"left_children":[1,3,5,7,-1,-1,-1,9,11,13,15,-1,-1,-1,-1,-1,-1],"loss_changes":[7.089882E1,7.7441055E1,6.774025E-1,2.042656E0,0E0,0E0,0E0,1.6430054E0,1.4750973E0,1.9552917E0,9.876185E0,0E0,0E0,0E0,0E0,0E0,0E0],"parents":[2147483647,0,0,1,1,2,2,3,3,7,7,8,8,9,9,10,10],"right_children":[2,4,6,8,-1,-1,-1,10,12,14,16,-1,-1,-1,-1,-1,-1],"split_conditions":[1.8011234E1,8E0,8.755039E0,1.7095064E1,-5.8810532E-2,-7.847732E-3,-5.6005295E-2,3.563258E1,1.7550205E1,2.4786926E1,4.7477367E1,-1.9889502E-2,3.511348E-2,4.4867627E-2,7.283638E-2,-4.9011685E-2,6.719345E-2],"split_indices":[2,5,0,2,0,0,0,0,2,3,3,0,0,0,0,0,0],"split_type":[0,0,0,0,0,0,0,0,0,0,0,0,0,0,0,0,0],"sum_hessian":[1.1136481E2,7.356521E1,3.77996E1,5.537553E1,1.818968E1,1.1056019E0,3.6693996E1,5.2245052E1,3.1304774E0,4.6116238E1,6.128817E0,1.274854E0,1.8556235E0,1.7179695E1,2.893654E1,1.9556135E0,4.1732035E0],"tree_param":{"num_deleted":"0","num_feature":"6","num_nodes":"17","size_leaf_vector":"1"}},{"base_weights":[-3.6234132E-3,5.608335E-1,-5.552506E-2,1.9487646E-1,7.365523E-1,4.5891538E-1,-7.2199255E-1,1.1068239E0,5.0889546E-1,1.7129448E-1,1.0512142E0,8.506903E-3,-5.5285383E-2,1.1772268E0,4.332482E-3,-5.1276114E-2,6.577893E-1,2.567314E-2,-5.5599034E-2,6.135271E-2,6.899421E-3,6.861054E-2,3.1137679E-2,1.8033065E-2,5.356404E-2],"categories":[],"categories_nodes":[],"categories_segments":[],"categories_sizes":[],"default_left":[0,0,0,0,0,0,0,0,0,0,0,0,0,0,0,0,0,0,0,0,0,0,0,0,0],"id":16,"left_children":[1,3,-1,5,7,9,11,13,15,17,19,-1,-1,21,-1,-1,23,-1,-1,-1,-1,-1,-1,-1,-1],"loss_changes":[6.577844E1,4.3404465E0,0E0,6.136598E0,3.377491E0,3.09584E0,2.1565764E0,1.115282E0,7.7115602E0,6.7791896E0,8.08774E-1,0E0,0E0,8.5092545E-1,0E0,0E0,3.1379757E0,0E0,0E0,0E0,0E0,0E0,0E0,0E0,0E0],"parents":[2147483647,0,0,1,1,3,3,4,4,5,5,6,6,7,7,8,8,9,9,10,10,13,13,16,16],"right_children":[2,4,-1,6,8,10,12,14,16,18,20,-1,-1,22,-1,-1,24,-1,-1,-1,-1,-1,-1,-1,-1],"split_conditions":[1.8011234E1,2.499709E1,-5.552506E-2,1.6080889E1,2.4961998E1,1.8540823E1,8.386488E0,1.8914581E1,3.3454224E1,1.3145858E1,2.2706026E1,8.506903E-3,-5.5285383E-2,7E0,4.332482E-3,-5.1276114E-2,4.8355988E1,2.567314E-2,-5.5599034E-2,6.135271E-2,6.899421E-3,6.861054E-2,3.1137679E-2,1.8033065E-2,5.356404E-2],"split_indices":[2,3,0,0,0,3,2,1,3,0,3,0,0,4,0,0,3,0,0,0,0,0,0,0,0],"split_type":[0,0,0,0,0,0,0,0,0,0,0,0,0,0,0,0,0,0,0,0,0,0,0,0,0],"sum_hessian":[1.0328492E2,6.872939E1,3.4555523E1,2.2979866E1,4.5749527E1,1.82296E1,4.7502646E0,1.5948437E1,2.980109E1,1.3138659E1,5.090943E0,1.596059E0,3.1542058E0,1.4774868E1,1.1735692E0,2.115218E0,2.7685871E1,1.0846472E1,2.2921865E0,3.980799E0,1.110144E0,9.839828E0,4.9350405E0,1.7199114E1,1.0486757E1],"tree_param":{"num_deleted":"0","num_feature":"6","num_nodes":"25","size_leaf_vector":"1"}},{"base_weights":[1.1203352E-2,5.427513E-1,-5.5141956E-2,1.3359683E-2,6.478661E-1,4.7377345E-1,-6.3447416E-1,7.2577816E-1,2.2356434E-2,-2.8493145E-2,8.487397E-1,2.3558283E-2,-5.6878835E-2,1.0960572E0,6.19489E-1,5.9073055E-1,-4.9895084E-1,4.9582228E-2,1.1436752E-2,3.5253834E-2,7.757347E-2,-3.0704984E-2,3.646643E-2,4.139343E-3,3.843213E-2,-3.6068633E-2,4.1729887E-3],"categories":[],"categories_nodes":[],"categories_segments":[],"categories_sizes":[],"default_left":[0,0,0,0,0,0,0,0,0,0,0,0,0,0,0,0,0,0,0,0,0,0,0,0,0,0,0],"id":17,"left_children":[1,3,-1,5,7,9,11,13,15,-1,17,-1,-1,19,21,23,25,-1,-1,-1,-1,-1,-1,-1,-1,-1,-1],"loss_changes":[6.351815E1,4.0314255E0,0E0,4.192623E0,2.9348335E0,3.6926165E0,3.7891874E0,1.4389687E0,2.5877273E0,0E0,3.4327364E-1,0E0,0E0,8.11738E-1,6.424961E0,3.1231618E-1,6.5332556E-1,0E0,0E0,0E0,0E0,0E0,0E0,0E0,0E0,0E0,0E0],"parents":[2147483647,0,0,1,1,3,3,4,4,5,5,6,6,7,7,8,8,10,10,13,13,14,14,15,15,16,16],"right_children":[2,4,-1,6,8,10,12,14,16,-1,18,-1,-1,20,22,24,26,-1,-1,-1,-1,-1,-1,-1,-1,-1,-1],"split_conditions":[1.8011234E1,1.7560917E1,-5.5141956E-2,1.0829063E1,1.8375925E1,1.227011E1,9.183033E0,1.7513306E1,5E0,-2.8493145E-2,9.80517E0,2.3558283E-2,-5.6878835E-2,1.4476012E1,2.4895348E1,2.472245E1,4.057707E1,4.9582228E-2,1.1436752E-2,3.5253834E-2,7.757347E-2,-3.0704984E-2,3.646643E-2,4.139343E-3,3.843213E-2,-3.6068633E-2,4.1729887E-3],"split_indices":[2,3,0,0,1,3,2,0,4,0,0,0,0,2,3,0,3,0,0,0,0,0,0,0,0,0,0],"split_type":[0,0,0,0,0,0,0,0,0,0,0,0,0,0,0,0,0,0,0,0,0,0,0,0,0,0,0],"sum_hessian":[1.05253105E2,7.16021E1,3.3651012E1,1.2048597E1,5.9553497E1,7.20015E0,4.848447E0,5.2814716E1,6.738781E0,1.7657634E0,5.4343867E0,1.5361087E0,3.312338E0,9.702415E0,4.3112305E1,3.160146E0,3.578635E0,3.9293065E0,1.5050802E0,6.5916057E0,3.1108098E0,3.1495376E0,3.9962765E1,1.1998541E0,1.9602919E0,2.4169912E0,1.1616436E0],"tree_param":{"num_deleted":"0","num_feature":"6","num_nodes":"27","size_leaf_vector":"1"}},{"base_weights":[-2.834136E-2,4.9114096E-1,-5.7818193E-2,1.1368983E0,-1.0134792E0,1.246066E0,6.02574E-1,-5.638107E-3,-1.0524257E0,1.3581548E0,7.9447806E-1,-4.380161E-1,7.220623E-2,-1.4741316E-2,-5.398136E-2,2.2379046E-2,7.085398E-2,6.806762E-3,4.910533E-2,-4.8777E-2,3.585434E-3],"categories":[],"categories_nodes":[],"categories_segments":[],"categories_sizes":[],"default_left":[0,0,0,0,0,0,0,0,0,0,0,0,0,0,0,0,0,0,0,0,0],"id":18,"left_children":[1,3,-1,5,7,9,11,-1,13,15,17,19,-1,-1,-1,-1,-1,-1,-1,-1,-1],"loss_changes":[6.2939293E1,7.2642456E1,0E0,2.279686E0,6.74984E-1,1.0572433E0,1.0046758E1,0E0,1.2613487E-1,1.1042786E0,1.2005816E0,1.59718E0,0E0,0E0,0E0,0E0,0E0,0E0,0E0,0E0,0E0],"parents":[2147483647,0,0,1,1,3,3,4,4,5,5,6,6,8,8,9,9,10,10,11,11],"right_children":[2,4,-1,6,8,10,12,-1,14,16,18,20,-1,-1,-1,-1,-1,-1,-1,-1,-1],"split_conditions":[8E0,1.7741411E1,-5.7818193E-2,3.1962442E1,1.1948516E1,1.4638839E1,4.8355988E1,-5.638107E-3,1.8112785E1,1.3724293E1,3E0,4.314064E1,7.220623E-2,-1.4741316E-2,-5.398136E-2,2.2379046E-2,7.085398E-2,6.806762E-3,4.910533E-2,-4.8777E-2,3.585434E-3],"split_indices":[5,2,0,0,3,2,3,0,2,3,5,3,0,0,0,0,0,0,0,0,0],"split_type":[0,0,0,0,0,0,0,0,0,0,0,0,0,0,0,0,0,0,0,0,0],"sum_hessian":[1.0543799E2,7.257842E1,3.2859566E1,5.0954163E1,2.1624264E1,4.120378E1,9.750381E0,1.0577188E0,2.0566544E1,3.1401983E1,9.801799E0,4.5740333E0,5.176348E0,1.1231711E0,1.9443373E1,2.4310102E0,2.8970972E1,2.5566602E0,7.2451386E0,1.7815088E0,2.7925243E0],"tree_param":{"num_deleted":"0","num_feature":"6","num_nodes":"21","size_leaf_vector":"1"}},{"base_weights":[-1.8426973E-2,4.4291285E-1,-5.704652E-2,1.005304E0,-1.0276334E0,8.233601E-2,8.357789E-1,-5.6335754E-3,-5.355359E-2,9.4927245E-1,-1.2074895E-1,2.5113255E-2,5.774048E-2,-2.4211505E-2,2.3301328E-2],"categories":[],"categories_nodes":[],"categories_segments":[],"categories_sizes":[],"default_left":[0,0,0,0,0,0,0,0,0,0,0,0,0,0,0],"id":19,"left_children":[1,3,-1,5,7,-1,9,-1,-1,11,13,-1,-1,-1,-1],"loss_changes":[5.3468178E1,6.1574158E1,0E0,4.436535E0,7.0384216E-1,0E0,4.9252853E0,0E0,0E0,3.0698853E0,1.417341E0,0E0,0E0,0E0,0E0],"parents":[2147483647,0,0,1,1,3,3,4,4,6,6,9,9,10,10],"right_children":[2,4,-1,6,8,-1,10,-1,-1,12,14,-1,-1,-1,-1],"split_conditions":[8E0,1.8011234E1,-5.704652E-2,1.0362655E1,1.1948516E1,8.233601E-2,1.6028765E1,-5.6335754E-3,-5.355359E-2,2.4786926E1,1.7550205E1,2.5113255E-2,5.774048E-2,-2.4211505E-2,2.3301328E-2],"split_indices":[5,2,0,1,3,0,2,0,0,3,2,0,0,0,0],"split_type":[0,0,0,0,0,0,0,0,0,0,0,0,0,0,0],"sum_hessian":[1.0127339E2,7.220369E1,2.9069706E1,5.2458134E1,1.9745552E1,9.1446495E0,4.3313484E1,1.0578297E0,1.8687721E1,3.872615E1,4.5873337E0,1.3282565E1,2.5443586E1,2.9405534E0,1.6467803E0],"tree_param":{"num_deleted":"0","num_feature":"6","num_nodes":"15","size_leaf_vector":"1"}},{"base_weights":[-2.0355503E-3,4.7600776E-1,-1.0514835E0,3.6743182E-1,5.148506E-2,-6.398746E-3,-5.3962387E-2,5.234621E-1,-7.2714263E-1,5.5776782E-2,4.1687667E-1,-5.6512088E-2,-1.553202E-1,4.4654224E-2,1.4959546E-2,2.449247E-2,-4.4268485E-2],"categories":[],"categories_nodes":[],"categories_segments":[],"categories_sizes":[],"default_left":[0,0,0,0,0,0,0,0,0,0,0,0,0,0,0,0,0],"id":20,"left_children":[1,3,5,7,-1,-1,-1,9,11,-1,13,-1,15,-1,-1,-1,-1],"loss_changes":[5.2162117E1,3.9163284E0,6.9620514E-1,1.0846543E1,0E0,0E0,0E0,2.9563646E0,1.6832509E0,0E0,2.3971863E0,0E0,2.5502067E0,0E0,0E0,0E0,0E0],"parents":[2147483647,0,0,1,1,2,2,3,3,7,7,8,8,10,10,12,12],"right_children":[2,4,6,8,-1,-1,-1,10,12,-1,14,-1,16,-1,-1,-1,-1],"split_conditions":[1.8011234E1,4.8355988E1,1.1145166E1,3.1447472E1,5.148506E-2,-6.398746E-3,-5.3962387E-2,6.130467E0,4.3836163E1,5.5776782E-2,9.963871E0,-5.6512088E-2,3.6386765E1,4.4654224E-2,1.4959546E-2,2.449247E-2,-4.4268485E-2],"split_indices":[2,3,3,0,0,0,0,2,3,0,1,0,0,0,0,0,0],"split_type":[0,0,0,0,0,0,0,0,0,0,0,0,0,0,0,0,0],"sum_hessian":[1.0197688E2,7.043764E1,3.1539248E1,6.028058E1,1.0157054E1,1.0842323E0,3.0455015E1,5.321641E1,7.06417E0,6.6744237E0,4.654199E1,3.5705757E0,3.4935942E0,7.917125E0,3.8624863E1,2.0292742E0,1.46432E0],"tree_param":{"num_deleted":"0","num_feature":"6","num_nodes":"17","size_leaf_vector":"1"}},{"base_weights":[-2.6001008E-2,4.2761973E-1,-5.6661613E-2,9.750864E-1,-9.889761E-1,7.7127986E-2,8.1347454E-1,-5.4040784E-3,-1.030179E0,9.1687E-2,9.4145036E-1,-5.353699E-2,-8.192941E-3,-1.9384615E-2,3.0555898E-2,-7.7028E-3,5.020849E-2],"categories":[],"categories_nodes":[],"categories_segments":[],"categories_sizes":[],"default_left":[0,0,0,0,0,0,0,0,0,0,0,0,0,0,0,0,0],"id":21,"left_children":[1,3,-1,5,7,-1,9,-1,11,13,15,-1,-1,-1,-1,-1,-1],"loss_changes":[5.175268E1,5.7683407E1,0E0,3.6289978E0,6.465874E-1,0E0,3.9377766E0,0E0,5.214157E-1,2.14648E0,2.6897774E0,0E0,0E0,0E0,0E0,0E0,0E0],"parents":[2147483647,0,0,1,1,3,3,4,4,6,6,8,8,9,9,10,10],"right_children":[2,4,-1,6,8,-1,10,-1,12,14,16,-1,-1,-1,-1,-1,-1],"split_conditions":[8E0,1.7741411E1,-5.6661613E-2,7.7722707E0,9.01512E0,7.7127986E-2,3E0,-5.4040784E-3,3.8767754E1,3.2812473E1,8.187142E0,-5.353699E-2,-8.192941E-3,-1.9384615E-2,3.0555898E-2,-7.7028E-3,5.020849E-2],"split_indices":[5,2,0,2,0,0,5,0,0,3,2,0,0,0,0,0,0],"split_type":[0,0,0,0,0,0,0,0,0,0,0,0,0,0,0,0,0],"sum_hessian":[1.0107419E2,7.213503E1,2.8939156E1,5.2252766E1,1.9882267E1,9.688468E0,4.2564297E1,1.0503132E0,1.8831953E1,6.6687565E0,3.5895542E1,1.7764275E1,1.0676796E0,3.59998E0,3.0687761E0,1.8649331E0,3.403061E1],"tree_param":{"num_deleted":"0","num_feature":"6","num_nodes":"17","size_leaf_vector":"1"}},{"base_weights":[3.9807964E-2,4.7639924E-1,-5.615109E-2,9.6487236E-1,3.5980535E-1,9.243997E-2,5.620223E-2,6.3204235E-1,2.0761311E-1,9.177196E-3,-1.9097495E-3,3.995613E-1,1.0622618E0,3.6120775E-1,-7.2863084E-1,3.331429E-2,4.01022E-3,2.2782128E-2,6.370222E-2,-7.967093E-3,2.280838E-2,-4.9908895E-2,-1.2208988E-2],"categories":[],"categories_nodes":[],"categories_segments":[],"categories_sizes":[],"default_left":[0,0,0,0,0,0,0,0,0,0,0,0,0,0,0,0,0,0,0,0,0,0,0],"id":22,"left_children":[1,3,-1,5,7,9,-1,11,13,-1,-1,15,17,19,21,-1,-1,-1,-1,-1,-1,-1,-1],"loss_changes":[5.1451283E1,3.8455696E0,0E0,1.7834492E0,2.3972454E0,4.4936042E-2,0E0,1.7153158E0,6.1062403E0,0E0,0E0,1.2661359E0,3.0622244E-1,1.8311906E0,5.473232E-1,0E0,0E0,0E0,0E0,0E0,0E0,0E0,0E0],"parents":[2147483647,0,0,1,1,3,3,4,4,5,5,7,7,8,8,11,11,12,12,13,13,14,14],"right_children":[2,4,-1,6,8,10,-1,12,14,-1,-1,16,18,20,22,-1,-1,-1,-1,-1,-1,-1,-1],"split_conditions":[8E0,1.0362655E1,-5.615109E-2,8.60747E0,5E0,2.2960659E1,5.620223E-2,6E0,1.8375925E1,9.177196E-3,-1.9097495E-3,4E0,4E0,1.7007978E1,1.9126133E1,3.331429E-2,4.01022E-3,2.2782128E-2,6.370222E-2,-7.967093E-3,2.280838E-2,-4.9908895E-2,-1.2208988E-2],"split_indices":[5,1,0,1,4,3,0,5,1,0,0,4,4,3,1,0,0,0,0,0,0,0,0],"split_type":[0,0,0,0,0,0,0,0,0,0,0,0,0,0,0,0,0,0,0,0,0,0,0],"sum_hessian":[9.929182E1,7.261747E1,2.6674347E1,1.25911255E1,6.002634E1,2.1866598E0,1.0404467E1,2.0393724E1,3.9632618E1,1.0496365E0,1.1370233E0,1.44915495E1,5.902175E0,3.457469E1,5.057924E0,7.3045263E0,7.187023E0,2.3428626E0,3.5593123E0,5.229532E0,2.9345161E1,2.568428E0,2.489496E0],"tree_param":{"num_deleted":"0","num_feature":"6","num_nodes":"23","size_leaf_vector":"1"}},{"base_weights":[1.6543545E-2,4.1453236E-1,-5.5555135E-2,9.1175073E-1,-1.0074555E0,7.429168E-2,7.665705E-1,-5.3445925E-3,-5.261417E-2,8.47838E-1,-4.017717E-2,4.7113698E-2,2.1136366E-2,3.952399E-2,-2.4469305E-2],"categories":[],"categories_nodes":[],"categories_segments":[],"categories_sizes":[],"default_left":[0,0,0,0,0,0,0,0,0,0,0,0,0,0,0],"id":23,"left_children":[1,3,-1,5,7,-1,9,-1,-1,11,13,-1,-1,-1,-1],"loss_changes":[4.5083035E1,5.339416E1,0E0,3.487976E0,6.829529E-1,0E0,3.0745697E0,0E0,0E0,1.2948952E0,2.32675E0,0E0,0E0,0E0,0E0],"parents":[2147483647,0,0,1,1,3,3,4,4,6,6,9,9,10,10],"right_children":[2,4,-1,6,8,-1,10,-1,-1,12,14,-1,-1,-1,-1],"split_conditions":[8E0,1.8011234E1,-5.5555135E-2,1.0362655E1,8.990005E0,7.429168E-2,1.6028765E1,-5.3445925E-3,-5.261417E-2,3.1447472E1,4E0,4.7113698E-2,2.1136366E-2,3.952399E-2,-2.4469305E-2],"split_indices":[5,2,0,1,0,0,2,0,0,0,4,0,0,0,0],"split_type":[0,0,0,0,0,0,0,0,0,0,0,0,0,0,0],"sum_hessian":[9.8428215E1,7.32189E1,2.5209314E1,5.451557E1,1.870333E1,9.139811E0,4.537576E1,1.0473452E0,1.7655983E1,4.1176884E1,4.198875E0,3.2696915E1,8.47997E0,1.2070806E0,2.9917943E0],"tree_param":{"num_deleted":"0","num_feature":"6","num_nodes":"15","size_leaf_vector":"1"}},{"base_weights":[3.194935E-3,4.0225253E-1,-5.512157E-2,8.680856E-1,-9.941452E-1,6.792446E-2,7.291856E-1,-5.1977504E-3,-5.2098613E-2,6.7191005E-2,8.454411E-1,5.349232E-2,-1.712463E-2,4.4876583E-2,-1.0661597E-2],"categories":[],"categories_nodes":[],"categories_segments":[],"categories_sizes":[],"default_left":[0,0,0,0,0,0,0,0,0,0,0,0,0,0,0],"id":24,"left_children":[1,3,-1,5,7,-1,9,-1,-1,11,13,-1,-1,-1,-1],"loss_changes":[4.275063E1,4.7171997E1,0E0,2.6820488E0,6.697197E-1,0E0,3.3429184E0,0E0,0E0,3.5232794E0,2.2588177E0,0E0,0E0,0E0,0E0],"parents":[2147483647,0,0,1,1,3,3,4,4,6,6,9,9,10,10],"right_children":[2,4,-1,6,8,-1,10,-1,-1,12,14,-1,-1,-1,-1],"split_conditions":[8E0,1.8011234E1,-5.512157E-2,1.0362655E1,9.01512E0,6.792446E-2,1.1253155E1,-5.1977504E-3,-5.2098613E-2,9.183033E0,1.7095064E1,5.349232E-2,-1.712463E-2,4.4876583E-2,-1.0661597E-2],"split_indices":[5,2,0,1,0,0,1,0,0,2,2,0,0,0,0],"split_type":[0,0,0,0,0,0,0,0,0,0,0,0,0,0,0],"sum_hessian":[9.488928E1,7.019113E1,2.4698153E1,5.2916668E1,1.7274464E1,9.741776E0,4.3174892E1,1.0425918E0,1.6231873E1,6.6852098E0,3.648968E1,1.4717844E0,5.2134256E0,3.492353E1,1.5661511E0],"tree_param":{"num_deleted":"0","num_feature":"6","num_nodes":"15","size_leaf_vector":"1"}},{"base_weights":[7.7407025E-3,4.087366E-1,-5.464503E-2,8.6960644E-1,-9.8462605E-1,9.5682895E-1,2.002793E-1,-4.9083414E-3,-5.1765382E-2,8.4139436E-1,7.101077E-2,-2.9103583E-2,4.7454953E-1,5.0061632E-2,-3.5041254E-2,3.850818E-2,-2.1509325E-2],"categories":[],"categories_nodes":[],"categories_segments":[],"categories_sizes":[],"default_left":[0,0,0,0,0,0,0,0,0,0,0,0,0,0,0,0,0],"id":25,"left_children":[1,3,-1,5,7,9,11,-1,-1,13,-1,-1,15,-1,-1,-1,-1],"loss_changes":[4.1737957E1,4.535836E1,0E0,2.8795853E0,6.932945E-1,1.2804527E0,1.8490168E0,0E0,0E0,1.0439112E1,0E0,0E0,1.930162E0,0E0,0E0,0E0,0E0],"parents":[2147483647,0,0,1,1,3,3,4,4,5,5,6,6,9,9,12,12],"right_children":[2,4,-1,6,8,10,12,-1,-1,14,-1,-1,16,-1,-1,-1,-1],"split_conditions":[8E0,1.8011234E1,-5.464503E-2,1.8375925E1,1.2772955E1,4.8355988E1,3E0,-4.9083414E-3,-5.1765382E-2,3.1447472E1,7.101077E-2,-2.9103583E-2,3.3456333E1,5.0061632E-2,-3.5041254E-2,3.850818E-2,-2.1509325E-2],"split_indices":[5,2,0,1,3,3,5,0,0,0,0,0,0,0,0,0,0],"split_type":[0,0,0,0,0,0,0,0,0,0,0,0,0,0,0,0,0],"sum_hessian":[9.255615E1,6.8300804E1,2.4255348E1,5.160709E1,1.6693712E1,4.5277298E1,6.3297944E0,1.061648E0,1.5632065E1,3.850182E1,6.775475E0,1.351736E0,4.978059E0,3.5204002E1,3.2978191E0,3.8642073E0,1.1138514E0],"tree_param":{"num_deleted":"0","num_feature":"6","num_nodes":"17","size_leaf_vector":"1"}},{"base_weights":[-2.1861488E-2,3.680535E-1,-5.433155E-2,7.9575324E-1,-9.7409886E-1,6.567803E-2,6.542442E-1,-4.566764E-3,-5.1290344E-2,6.2923945E-2,5.242744E-1,5.427937E-2,1.7703315E-2],"categories":[],"categories_nodes":[],"categories_segments":[],"categories_sizes":[],"default_left":[0,0,0,0,0,0,0,0,0,0,0,0,0],"id":26,"left_children":[1,3,-1,5,7,-1,9,-1,-1,-1,11,-1,-1],"loss_changes":[3.8118633E1,3.9377155E1,0E0,2.9176292E0,6.6860867E-1,0E0,2.6758766E0,0E0,0E0,0E0,3.1190996E0,0E0,0E0],"parents":[2147483647,0,0,1,1,3,3,4,4,6,6,10,10],"right_children":[2,4,-1,6,8,-1,10,-1,-1,-1,12,-1,-1],"split_conditions":[8E0,1.8011234E1,-5.433155E-2,7.7722707E0,9.245759E0,6.567803E-2,1.0362655E1,-4.566764E-3,-5.1290344E-2,6.2923945E-2,4E0,5.427937E-2,1.7703315E-2],"split_indices":[5,2,0,2,0,0,1,0,0,0,4,0,0],"split_type":[0,0,0,0,0,0,0,0,0,0,0,0,0],"sum_hessian":[8.98513E1,6.624642E1,2.3604881E1,5.054614E1,1.5700282E1,9.07104E0,4.1475098E1,1.0218343E0,1.4678448E1,5.8049216E0,3.5670174E1,7.0482917E0,2.8621883E1],"tree_param":{"num_deleted":"0","num_feature":"6","num_nodes":"13","size_leaf_vector":"1"}},{"base_weights":[-1.3644919E-2,3.63183E-1,-5.2114047E-2,7.6468635E-1,-5.396354E-2,6.39482E-1,6.866805E-2,1.1390398E0,5.092983E-1,6.366411E-2,5.5584344E-3,5.2853137E-2,1.9495796E-2],"categories":[],"categories_nodes":[],"categories_segments":[],"categories_sizes":[],"default_left":[0,0,0,0,0,0,0,0,0,0,0,0,0],"id":27,"left_children":[1,3,-1,5,-1,7,-1,9,11,-1,-1,-1,-1],"loss_changes":[3.581426E1,4.000461E1,0E0,3.1993046E0,0E0,2.4275932E0,0E0,1.0660734E0,2.1052265E0,0E0,0E0,0E0,0E0],"parents":[2147483647,0,0,1,1,3,3,5,5,7,7,8,8],"right_children":[2,4,-1,6,-1,8,-1,10,12,-1,-1,-1,-1],"split_conditions":[1.8011234E1,8E0,-5.2114047E-2,4.8355988E1,-5.396354E-2,7.7722707E0,6.866805E-2,3.9930885E1,1.0342366E1,6.366411E-2,5.5584344E-3,5.2853137E-2,1.9495796E-2],"split_indices":[2,5,0,3,0,2,0,3,1,0,0,0,0],"split_type":[0,0,0,0,0,0,0,0,0,0,0,0,0],"sum_hessian":[9.041901E1,6.664966E1,2.3769342E1,5.250492E1,1.4144742E1,4.5248016E1,7.256903E0,7.751907E0,3.749611E1,6.6452627E0,1.1066438E0,5.304223E0,3.2191887E1],"tree_param":{"num_deleted":"0","num_feature":"6","num_nodes":"13","size_leaf_vector":"1"}},{"base_weights":[-1.9997641E-2,3.3925828E-1,-5.35118E-2,7.4164736E-1,-9.578896E-1,8.1862587E-1,1.3649526E-1,-4.644983E-3,-5.0663333E-2,4.96662E-1,9.7385E-1,3.953808E-2,-2.7130026E-1,3.7569758E-2,-3.5733078E-2,6.336553E-2,3.2521915E-2,-4.9362864E-2,1.7977785E-2],"categories":[],"categories_nodes":[],"categories_segments":[],"categories_sizes":[],"default_left":[0,0,0,0,0,0,0,0,0,0,0,0,0,0,0,0,0,0,0],"id":28,"left_children":[1,3,-1,5,7,9,11,-1,-1,13,15,-1,17,-1,-1,-1,-1,-1,-1],"loss_changes":[3.2815174E1,3.455789E1,0E0,2.2201157E0,6.622114E-1,1.7256985E0,2.0419126E0,0E0,0E0,5.604009E0,1.9078197E0,0E0,2.5969582E0,0E0,0E0,0E0,0E0,0E0,0E0],"parents":[2147483647,0,0,1,1,3,3,4,4,5,5,6,6,9,9,10,10,12,12],"right_children":[2,4,-1,6,8,10,12,-1,-1,14,16,-1,18,-1,-1,-1,-1,-1,-1],"split_conditions":[8E0,1.8011234E1,-5.35118E-2,1.8449E1,1.2544583E1,2.4786926E1,9.427767E0,-4.644983E-3,-5.0663333E-2,1.7513306E1,2.8665945E1,3.953808E-2,5E0,3.7569758E-2,-3.5733078E-2,6.336553E-2,3.2521915E-2,-4.9362864E-2,1.7977785E-2],"split_indices":[5,2,0,1,3,3,2,0,0,0,0,0,5,0,0,0,0,0,0],"split_type":[0,0,0,0,0,0,0,0,0,0,0,0,0,0,0,0,0,0,0],"sum_hessian":[8.5010376E1,6.3847107E1,2.1163265E1,4.905727E1,1.4789839E1,4.32082E1,5.849068E0,1.0509882E0,1.3738851E1,1.5421264E1,2.7786938E1,1.8852552E0,3.963813E0,1.3055475E1,2.3657877E0,1.3037907E1,1.4749031E1,1.5920502E0,2.3717628E0],"tree_param":{"num_deleted":"0","num_feature":"6","num_nodes":"19","size_leaf_vector":"1"}},{"base_weights":[2.0891877E-3,3.3473775E-1,-5.3025402E-2,7.906578E-1,2.3186901E-1,8.767677E-1,-2.6641495E-3,1.4391994E-1,7.122745E-1,2.8905448E-1,5.0935086E-2,2.7768567E-1,-8.1778395E-1,8.2373875E-1,-9.823691E-4,-2.0200882E-2,3.9016854E-2,3.5285112E-4,2.410396E-2,-9.984257E-3,-4.7935795E-2,1.8603576E-2,5.1477093E-2],"categories":[],"categories_nodes":[],"categories_segments":[],"categories_sizes":[],"default_left":[0,0,0,0,0,0,0,0,0,0,0,0,0,0,0,0,0,0,0,0,0,0,0],"id":29,"left_children":[1,3,-1,5,7,9,-1,11,13,15,-1,17,19,21,-1,-1,-1,-1,-1,-1,-1,-1,-1],"loss_changes":[3.0778282E1,2.9265885E0,0E0,9.0367174E-1,2.2431707E0,6.029053E-1,0E0,6.4250774E0,6.9640446E-1,1.5031792E0,0E0,2.377518E0,3.4311867E-1,2.917018E-1,0E0,0E0,0E0,0E0,0E0,0E0,0E0,0E0,0E0],"parents":[2147483647,0,0,1,1,3,3,4,4,5,5,7,7,8,8,9,9,11,11,12,12,13,13],"right_children":[2,4,-1,6,8,10,-1,12,14,16,-1,18,20,22,-1,-1,-1,-1,-1,-1,-1,-1,-1],"split_conditions":[8E0,1.0362655E1,-5.3025402E-2,3.4643578E1,4.8539734E1,5E0,-2.6641495E-3,3.1707817E1,1.801164E1,1.781685E1,5.0935086E-2,2.499709E1,3.3456333E1,5E0,-9.823691E-4,-2.0200882E-2,3.9016854E-2,3.5285112E-4,2.410396E-2,-9.984257E-3,-4.7935795E-2,1.8603576E-2,5.1477093E-2],"split_indices":[5,1,0,0,3,4,0,0,1,0,0,3,0,5,0,0,0,0,0,0,0,0,0],"split_type":[0,0,0,0,0,0,0,0,0,0,0,0,0,0,0,0,0,0,0,0,0,0,0],"sum_hessian":[8.5070015E1,6.5309654E1,1.9760359E1,1.079215E1,5.45175E1,9.757649E0,1.0345002E0,4.7179764E1,7.337741E0,2.4887788E0,7.2688704E0,4.2043137E1,5.1366253E0,6.259097E0,1.0786433E0,1.1060526E0,1.3827263E0,1.853555E1,2.350759E1,1.4024885E0,3.734137E0,2.838176E0,3.4209213E0],"tree_param":{"num_deleted":"0","num_feature":"6","num_nodes":"23","size_leaf_vector":"1"}},{"base_weights":[3.8721565E-2,4.012396E-1,-9.867474E-1,7.556821E-1,-5.2349485E-2,-3.8833213E-3,-5.12846E-2,6.377747E-1,6.599607E-2,7.786784E-1,-5.4435694E-1,1.8920083E-2,4.869398E-2,-5.3778987E-2,4.951566E-3],"categories":[],"categories_nodes":[],"categories_segments":[],"categories_sizes":[],"default_left":[0,0,0,0,0,0,0,0,0,0,0,0,0,0,0],"id":30,"left_children":[1,3,5,7,-1,-1,-1,9,-1,11,13,-1,-1,-1,-1],"loss_changes":[3.2148098E1,3.35484E1,7.2036934E-1,2.6075726E0,0E0,0E0,0E0,7.8896694E0,0E0,2.7927723E0,1.9391787E0,0E0,0E0,0E0,0E0],"parents":[2147483647,0,0,1,1,2,2,3,3,7,7,9,9,10,10],"right_children":[2,4,6,8,-1,-1,-1,10,-1,12,14,-1,-1,-1,-1],"split_conditions":[1.8011234E1,8E0,8.780825E0,4.8355988E1,-5.2349485E-2,-3.8833213E-3,-5.12846E-2,3.1707817E1,6.599607E-2,4E0,4.314064E1,1.8920083E-2,4.869398E-2,-5.3778987E-2,4.951566E-3],"split_indices":[2,5,0,3,0,0,0,0,0,5,3,0,0,0,0],"split_type":[0,0,0,0,0,0,0,0,0,0,0,0,0,0,0],"sum_hessian":[8.4412476E1,6.2815144E1,2.1597334E1,5.0848568E1,1.1966578E1,1.0102156E0,2.0587118E1,4.3821617E1,7.0269494E0,3.9459545E1,4.3620725E0,1.3898337E1,2.5561207E1,2.0213625E0,2.3407102E0],"tree_param":{"num_deleted":"0","num_feature":"6","num_nodes":"15","size_leaf_vector":"1"}},{"base_weights":[2.800862E-2,3.6222577E-1,-5.2478373E-2,7.4512905E-1,-9.2420894E-1,4.1677505E-1,9.01793E-1,-4.5518167E-3,-4.8854444E-2,1.0429109E0,-2.7806872E-1,1.1965173E0,5.548949E-1,-4.788034E-3,6.0684055E-2,3.7222575E-2,-3.300635E-2,6.304527E-2,7.01906E-3,-3.5992235E-2,4.503473E-2],"categories":[],"categories_nodes":[],"categories_segments":[],"categories_sizes":[],"default_left":[0,0,0,0,0,0,0,0,0,0,0,0,0,0,0,0,0,0,0,0,0],"id":31,"left_children":[1,3,-1,5,7,9,11,-1,-1,13,15,17,19,-1,-1,-1,-1,-1,-1,-1,-1],"loss_changes":[3.1246607E1,3.3277657E1,0E0,2.2753391E0,5.9931374E-1,8.341534E0,2.8154316E0,0E0,0E0,2.0500402E0,4.2267227E0,1.0153885E0,8.361119E0,0E0,0E0,0E0,0E0,0E0,0E0,0E0,0E0],"parents":[2147483647,0,0,1,1,3,3,4,4,5,5,6,6,9,9,10,10,11,11,12,12],"right_children":[2,4,-1,6,8,10,12,-1,-1,14,16,18,20,-1,-1,-1,-1,-1,-1,-1,-1],"split_conditions":[8E0,1.7741411E1,-5.2478373E-2,2.4786926E1,9.01512E0,1.3145858E1,2.8665945E1,-4.5518167E-3,-4.8854444E-2,1.1145166E1,1.0342366E1,1.6028765E1,3.9589447E1,-4.788034E-3,6.0684055E-2,3.7222575E-2,-3.300635E-2,6.304527E-2,7.01906E-3,-3.5992235E-2,4.503473E-2],"split_indices":[5,2,0,3,0,0,0,0,0,3,1,2,3,0,0,0,0,0,0,0,0],"split_type":[0,0,0,0,0,0,0,0,0,0,0,0,0,0,0,0,0,0,0,0,0],"sum_hessian":[8.4705696E1,6.515981E1,1.9545883E1,5.0538086E1,1.4621724E1,1.7506435E1,3.303165E1,1.0350543E0,1.358667E1,8.945005E0,8.56143E0,1.653464E1,1.6497011E1,1.2238418E0,7.7211637E0,2.0707793E0,6.4906507E0,1.5401776E1,1.1328632E0,3.2894082E0,1.3207603E1],"tree_param":{"num_deleted":"0","num_feature":"6","num_nodes":"21","size_leaf_vector":"1"}},{"base_weights":[-2.8537385E-2,2.9140842E-1,-5.205511E-2,6.3100725E-1,-9.300665E-1,5.215011E-1,6.210454E-2,-4.518392E-3,-4.9582727E-2,1.0974169E0,3.9025548E-1,6.278919E-2,4.3832758E-3,-4.5045815E-2,2.287249E-2],"categories":[],"categories_nodes":[],"categories_segments":[],"categories_sizes":[],"default_left":[0,0,0,0,0,0,0,0,0,0,0,0,0,0,0],"id":32,"left_children":[1,3,-1,5,7,9,-1,-1,-1,11,13,-1,-1,-1,-1],"loss_changes":[2.6224253E1,2.613145E1,0E0,2.6165066E0,6.240921E-1,2.8288307E0,0E0,0E0,0E0,1.0805511E0,3.5914664E0,0E0,0E0,0E0,0E0],"parents":[2147483647,0,0,1,1,3,3,4,4,5,5,9,9,10,10],"right_children":[2,4,-1,6,8,10,-1,-1,-1,12,14,-1,-1,-1,-1],"split_conditions":[8E0,1.8011234E1,-5.205511E-2,4.9561302E1,1.2113397E1,7.7722707E0,6.210454E-2,-4.518392E-3,-4.9582727E-2,4.1758427E1,8.187142E0,6.278919E-2,4.3832758E-3,-4.5045815E-2,2.287249E-2],"split_indices":[5,2,0,3,3,2,0,0,0,3,2,0,0,0,0],"split_type":[0,0,0,0,0,0,0,0,0,0,0,0,0,0,0],"sum_hessian":[7.9011116E1,6.0581154E1,1.842996E1,4.778046E1,1.280069E1,4.2091137E1,5.689327E0,1.0433133E0,1.1757377E1,6.445637E0,3.5645496E1,5.361151E0,1.084486E0,1.1495086E0,3.449599E1],"tree_param":{"num_deleted":"0","num_feature":"6","num_nodes":"15","size_leaf_vector":"1"}},{"base_weights":[-4.383165E-3,3.152211E-1,-9.67245E-1,6.407364E-1,-5.125438E-2,-5.8091334E-3,-5.0494146E-2,5.748397E-2,5.2514774E-1,6.033491E-1,-2.799367E-1,6.8274833E-4,3.4326296E-2,-3.136712E-2,1.8208649E-2],"categories":[],"categories_nodes":[],"categories_segments":[],"categories_sizes":[],"default_left":[0,0,0,0,0,0,0,0,0,0,0,0,0,0,0],"id":33,"left_children":[1,3,5,7,-1,-1,-1,-1,9,11,13,-1,-1,-1,-1],"loss_changes":[2.5097782E1,2.73762E1,6.201649E-1,2.3311958E0,0E0,0E0,0E0,0E0,2.8444834E0,1.9060745E0,1.2232339E0,0E0,0E0,0E0,0E0],"parents":[2147483647,0,0,1,1,2,2,3,3,8,8,9,9,10,10],"right_children":[2,4,6,8,-1,-1,-1,-1,10,12,14,-1,-1,-1,-1],"split_conditions":[1.8011234E1,8E0,1.1364253E1,1.0362655E1,-5.125438E-2,-5.8091334E-3,-5.0494146E-2,5.748397E-2,1.6259274E1,1.1253155E1,1.7550205E1,6.8274833E-4,3.4326296E-2,-3.136712E-2,1.8208649E-2],"split_indices":[2,5,3,1,0,0,0,0,2,1,2,0,0,0,0],"split_type":[0,0,0,0,0,0,0,0,0,0,0,0,0,0,0],"sum_hessian":[7.956577E1,6.0242126E1,1.9323645E1,4.889029E1,1.1351836E1,1.0996319E0,1.8224012E1,7.3928533E0,4.1497437E1,3.8051872E1,3.4455667E0,4.8476796E0,3.3204193E1,2.255225E0,1.1903417E0],"tree_param":{"num_deleted":"0","num_feature":"6","num_nodes":"15","size_leaf_vector":"1"}},{"base_weights":[2.09377E-2,3.128892E-1,-5.123749E-2,6.4090466E-1,-9.199423E-1,7.143591E-1,1.0798127E-1,-3.716994E-3,-4.9124163E-2,7.540867E-1,9.8590136E-2,4.025134E-2,-2.4767075E-1,5.135262E-2,2.6255993E-2,-1.9468857E-2,3.561347E-2,-2.622245E-2,1.6765168E-2],"categories":[],"categories_nodes":[],"categories_segments":[],"categories_sizes":[],"default_left":[0,0,0,0,0,0,0,0,0,0,0,0,0,0,0,0,0,0,0],"id":34,"left_children":[1,3,-1,5,7,9,11,-1,-1,13,15,-1,17,-1,-1,-1,-1,-1,-1],"loss_changes":[2.421798E1,2.5645E1,0E0,1.8616447E0,6.3727856E-1,9.861164E-1,1.9787621E0,0E0,0E0,1.9964371E0,1.408593E0,0E0,1.0661106E0,0E0,0E0,0E0,0E0,0E0,0E0],"parents":[2147483647,0,0,1,1,3,3,4,4,5,5,6,6,9,9,10,10,12,12],"right_children":[2,4,-1,6,8,10,12,-1,-1,14,16,-1,18,-1,-1,-1,-1,-1,-1],"split_conditions":[8E0,1.8011234E1,-5.123749E-2,1.6028765E1,9.245759E0,3.7847313E1,1.8013037E1,-3.716994E-3,-4.9124163E-2,1.0086819E1,9.62096E0,4.025134E-2,1.7550205E1,5.135262E-2,2.6255993E-2,-1.9468857E-2,3.561347E-2,-2.622245E-2,1.6765168E-2],"split_indices":[5,2,0,2,0,0,0,0,0,2,2,0,2,0,0,0,0,0,0],"split_type":[0,0,0,0,0,0,0,0,0,0,0,0,0,0,0,0,0,0,0],"sum_hessian":[7.727752E1,6.095885E1,1.631867E1,4.8527447E1,1.2431405E1,4.2349792E1,6.177653E0,1.0068377E0,1.1424567E1,3.9572098E1,2.7776968E0,1.66023E0,4.5174227E0,1.6461597E1,2.3110498E1,1.7509401E0,1.0267569E0,3.1312106E0,1.3862121E0],"tree_param":{"num_deleted":"0","num_feature":"6","num_nodes":"19","size_leaf_vector":"1"}},{"base_weights":[-2.7552843E-2,2.426171E-1,-5.1052578E-2,5.37597E-1,-9.154165E-1,1.0283985E0,4.1651288E-1,-3.6289901E-3,-4.8921023E-2,5.739358E-2,1.7894314E-3,-2.9192498E-2,4.7578654E-1,3.0165223E-2,1.1139257E-3],"categories":[],"categories_nodes":[],"categories_segments":[],"categories_sizes":[],"default_left":[0,0,0,0,0,0,0,0,0,0,0,0,0,0,0],"id":35,"left_children":[1,3,-1,5,7,9,11,-1,-1,-1,-1,-1,13,-1,-1],"loss_changes":[2.168807E1,2.2220497E1,0E0,2.6218166E0,6.3435555E-1,1.0826607E0,2.8185368E0,0E0,0E0,0E0,0E0,0E0,2.3577957E0,0E0,0E0],"parents":[2147483647,0,0,1,1,3,3,4,4,5,5,6,6,12,12],"right_children":[2,4,-1,6,8,10,12,-1,-1,-1,-1,-1,14,-1,-1],"split_conditions":[8E0,1.8011234E1,-5.1052578E-2,7.7722707E0,9.245759E0,3.669486E1,8.187142E0,-3.6289901E-3,-4.8921023E-2,5.739358E-2,1.7894314E-3,-2.9192498E-2,1.6890848E1,3.0165223E-2,1.1139257E-3],"split_indices":[5,2,0,2,0,0,2,0,0,0,0,0,1,0,0],"split_type":[0,0,0,0,0,0,0,0,0,0,0,0,0,0,0],"sum_hessian":[7.8878044E1,6.2608276E1,1.6269768E1,5.0325016E1,1.2283263E1,8.475843E0,4.184917E1,1.0040148E0,1.1279248E1,7.4256544E0,1.0501884E0,1.8458949E0,4.0003277E1,3.0965933E1,9.037343E0],"tree_param":{"num_deleted":"0","num_feature":"6","num_nodes":"15","size_leaf_vector":"1"}},{"base_weights":[-4.1056797E-2,2.2818388E-1,-5.0689887E-2,5.236748E-1,-9.040657E-1,-2.308252E-2,6.1553836E-1,-5.310859E-3,-4.8472952E-2,4.5509335E-2,-4.5900688E-1,7.4791074E-1,1.242664E-1,2.1848416E-2,-4.591189E-2,4.0972203E-2,-1.34097785E-2,2.3065472E-2,-2.2432804E-2],"categories":[],"categories_nodes":[],"categories_segments":[],"categories_sizes":[],"default_left":[0,0,0,0,0,0,0,0,0,0,0,0,0,0,0,0,0,0,0],"id":36,"left_children":[1,3,-1,5,7,9,11,-1,-1,-1,13,15,17,-1,-1,-1,-1,-1,-1],"loss_changes":[1.9638508E1,2.0164013E1,0E0,2.3902578E0,5.51671E-1,3.5783565E0,2.5432434E0,0E0,0E0,0E0,2.853562E0,2.5263615E0,2.1000366E0,0E0,0E0,0E0,0E0,0E0,0E0],"parents":[2147483647,0,0,1,1,3,3,4,4,5,5,6,6,10,10,11,11,12,12],"right_children":[2,4,-1,6,8,10,12,-1,-1,-1,14,16,18,-1,-1,-1,-1,-1,-1],"split_conditions":[8E0,1.8011234E1,-5.0689887E-2,3E0,9.245759E0,9.24398E0,3.1447472E1,-5.310859E-3,-4.8472952E-2,4.5509335E-2,1.0586358E1,1.7095064E1,1.4715684E1,2.1848416E-2,-4.591189E-2,4.0972203E-2,-1.34097785E-2,2.3065472E-2,-2.2432804E-2],"split_indices":[5,2,0,5,0,2,0,0,0,0,1,2,1,0,0,0,0,0,0],"split_type":[0,0,0,0,0,0,0,0,0,0,0,0,0,0,0,0,0,0,0],"sum_hessian":[7.310107E1,5.7853477E1,1.5247588E1,4.630614E1,1.1547338E1,6.7686934E0,3.9537445E1,1.0735456E0,1.0473792E1,1.8086385E0,4.9600554E0,3.0733864E1,8.803582E0,1.6972128E0,3.2628424E0,2.8893335E1,1.840529E0,5.665471E0,3.1381114E0],"tree_param":{"num_deleted":"0","num_feature":"6","num_nodes":"19","size_leaf_vector":"1"}},{"base_weights":[-5.870718E-2,2.2013232E-1,-4.848593E-2,4.724942E-1,-4.9349066E-2,3.5849983E-1,5.7842817E-2,9.7353864E-1,2.2023804E-1,2.4312912E-2,5.6287467E-2,3.761212E-2,3.8320103E-3],"categories":[],"categories_nodes":[],"categories_segments":[],"categories_sizes":[],"default_left":[0,0,0,0,0,0,0,0,0,0,0,0,0],"id":37,"left_children":[1,3,-1,5,-1,7,-1,9,11,-1,-1,-1,-1],"loss_changes":[1.9007488E1,1.7970798E1,0E0,3.345662E0,0E0,3.4224567E0,0E0,1.3122082E-2,2.7086737E0,0E0,0E0,0E0,0E0],"parents":[2147483647,0,0,1,1,3,3,5,5,7,7,8,8],"right_children":[2,4,-1,6,-1,8,-1,10,12,-1,-1,-1,-1],"split_conditions":[1.7741411E1,8E0,-4.848593E-2,4.9561302E1,-4.9349066E-2,1.0362655E1,5.7842817E-2,8.990103E0,4E0,2.4312912E-2,5.6287467E-2,3.761212E-2,3.8320103E-3],"split_indices":[2,5,0,3,0,1,0,1,4,0,0,0,0],"split_type":[0,0,0,0,0,0,0,0,0,0,0,0,0],"sum_hessian":[7.298464E1,5.646146E1,1.652318E1,4.72019E1,9.25956E0,4.1768375E1,5.4335246E0,6.5574E0,3.5210976E1,2.5591838E0,3.9982166E0,6.583128E0,2.8627848E1],"tree_param":{"num_deleted":"0","num_feature":"6","num_nodes":"13","size_leaf_vector":"1"}},{"base_weights":[-1.1208163E-2,2.7416766E-1,-4.8394825E-2,1.9643033E-1,7.056967E-1,3.0895874E-1,-5.0343644E-2,3.99084E-2,8.687629E-3,1.8869433E-1,5.049802E-2,1.6657284E-2,-3.5918575E-2],"categories":[],"categories_nodes":[],"categories_segments":[],"categories_sizes":[],"default_left":[0,0,0,0,0,0,0,0,0,0,0,0,0],"id":38,"left_children":[1,3,-1,5,7,9,-1,-1,-1,11,-1,-1,-1],"loss_changes":[1.9948881E1,1.7503848E0,0E0,6.9596577E0,2.6515865E-1,3.6594281E0,0E0,0E0,0E0,5.507859E0,0E0,0E0,0E0],"parents":[2147483647,0,0,1,1,3,3,4,4,5,5,9,9],"right_children":[2,4,-1,6,8,10,-1,-1,-1,12,-1,-1,-1],"split_conditions":[1.7741411E1,4.7477367E1,-4.8394825E-2,3.4643578E1,1.6028765E1,4.0206017E1,-5.0343644E-2,3.99084E-2,8.687629E-3,2.6759356E1,5.049802E-2,1.6657284E-2,-3.5918575E-2],"split_indices":[2,3,0,0,2,3,0,0,0,0,0,0,0],"split_type":[0,0,0,0,0,0,0,0,0,0,0,0,0],"sum_hessian":[7.109664E1,5.531103E1,1.5785612E1,4.810111E1,7.209924E0,4.4667236E1,3.4338722E0,5.7158313E0,1.4940933E0,3.9209587E1,5.45765E0,3.4369003E1,4.840584E0],"tree_param":{"num_deleted":"0","num_feature":"6","num_nodes":"13","size_leaf_vector":"1"}},{"base_weights":[5.1096894E-2,3.2358253E-1,-4.9926743E-2,5.861411E-1,-8.610807E-1,4.730191E-1,5.8029708E-2,-3.873789E-3,-4.7042493E-2,9.9043095E-1,3.6886448E-1,1.32316295E-2,5.4506343E-2,2.240179E-2,-1.2371725E-2],"categories":[],"categories_nodes":[],"categories_segments":[],"categories_sizes":[],"default_left":[0,0,0,0,0,0,0,0,0,0,0,0,0,0,0],"id":39,"left_children":[1,3,-1,5,7,9,-1,-1,-1,11,13,-1,-1,-1,-1],"loss_changes":[1.9757683E1,1.7519266E1,0E0,2.3994656E0,5.727525E-1,1.7685022E0,0E0,0E0,0E0,1.4867401E-1,1.7968621E0,0E0,0E0,0E0,0E0],"parents":[2147483647,0,0,1,1,3,3,4,4,5,5,9,9,10,10],"right_children":[2,4,-1,6,8,10,-1,-1,-1,12,14,-1,-1,-1,-1],"split_conditions":[8E0,1.8011234E1,-4.9926743E-2,4.8355988E1,1.293233E1,1.0362655E1,5.8029708E-2,-3.873789E-3,-4.7042493E-2,5E0,4.1758427E1,1.32316295E-2,5.4506343E-2,2.240179E-2,-1.2371725E-2],"split_indices":[5,2,0,3,3,1,0,0,0,4,3,0,0,0,0],"split_type":[0,0,0,0,0,0,0,0,0,0,0,0,0,0,0],"sum_hessian":[6.6950775E1,5.370152E1,1.324926E1,4.437242E1,9.329096E0,3.8595562E1,5.77686E0,1.044065E0,8.285031E0,5.0415025E0,3.355406E1,1.0502139E0,3.9912887E0,2.997626E1,3.5778012E0],"tree_param":{"num_deleted":"0","num_feature":"6","num_nodes":"15","size_leaf_vector":"1"}},{"base_weights":[-2.9650897E-2,2.3475778E-1,-4.7762033E-2,1.6302148E-1,3.8263585E-2,2.7688286E-1,-4.8036566E-1,9.8591655E-2,6.698395E-1,-5.5931743E-2,-5.4307025E-2,1.24562755E-2,-4.66274E-2,4.4791926E-2,1.4367844E-2,2.5050336E-2,-4.5425452E-2],"categories":[],"categories_nodes":[],"categories_segments":[],"categories_sizes":[],"default_left":[0,0,0,0,0,0,0,0,0,0,0,0,0,0,0,0,0],"id":40,"left_children":[1,3,-1,5,-1,7,9,11,13,-1,15,-1,-1,-1,-1,-1,-1],"loss_changes":[1.7151632E1,1.9531977E0,0E0,3.7495456E0,0E0,2.9170883E0,2.0573092E0,4.9607472E0,8.763938E-1,0E0,3.1693268E0,0E0,0E0,0E0,0E0,0E0,0E0],"parents":[2147483647,0,0,1,1,3,3,5,5,6,6,7,7,8,8,10,10],"right_children":[2,4,-1,6,-1,8,10,12,14,-1,16,-1,-1,-1,-1,-1,-1],"split_conditions":[1.7741411E1,5.030753E1,-4.7762033E-2,3.1447472E1,3.8263585E-2,3.2812473E1,4.261786E1,2.1769789E1,2.8665945E1,-5.5931743E-2,3.6386765E1,1.24562755E-2,-4.66274E-2,4.4791926E-2,1.4367844E-2,2.5050336E-2,-4.5425452E-2],"split_indices":[2,3,0,0,0,3,3,0,0,0,0,0,0,0,0,0,0],"split_type":[0,0,0,0,0,0,0,0,0,0,0,0,0,0,0,0,0],"sum_hessian":[6.8166466E1,5.360092E1,1.4565543E1,4.8367886E1,5.233036E0,4.157919E1,6.7886963E0,2.946246E1,1.2116728E1,2.0668507E0,4.7218456E0,2.6371012E1,3.091449E0,6.7727313E0,5.3439965E0,3.1121364E0,1.6097091E0],"tree_param":{"num_deleted":"0","num_feature":"6","num_nodes":"17","size_leaf_vector":"1"}},{"base_weights":[4.323891E-2,3.007474E-1,-4.965807E-2,5.424132E-1,-8.4949356E-1,1.0235027E0,4.214241E-1,-2.7679265E-3,-4.6609737E-2,5.770271E-2,1.0955742E-2,7.8683734E-2,5.95191E-1,-2.0199275E-2,1.8516563E-2,2.3989875E-2,5.256318E-2],"categories":[],"categories_nodes":[],"categories_segments":[],"categories_sizes":[],"default_left":[0,0,0,0,0,0,0,0,0,0,0,0,0,0,0,0,0],"id":41,"left_children":[1,3,-1,5,7,9,11,-1,-1,-1,-1,13,15,-1,-1,-1,-1],"loss_changes":[1.8481184E1,1.5843323E1,0E0,2.265994E0,6.0499716E-1,6.515398E-1,2.2597022E0,0E0,0E0,0E0,0E0,2.1459348E0,8.400707E-1,0E0,0E0,0E0,0E0],"parents":[2147483647,0,0,1,1,3,3,4,4,5,5,6,6,11,11,12,12],"right_children":[2,4,-1,6,8,10,12,-1,-1,-1,-1,14,16,-1,-1,-1,-1],"split_conditions":[8E0,1.8011234E1,-4.965807E-2,7.7722707E0,1.293233E1,1.8375925E1,2.4786926E1,-2.7679265E-3,-4.6609737E-2,5.770271E-2,1.0955742E-2,1.1238655E1,4.9561302E1,-2.0199275E-2,1.8516563E-2,2.3989875E-2,5.256318E-2],"split_indices":[5,2,0,2,3,1,3,0,0,0,0,2,3,0,0,0,0],"split_type":[0,0,0,0,0,0,0,0,0,0,0,0,0,0,0,0,0],"sum_hessian":[6.7129364E1,5.43381E1,1.2791263E1,4.5340492E1,8.997609E0,7.612281E0,3.772821E1,1.0060859E0,7.991523E0,6.175331E0,1.4369498E0,1.3181548E1,2.4546663E1,4.8197694E0,8.361779E0,2.1227734E1,3.3189297E0],"tree_param":{"num_deleted":"0","num_feature":"6","num_nodes":"17","size_leaf_vector":"1"}},{"base_weights":[2.8083779E-2,2.7010757E-1,-4.93222E-2,4.8736998E-1,-8.362698E-1,3.871603E-1,5.521336E-2,-2.5438326E-3,-4.6167094E-2,5.3187793E-1,-8.752091E-1,1.9655375E-2,5.9811898E-2,-4.935531E-3,-5.6335177E-2],"categories":[],"categories_nodes":[],"categories_segments":[],"categories_sizes":[],"default_left":[0,0,0,0,0,0,0,0,0,0,0,0,0,0,0],"id":42,"left_children":[1,3,-1,5,7,9,-1,-1,-1,11,13,-1,-1,-1,-1],"loss_changes":[1.6948118E1,1.37815485E1,0E0,2.4864674E0,6.027336E-1,8.1548605E0,0E0,0E0,0E0,3.0684462E0,8.0797887E-1,0E0,0E0,0E0,0E0],"parents":[2147483647,0,0,1,1,3,3,4,4,5,5,9,9,10,10],"right_children":[2,4,-1,6,8,10,-1,-1,-1,12,14,-1,-1,-1,-1],"split_conditions":[8E0,1.8011234E1,-4.93222E-2,4.9561302E1,1.3404956E1,3.4643578E1,5.521336E-2,-2.5438326E-3,-4.6167094E-2,3.9736076E1,4E0,1.9655375E-2,5.9811898E-2,-4.935531E-3,-5.6335177E-2],"split_indices":[5,2,0,3,3,0,0,0,0,3,4,0,0,0,0],"split_type":[0,0,0,0,0,0,0,0,0,0,0,0,0,0,0],"sum_hessian":[6.693875E1,5.463814E1,1.2300609E1,4.6137486E1,8.500656E0,4.109031E1,5.047178E0,1.0064795E0,7.494177E0,3.7383358E1,3.7069492E0,3.2240685E1,5.1426725E0,1.2475592E0,2.4593902E0],"tree_param":{"num_deleted":"0","num_feature":"6","num_nodes":"15","size_leaf_vector":"1"}},{"base_weights":[-3.2740146E-2,2.021183E-1,-4.923941E-2,4.124577E-1,-7.9134625E-1,4.7148798E-2,2.890932E-1,-5.443882E-3,-4.7393367E-2,-3.1606305E-1,4.0483165E-1,4.2739198E-2,-3.9915487E-2,-1.3374545E-2,2.5338797E-2],"categories":[],"categories_nodes":[],"categories_segments":[],"categories_sizes":[],"default_left":[0,0,0,0,0,0,0,0,0,0,0,0,0,0,0],"id":43,"left_children":[1,3,-1,5,7,-1,9,-1,-1,11,13,-1,-1,-1,-1],"loss_changes":[1.50854645E1,1.1659171E1,0E0,2.6996255E0,9.456382E-1,0E0,2.80966E0,0E0,0E0,4.470359E0,2.3685465E0,0E0,0E0,0E0,0E0],"parents":[2147483647,0,0,1,1,3,3,4,4,6,6,9,9,10,10],"right_children":[2,4,-1,6,8,-1,10,-1,-1,12,14,-1,-1,-1,-1],"split_conditions":[8E0,1.7741411E1,-4.923941E-2,1.0362655E1,1.0586358E1,4.7148798E-2,1.1253155E1,-5.443882E-3,-4.7393367E-2,9.183033E0,3E0,4.2739198E-2,-3.9915487E-2,-1.3374545E-2,2.5338797E-2],"split_indices":[5,2,0,1,1,0,1,0,0,2,5,0,0,0,0],"split_type":[0,0,0,0,0,0,0,0,0,0,0,0,0,0,0],"sum_hessian":[6.5577156E1,5.323295E1,1.2344207E1,4.4414253E1,8.818695E0,7.1259427E0,3.728831E1,1.9615383E0,6.8571568E0,5.708693E0,3.1579618E1,1.4400038E0,4.268689E0,3.944137E0,2.763548E1],"tree_param":{"num_deleted":"0","num_feature":"6","num_nodes":"15","size_leaf_vector":"1"}},{"base_weights":[-1.615048E-2,2.0321535E-1,-4.8609696E-2,4.066708E-1,-8.2268643E-1,2.8963286E-1,5.4414578E-2,-4.7096307E-3,-4.55568E-2,4.8349884E-1,-5.2455395E-1,9.869266E-3,4.0180694E-2,-6.231019E-2,-9.811217E-4],"categories":[],"categories_nodes":[],"categories_segments":[],"categories_sizes":[],"default_left":[0,0,0,0,0,0,0,0,0,0,0,0,0,0,0],"id":44,"left_children":[1,3,-1,5,7,9,-1,-1,-1,11,13,-1,-1,-1,-1],"loss_changes":[1.349667E1,1.1272834E1,0E0,3.2269363E0,4.9433184E-1,6.45012E0,0E0,0E0,0E0,2.7931004E0,2.9013646E0,0E0,0E0,0E0,0E0],"parents":[2147483647,0,0,1,1,3,3,4,4,5,5,9,9,10,10],"right_children":[2,4,-1,6,8,10,-1,-1,-1,12,14,-1,-1,-1,-1],"split_conditions":[8E0,1.8011234E1,-4.8609696E-2,4.8355988E1,9.80517E0,3.008309E1,5.4414578E-2,-4.7096307E-3,-4.55568E-2,2.6853134E1,3.9589447E1,9.869266E-3,4.0180694E-2,-6.231019E-2,-9.811217E-4],"split_indices":[5,2,0,3,0,0,0,0,0,3,3,0,0,0,0],"split_type":[0,0,0,0,0,0,0,0,0,0,0,0,0,0,0],"sum_hessian":[6.2412643E1,5.1405098E1,1.1007547E1,4.3401386E1,8.003709E0,3.825732E1,5.144069E0,1.0901203E0,6.913588E0,3.1227821E1,7.029497E0,1.7343287E1,1.3884535E1,2.289406E0,4.7400913E0],"tree_param":{"num_deleted":"0","num_feature":"6","num_nodes":"15","size_leaf_vector":"1"}},{"base_weights":[2.1972751E-2,2.5856048E-1,-4.85857E-2,5.0387704E-1,-7.994376E-1,3.958881E-1,5.287115E-2,-3.027093E-3,-8.7743247E-1,5.578591E-1,-8.7647355E-1,-1.4123404E-2,-4.7367178E-2,3.7505254E-2,7.0346245E-3,-5.421607E-2,-6.625499E-3],"categories":[],"categories_nodes":[],"categories_segments":[],"categories_sizes":[],"default_left":[0,0,0,0,0,0,0,0,0,0,0,0,0,0,0,0,0],"id":45,"left_children":[1,3,-1,5,7,9,-1,-1,11,13,15,-1,-1,-1,-1,-1,-1],"loss_changes":[1.4864328E1,1.3638262E1,0E0,2.0925913E0,5.223236E-1,8.062708E0,0E0,0E0,1.04996204E-1,2.5579882E0,5.581813E-1,0E0,0E0,0E0,0E0,0E0,0E0],"parents":[2147483647,0,0,1,1,3,3,4,4,5,5,8,8,9,9,10,10],"right_children":[2,4,-1,6,8,10,-1,-1,12,14,16,-1,-1,-1,-1,-1,-1],"split_conditions":[8E0,1.7741411E1,-4.85857E-2,4.8355988E1,1.3404956E1,3.3456333E1,5.287115E-2,-3.027093E-3,4E0,1.3307866E1,4.5451298E1,-1.4123404E-2,-4.7367178E-2,3.7505254E-2,7.0346245E-3,-5.421607E-2,-6.625499E-3],"split_indices":[5,2,0,3,3,0,0,0,4,2,3,0,0,0,0,0,0],"split_type":[0,0,0,0,0,0,0,0,0,0,0,0,0,0,0,0,0],"sum_hessian":[6.115844E1,4.9994907E1,1.1163533E1,4.1009773E1,8.985136E0,3.5750534E1,5.2592373E0,1.0274711E0,7.9576645E0,3.2211575E1,3.5389614E0,1.3667344E0,6.59093E0,2.1503746E1,1.0707827E1,2.4085662E0,1.1303952E0],"tree_param":{"num_deleted":"0","num_feature":"6","num_nodes":"17","size_leaf_vector":"1"}},{"base_weights":[-1.7494537E-2,1.8934032E-1,-4.8170447E-2,3.7910625E-1,-8.105179E-1,8.8890636E-1,2.6851085E-1,-2.52325E-3,-4.519009E-2,4.1063535E-1,5.223138E-2,-2.0838773E-1,3.618292E-1,-3.609646E-3,3.55294E-2,3.984775E-2,-2.9978821E-2,2.1604633E-2,-1.8052539E-2],"categories":[],"categories_nodes":[],"categories_segments":[],"categories_sizes":[],"default_left":[0,0,0,0,0,0,0,0,0,0,0,0,0,0,0,0,0,0,0],"id":46,"left_children":[1,3,-1,5,7,9,11,-1,-1,13,-1,15,17,-1,-1,-1,-1,-1,-1],"loss_changes":[1.2470267E1,1.02443905E1,0E0,2.2815475E0,5.693121E-1,1.3226795E-1,1.7738254E0,0E0,0E0,5.5798525E-1,0E0,3.1836843E0,1.7957635E0,0E0,0E0,0E0,0E0,0E0,0E0],"parents":[2147483647,0,0,1,1,3,3,4,4,5,5,6,6,9,9,11,11,12,12],"right_children":[2,4,-1,6,8,10,12,-1,-1,14,-1,16,18,-1,-1,-1,-1,-1,-1],"split_conditions":[8E0,1.8011234E1,-4.8170447E-2,1.0362655E1,9.740504E0,8.990103E0,1.1253155E1,-2.52325E-3,-4.519009E-2,5E0,5.223138E-2,9.183033E0,1.6159216E1,-3.609646E-3,3.55294E-2,3.984775E-2,-2.9978821E-2,2.1604633E-2,-1.8052539E-2],"split_indices":[5,2,0,1,0,1,1,0,0,5,0,2,2,0,0,0,0,0,0],"split_type":[0,0,0,0,0,0,0,0,0,0,0,0,0,0,0,0,0,0,0],"sum_hessian":[6.1805912E1,5.1372555E1,1.0433355E1,4.3699535E1,7.6730194E0,6.5356007E0,3.7163937E1,1.007243E0,6.6657763E0,2.4985921E0,4.0370083E0,5.880232E0,3.1283705E1,1.2483941E0,1.2501979E0,1.3565853E0,4.5236464E0,2.887895E1,2.404754E0],"tree_param":{"num_deleted":"0","num_feature":"6","num_nodes":"19","size_leaf_vector":"1"}},{"base_weights":[6.2104156E-3,2.3301987E-1,-9.169097E-1,4.3563405E-1,-4.6486694E-2,-1.7381087E-2,-4.8448663E-2,9.607138E-1,2.973953E-1,5.4062128E-2,4.6094602E-1,-7.817065E-2,5.1597625E-1,3.7162684E-2,-5.568884E-3,-2.2273118E-2,1.1808391E-2,3.1333964E-2,-1.0981691E-2],"categories":[],"categories_nodes":[],"categories_segments":[],"categories_sizes":[],"default_left":[0,0,0,0,0,0,0,0,0,0,0,0,0,0,0,0,0,0,0],"id":47,"left_children":[1,3,5,7,-1,-1,-1,9,11,-1,13,15,17,-1,-1,-1,-1,-1,-1],"loss_changes":[1.3201925E1,1.2324991E1,3.1819344E-2,2.8913116E0,0E0,0E0,0E0,2.4053574E-2,3.003476E0,0E0,6.3671285E-1,1.7386048E0,2.0063868E0,0E0,0E0,0E0,0E0,0E0,0E0],"parents":[2147483647,0,0,1,1,2,2,3,3,7,7,8,8,10,10,11,11,12,12],"right_children":[2,4,6,8,-1,-1,-1,10,12,-1,14,16,18,-1,-1,-1,-1,-1,-1],"split_conditions":[1.7741411E1,8E0,3E0,7.7722707E0,-4.6486694E-2,-1.7381087E-2,-4.8448663E-2,7E0,2.4786926E1,5.4062128E-2,1.45848055E1,6E0,1.8327583E1,3.7162684E-2,-5.568884E-3,-2.2273118E-2,1.1808391E-2,3.1333964E-2,-1.0981691E-2],"split_indices":[2,5,5,2,0,0,0,4,3,0,1,4,1,0,0,0,0,0,0],"split_type":[0,0,0,0,0,0,0,0,0,0,0,0,0,0,0,0,0,0,0],"sum_hessian":[6.103429E1,4.9596153E1,1.1438139E1,4.2768864E1,6.827291E0,1.6016625E0,9.836476E0,7.6732965E0,3.5095566E1,5.2448974E0,2.4283988E0,1.3147646E1,2.194792E1,1.4262294E0,1.0021695E0,5.8707595E0,7.276886E0,1.9205708E1,2.7422125E0],"tree_param":{"num_deleted":"0","num_feature":"6","num_nodes":"19","size_leaf_vector":"1"}},{"base_weights":[-1.680574E-2,1.889215E-1,-4.758684E-2,3.6925906E-1,-7.855048E-1,8.191613E-2,5.6528986E-1,-2.907844E-3,-4.4270825E-2,4.212869E-1,-6.0563184E-2,5.6964148E-2,2.8356764E-1,4.7829192E-2,-1.6122736E-3,-5.098551E-2,2.7878523E-2],"categories":[],"categories_nodes":[],"categories_segments":[],"categories_sizes":[],"default_left":[0,0,0,0,0,0,0,0,0,0,0,0,0,0,0,0,0],"id":48,"left_children":[1,3,-1,5,7,9,11,-1,-1,13,-1,-1,15,-1,-1,-1,-1],"loss_changes":[1.1383844E1,8.826689E0,0E0,2.301052E0,5.2306366E-1,8.440548E0,3.6554322E0,0E0,0E0,3.685927E0,0E0,0E0,6.937324E0,0E0,0E0,0E0,0E0],"parents":[2147483647,0,0,1,1,3,3,4,4,5,5,6,6,9,9,12,12],"right_children":[2,4,-1,6,8,10,12,-1,-1,14,-1,-1,16,-1,-1,-1,-1],"split_conditions":[8E0,1.781538E1,-4.758684E-2,2.6853134E1,1.3739414E1,1.7735739E1,2.5070755E1,-2.907844E-3,-4.4270825E-2,1.2677113E1,-6.0563184E-2,5.6964148E-2,3.6431755E1,4.7829192E-2,-1.6122736E-3,-5.098551E-2,2.7878523E-2],"split_indices":[5,2,0,3,3,0,0,0,0,1,0,0,3,0,0,0,0],"split_type":[0,0,0,0,0,0,0,0,0,0,0,0,0,0,0,0,0],"sum_hessian":[5.725099E1,4.7579315E1,9.671678E0,4.0672993E1,6.9063215E0,1.7069826E1,2.3603167E1,1.0251801E0,5.881141E0,1.4055459E1,3.0143676E0,6.768577E0,1.6834589E1,5.9378843E0,8.117575E0,2.451699E0,1.4382891E1],"tree_param":{"num_deleted":"0","num_feature":"6","num_nodes":"17","size_leaf_vector":"1"}},{"base_weights":[-3.4088105E-2,1.3619037E-1,-8.4598935E-1,6.732128E-2,3.408266E-2,-3.186289E-3,-4.6182342E-2,2.234404E-1,-6.077274E-1,-6.459272E-2,5.204301E-1,-6.0305048E-2,-2.4148369E-1,1.0305291E-2,-4.420592E-2,4.061169E-2,1.2844183E-2,3.9741497E-2,-4.1250363E-2],"categories":[],"categories_nodes":[],"categories_segments":[],"categories_sizes":[],"default_left":[0,0,0,0,0,0,0,0,0,0,0,0,0,0,0,0,0,0,0],"id":49,"left_children":[1,3,5,7,-1,-1,-1,9,11,13,15,-1,17,-1,-1,-1,-1,-1,-1],"loss_changes":[8.49675E0,1.8690851E0,5.8807087E-1,5.0228214E0,0E0,0E0,0E0,3.317855E0,1.6764753E0,4.7033963E0,1.2535205E0,0E0,4.779974E0,0E0,0E0,0E0,0E0,0E0,0E0],"parents":[2147483647,0,0,1,1,2,2,3,3,7,7,8,8,9,9,10,10,12,12],"right_children":[2,4,6,8,-1,-1,-1,10,12,14,16,-1,18,-1,-1,-1,-1,-1,-1],"split_conditions":[1.8011234E1,4.9561302E1,9.613337E0,3.008309E1,3.408266E-2,-3.186289E-3,-4.6182342E-2,2.499709E1,4.057707E1,1.611783E1,2.1769789E1,-6.0305048E-2,3.4643578E1,1.0305291E-2,-4.420592E-2,4.061169E-2,1.2844183E-2,3.9741497E-2,-4.1250363E-2],"split_indices":[2,3,0,0,0,0,0,3,3,0,0,0,0,0,0,0,0,0,0],"split_type":[0,0,0,0,0,0,0,0,0,0,0,0,0,0,0,0,0,0,0],"sum_hessian":[5.9626232E1,4.997693E1,9.649306E0,4.537179E1,4.605135E0,1.0358202E0,8.613485E0,3.7392902E1,7.978889E0,1.9379936E1,1.8012968E1,2.158743E0,5.820146E0,1.5130626E1,4.2493095E0,7.560215E0,1.0452753E1,1.9661766E0,3.8539696E0],"tree_param":{"num_deleted":"0","num_feature":"6","num_nodes":"19","size_leaf_vector":"1"}},{"base_weights":[-2.7373763E-2,1.5412702E-1,-4.6493214E-2,3.933909E-2,7.465648E-2,-1.454705E-2,3.5382252E-2,8.816116E-2,-8.030181E-1,-1.6670738E-3,4.3196302E-2,-5.0199598E-2,-1.1642694E-2],"categories":[],"categories_nodes":[],"categories_segments":[],"categories_sizes":[],"default_left":[0,0,0,0,0,0,0,0,0,0,0,0,0],"id":50,"left_children":[1,3,-1,-1,5,7,-1,9,11,-1,-1,-1,-1],"loss_changes":[9.831698E0,2.460215E0,0E0,0E0,2.5859268E0,3.3878725E0,0E0,3.5296059E0,3.1848645E-1,0E0,0E0,0E0,0E0],"parents":[2147483647,0,0,1,1,4,4,5,5,7,7,8,8],"right_children":[2,4,-1,-1,6,8,-1,10,12,-1,-1,-1,-1],"split_conditions":[1.8011234E1,6.130467E0,-4.6493214E-2,3.933909E-2,4.9561302E1,3.4643578E1,3.5382252E-2,4.0206017E1,4.5931023E1,-1.6670738E-3,4.3196302E-2,-5.0199598E-2,-1.1642694E-2],"split_indices":[2,2,0,0,3,0,0,3,3,0,0,0,0],"split_type":[0,0,0,0,0,0,0,0,0,0,0,0,0],"sum_hessian":[5.8146637E1,4.9101086E1,9.045549E0,4.4862595E0,4.461483E1,3.9960445E1,4.654383E0,3.6140835E1,3.8196087E0,3.2074287E1,4.0665507E0,2.2615619E0,1.5580468E0],"tree_param":{"num_deleted":"0","num_feature":"6","num_nodes":"13","size_leaf_vector":"1"}},{"base_weights":[-3.5518255E-2,1.4662914E-1,-8.5398626E-1,6.859458E-2,6.6664046E-1,-2.2424543E-3,-4.6749122E-2,1.6658017E-1,-6.651232E-1,3.695485E-2,7.838553E-3,1.4585319E-2,6.945998E-1,-2.3693043E-1,-4.6885993E-2,9.238048E-3,-5.395264E-2,3.875703E-2,6.393311E-3,-3.8054433E-2,1.7508363E-2],"categories":[],"categories_nodes":[],"categories_segments":[],"categories_sizes":[],"default_left":[0,0,0,0,0,0,0,0,0,0,0,0,0,0,0,0,0,0,0,0,0],"id":51,"left_children":[1,3,5,7,9,-1,-1,11,13,-1,-1,15,17,19,-1,-1,-1,-1,-1,-1,-1],"loss_changes":[8.6508465E0,1.8870782E0,6.499214E-1,3.1684794E0,1.0949659E-1,0E0,0E0,3.0652595E0,3.8606763E-1,0E0,0E0,5.9271026E0,2.9086113E-1,1.3020489E0,0E0,0E0,0E0,0E0,0E0,0E0,0E0],"parents":[2147483647,0,0,1,1,2,2,3,3,4,4,7,7,8,8,11,11,12,12,13,13],"right_children":[2,4,6,8,10,-1,-1,12,14,-1,-1,16,18,20,-1,-1,-1,-1,-1,-1,-1],"split_conditions":[1.781538E1,4.8355988E1,1.293233E1,3.1962442E1,1.6028765E1,-2.2424543E-3,-4.6749122E-2,3.6431755E1,3.6386765E1,3.695485E-2,7.838553E-3,2.4801579E1,1.6028765E1,4.3454964E1,-4.6885993E-2,9.238048E-3,-5.395264E-2,3.875703E-2,6.393311E-3,-3.8054433E-2,1.7508363E-2],"split_indices":[2,3,3,0,2,0,0,3,0,0,0,0,2,3,0,0,0,0,0,0,0],"split_type":[0,0,0,0,0,0,0,0,0,0,0,0,0,0,0,0,0,0,0,0,0],"sum_hessian":[5.6187572E1,4.6630875E1,9.5567E0,4.1530575E1,5.1003E0,1.0109737E0,8.545726E0,3.7319626E1,4.2109475E0,4.072048E0,1.0282516E0,2.9775984E1,7.5436416E0,2.3650718E0,1.845876E0,2.648573E1,3.290255E0,6.2830057E0,1.260636E0,1.0929412E0,1.2721306E0],"tree_param":{"num_deleted":"0","num_feature":"6","num_nodes":"21","size_leaf_vector":"1"}},{"base_weights":[-5.0306544E-2,1.40401E-1,-4.7386196E-2,2.7755198E-1,-4.3210443E-2,9.222236E-1,1.4302565E-1,5.316311E-2,2.7371512E-3,3.967076E-2,4.663564E-2,9.130903E-3,-3.699526E-2],"categories":[],"categories_nodes":[],"categories_segments":[],"categories_sizes":[],"default_left":[0,0,0,0,0,0,0,0,0,0,0,0,0],"id":52,"left_children":[1,3,-1,5,-1,7,9,-1,-1,11,-1,-1,-1],"loss_changes":[9.945015E0,6.874729E0,0E0,3.6082895E0,0E0,8.303094E-1,2.9718223E0,0E0,0E0,3.8841972E0,0E0,0E0,0E0],"parents":[2147483647,0,0,1,1,3,3,5,5,6,6,9,9],"right_children":[2,4,-1,6,-1,8,10,-1,-1,12,-1,-1,-1],"split_conditions":[8E0,2.0015238E1,-4.7386196E-2,7.7722707E0,-4.3210443E-2,3.4643578E1,4.9561302E1,5.316311E-2,2.7371512E-3,3.0846485E1,4.663564E-2,9.130903E-3,-3.699526E-2],"split_indices":[5,2,0,2,0,0,3,0,0,0,0,0,0],"split_type":[0,0,0,0,0,0,0,0,0,0,0,0,0],"sum_hessian":[5.633148E1,4.7154385E1,9.177091E0,4.2126877E1,5.0275083E0,6.2621784E0,3.58647E1,5.1923027E0,1.069876E0,3.264264E1,3.2220592E0,2.8231672E1,4.410967E0],"tree_param":{"num_deleted":"0","num_feature":"6","num_nodes":"13","size_leaf_vector":"1"}},{"base_weights":[6.805067E-2,2.7592498E-1,-4.6999857E-2,4.2254806E-1,-4.2619508E-2,9.784925E-2,5.99631E-1,6.562026E-1,-5.362375E-1,8.980048E-1,2.397226E-1,5.9346605E-2,9.414219E-3,-5.4275364E-2,5.2956515E-3,5.140865E-2,-2.7677738E-3,-3.431832E-2,2.989091E-2],"categories":[],"categories_nodes":[],"categories_segments":[],"categories_sizes":[],"default_left":[0,0,0,0,0,0,0,0,0,0,0,0,0,0,0,0,0,0,0],"id":53,"left_children":[1,3,-1,5,-1,7,9,11,13,15,17,-1,-1,-1,-1,-1,-1,-1,-1],"loss_changes":[1.1829077E1,8.06073E0,0E0,2.3483481E0,0E0,6.005455E0,2.6727686E0,1.9969244E0,2.9463747E0,1.8364277E0,4.9052267E0,0E0,0E0,0E0,0E0,0E0,0E0,0E0,0E0],"parents":[2147483647,0,0,1,1,3,3,5,5,6,6,7,7,8,8,9,9,10,10],"right_children":[2,4,-1,6,-1,8,10,12,14,16,18,-1,-1,-1,-1,-1,-1,-1,-1],"split_conditions":[8E0,2.0015238E1,-4.6999857E-2,2.4786926E1,-4.2619508E-2,1.3145858E1,2.8665945E1,1.2032084E1,2.1561152E1,1.7095064E1,3.9589447E1,5.9346605E-2,9.414219E-3,-5.4275364E-2,5.2956515E-3,5.140865E-2,-2.7677738E-3,-3.431832E-2,2.989091E-2],"split_indices":[5,2,0,3,0,0,0,1,3,2,3,0,0,0,0,0,0,0,0],"split_type":[0,0,0,0,0,0,0,0,0,0,0,0,0,0,0,0,0,0,0],"sum_hessian":[5.421288E1,4.5546745E1,8.666133E0,4.0862255E1,4.684491E0,1.4968543E1,2.5893711E1,7.9410605E0,7.0274825E0,1.3339673E1,1.2554039E1,3.000811E0,4.9402494E0,3.415541E0,3.6119418E0,1.1668085E1,1.671588E0,3.2450752E0,9.308964E0],"tree_param":{"num_deleted":"0","num_feature":"6","num_nodes":"19","size_leaf_vector":"1"}},{"base_weights":[-2.6152277E-2,1.6584665E-1,-4.690268E-2,3.0347726E-1,-4.2605903E-2,2.1739595E-1,4.6675015E-2,3.857342E-1,-4.8816255E-1,2.814329E-3,3.4890454E-2,-5.08127E-2,-3.061039E-3],"categories":[],"categories_nodes":[],"categories_segments":[],"categories_sizes":[],"default_left":[0,0,0,0,0,0,0,0,0,0,0,0,0],"id":54,"left_children":[1,3,-1,5,-1,7,-1,9,11,-1,-1,-1,-1],"loss_changes":[9.690069E0,6.6802106E0,0E0,2.0267715E0,0E0,4.6392775E0,0E0,3.1288505E0,1.6648742E0,0E0,0E0,0E0,0E0],"parents":[2147483647,0,0,1,1,3,3,5,5,7,7,8,8],"right_children":[2,4,-1,6,-1,8,-1,10,12,-1,-1,-1,-1],"split_conditions":[8E0,2.0015238E1,-4.690268E-2,4.9561302E1,-4.2605903E-2,3.008309E1,4.6675015E-2,2.4786926E1,3.9589447E1,2.814329E-3,3.4890454E-2,-5.08127E-2,-3.061039E-3],"split_indices":[5,2,0,3,0,0,0,3,3,0,0,0,0],"split_type":[0,0,0,0,0,0,0,0,0,0,0,0,0],"sum_hessian":[5.345667E1,4.4834904E1,8.621765E0,4.0113384E1,4.7215214E0,3.6474815E1,3.6385674E0,2.9814667E1,6.660149E0,1.5077833E1,1.4736833E1,2.3603196E0,4.2998295E0],"tree_param":{"num_deleted":"0","num_feature":"6","num_nodes":"13","size_leaf_vector":"1"}},{"base_weights":[-7.069391E-3,1.6938312E-1,-4.64583E-2,6.7131454E-1,7.088705E-2,1.7828509E-1,4.6104502E-2,-3.6725378E-1,1.7260148E-1,-9.089247E-3,2.4226485E-2,-4.5094576E-2,-3.051913E-2,8.566261E-2,3.7595462E-2,3.8637366E-2,-2.5756428E-2,1.2609842E-2,-4.2740617E-2],"categories":[],"categories_nodes":[],"categories_segments":[],"categories_sizes":[],"default_left":[0,0,0,0,0,0,0,0,0,0,0,0,0,0,0,0,0,0,0],"id":55,"left_children":[1,3,-1,5,7,9,-1,11,13,-1,-1,-1,15,17,-1,-1,-1,-1,-1],"loss_changes":[9.219955E0,2.3055868E0,0E0,7.8640795E-1,1.8864692E0,5.1068026E-1,0E0,1.4176272E0,1.6419785E0,0E0,0E0,0E0,2.718196E0,5.006363E0,0E0,0E0,0E0,0E0,0E0],"parents":[2147483647,0,0,1,1,3,3,4,4,5,5,7,7,8,8,12,12,13,13],"right_children":[2,4,-1,6,8,10,-1,12,14,-1,-1,-1,16,18,-1,-1,-1,-1,-1],"split_conditions":[8E0,1.0362655E1,-4.64583E-2,8.990103E0,3E0,5E0,4.6104502E-2,2.4373093E1,4.8539734E1,-9.089247E-3,2.4226485E-2,-4.5094576E-2,2.4961998E1,3.1707817E1,3.7595462E-2,3.8637366E-2,-2.5756428E-2,1.2609842E-2,-4.2740617E-2],"split_indices":[5,1,0,1,5,5,0,3,3,0,0,0,0,0,0,0,0,0,0],"split_type":[0,0,0,0,0,0,0,0,0,0,0,0,0,0,0,0,0,0,0],"sum_hessian":[5.4698967E1,4.659823E1,8.100737E0,6.690107E0,3.9908123E1,2.83243E0,3.857677E0,7.02724E0,3.2880882E1,1.4886E0,1.3438298E0,2.0670362E0,4.9602036E0,2.9588324E1,3.2925591E0,1.6427232E0,3.3174803E0,2.5758915E1,3.829409E0],"tree_param":{"num_deleted":"0","num_feature":"6","num_nodes":"19","size_leaf_vector":"1"}},{"base_weights":[7.022393E-3,1.8270722E-1,-4.604098E-2,3.2699084E-1,-7.240968E-1,4.2663333E-1,-3.7539032E-1,-1.9233449E-3,-4.2228173E-2,4.5749377E-2,3.155176E-1,-4.285058E-2,2.6193485E-2,-3.3310328E-2,1.9433422E-2,-1.94659E-2,2.7670935E-2],"categories":[],"categories_nodes":[],"categories_segments":[],"categories_sizes":[],"default_left":[0,0,0,0,0,0,0,0,0,0,0,0,0,0,0,0,0],"id":56,"left_children":[1,3,-1,5,7,9,11,-1,-1,-1,13,-1,15,-1,-1,-1,-1],"loss_changes":[8.754974E0,6.1407866E0,0E0,2.9330063E0,5.04832E-1,1.6195092E0,1.077358E0,0E0,0E0,0E0,2.4258122E0,0E0,1.0795906E0,0E0,0E0,0E0,0E0],"parents":[2147483647,0,0,1,1,3,3,4,4,5,5,6,6,10,10,12,12],"right_children":[2,4,-1,6,8,10,12,-1,-1,-1,14,-1,16,-1,-1,-1,-1],"split_conditions":[8E0,1.8011234E1,-4.604098E-2,1.8375925E1,1.02116165E1,7.7722707E0,1.8875055E1,-1.9233449E-3,-4.2228173E-2,4.5749377E-2,8.187142E0,-4.285058E-2,5E0,-3.3310328E-2,1.9433422E-2,-1.94659E-2,2.7670935E-2],"split_indices":[5,2,0,1,1,2,1,0,0,0,2,0,5,0,0,0,0],"split_type":[0,0,0,0,0,0,0,0,0,0,0,0,0,0,0,0,0],"sum_hessian":[5.1676846E1,4.4124966E1,7.5518813E0,3.861953E1,5.505437E0,3.41653E1,4.454231E0,1.0199217E0,4.4855156E0,4.9917936E0,2.9173504E1,1.509637E0,2.944594E0,1.4608467E0,2.7712656E1,1.7930473E0,1.1515466E0],"tree_param":{"num_deleted":"0","num_feature":"6","num_nodes":"17","size_leaf_vector":"1"}},{"base_weights":[1.3906717E-2,1.7875251E-1,-4.5573674E-2,3.0713916E-1,-4.191828E-2,8.8767916E-1,1.872217E-1,1.6995324E-2,5.4573983E-2,3.0299303E-1,-4.1919723E-1,-7.517426E-3,2.6194453E-2,2.4712853E-2,-4.0220156E-2],"categories":[],"categories_nodes":[],"categories_segments":[],"categories_sizes":[],"default_left":[0,0,0,0,0,0,0,0,0,0,0,0,0,0,0],"id":57,"left_children":[1,3,-1,5,-1,7,9,-1,-1,11,13,-1,-1,-1,-1],"loss_changes":[8.1675205E0,6.1828246E0,0E0,2.689612E0,0E0,3.8316822E-1,2.6029062E0,0E0,0E0,3.102358E0,2.5344472E0,0E0,0E0,0E0,0E0],"parents":[2147483647,0,0,1,1,3,3,5,5,6,6,9,9,10,10],"right_children":[2,4,-1,6,-1,8,10,-1,-1,12,14,-1,-1,-1,-1],"split_conditions":[8E0,2.0015238E1,-4.5573674E-2,1.0362655E1,-4.191828E-2,8.990103E0,1.6028765E1,1.6995324E-2,5.4573983E-2,2.2422495E1,4E0,-7.517426E-3,2.6194453E-2,2.4712853E-2,-4.0220156E-2],"split_indices":[5,2,0,1,0,1,2,0,0,3,4,0,0,0,0],"split_type":[0,0,0,0,0,0,0,0,0,0,0,0,0,0,0],"sum_hessian":[5.147363E1,4.4375484E1,7.0981464E0,4.0021732E1,4.353749E0,5.755585E0,3.4266148E1,2.2841396E0,3.4714456E0,2.9193232E1,5.072918E0,9.669021E0,1.952421E1,1.4207463E0,3.6521716E0],"tree_param":{"num_deleted":"0","num_feature":"6","num_nodes":"15","size_leaf_vector":"1"}},{"base_weights":[1.5876787E-2,1.6365474E-1,-4.4999287E-2,4.2983737E-2,3.441658E-2,-5.7003807E-2,6.4674085E-1,7.579842E-2,-7.276288E-1,3.5966128E-2,8.547366E-3,-1.1748106E-2,2.03583E-2,-4.8322897E-2,-5.4832883E-3],"categories":[],"categories_nodes":[],"categories_segments":[],"categories_sizes":[],"default_left":[0,0,0,0,0,0,0,0,0,0,0,0,0,0,0],"id":58,"left_children":[1,3,-1,-1,5,7,9,11,13,-1,-1,-1,-1,-1,-1],"loss_changes":[7.324646E0,4.1539783E0,0E0,0E0,2.2909687E0,3.25733E0,6.0474873E-2,3.2794323E0,7.850764E-1,0E0,0E0,0E0,0E0,0E0,0E0],"parents":[2147483647,0,0,1,1,4,4,5,5,6,6,7,7,8,8],"right_children":[2,4,-1,-1,6,8,10,12,14,-1,-1,-1,-1,-1,-1],"split_conditions":[8E0,1.0362655E1,-4.4999287E-2,4.2983737E-2,4.8539734E1,3.0846485E1,1.7358507E1,2.499709E1,1.613055E1,3.5966128E-2,8.547366E-3,-1.1748106E-2,2.03583E-2,-4.8322897E-2,-5.4832883E-3],"split_indices":[5,1,0,0,3,0,1,3,1,0,0,0,0,0,0],"split_type":[0,0,0,0,0,0,0,0,0,0,0,0,0,0,0],"sum_hessian":[5.2030384E1,4.550869E1,6.5216923E0,6.241711E0,3.926698E1,3.495507E1,4.3119082E0,2.9917547E1,5.037525E0,3.2971013E0,1.0148069E0,1.5588961E1,1.4328587E1,3.2265813E0,1.8109442E0],"tree_param":{"num_deleted":"0","num_feature":"6","num_nodes":"15","size_leaf_vector":"1"}},{"base_weights":[7.399416E-3,1.6464666E-1,-4.5318175E-2,3.09559E-1,-7.472209E-1,3.9593756E-1,-2.736777E-1,-1.5695893E-3,-4.3494597E-2,4.9824942E-2,2.7724552E-1,2.9230682E-2,-7.2270966E-1,-1.3954818E-3,2.5433375E-2,-4.4251468E-2,-5.1732394E-3],"categories":[],"categories_nodes":[],"categories_segments":[],"categories_sizes":[],"default_left":[0,0,0,0,0,0,0,0,0,0,0,0,0,0,0,0,0],"id":59,"left_children":[1,3,-1,5,7,9,11,-1,-1,-1,13,-1,15,-1,-1,-1,-1],"loss_changes":[7.7393746E0,6.2985296E0,0E0,2.1399367E0,5.512874E-1,2.2565503E0,2.6552086E0,0E0,0E0,0E0,2.207245E0,0E0,3.3567953E-1,0E0,0E0,0E0,0E0],"parents":[2147483647,0,0,1,1,3,3,4,4,5,5,6,6,10,10,12,12],"right_children":[2,4,-1,6,8,10,12,-1,-1,-1,14,-1,16,-1,-1,-1,-1],"split_conditions":[8E0,1.781538E1,-4.5318175E-2,1.8375925E1,1.0026251E1,7.7722707E0,5E0,-1.5695893E-3,-4.3494597E-2,4.9824942E-2,2.6853134E1,2.9230682E-2,8E0,-1.3954818E-3,2.5433375E-2,-4.4251468E-2,-5.1732394E-3],"split_indices":[5,2,0,1,1,2,4,0,0,0,3,0,4,0,0,0,0],"split_type":[0,0,0,0,0,0,0,0,0,0,0,0,0,0,0,0,0],"sum_hessian":[5.182427E1,4.4914803E1,6.909465E0,3.932575E1,5.589054E0,3.4532543E1,4.7932053E0,1.001405E0,4.5876493E0,4.4781604E0,3.0054384E1,1.5426335E0,3.2505717E0,1.3341523E1,1.671286E1,2.2354078E0,1.0151639E0],"tree_param":{"num_deleted":"0","num_feature":"6","num_nodes":"17","size_leaf_vector":"1"}},{"base_weights":[-3.7669167E-2,1.3572334E-1,-4.690258E-2,2.7274895E-1,-4.299855E-2,8.2062864E-1,1.5761955E-1,4.420131E-2,1.2375933E-2,7.6545544E-2,4.1926008E-2,1.1079949E-2,-2.9664522E-2],"categories":[],"categories_nodes":[],"categories_segments":[],"categories_sizes":[],"default_left":[0,0,0,0,0,0,0,0,0,0,0,0,0],"id":60,"left_children":[1,3,-1,5,-1,7,9,-1,-1,11,-1,-1,-1],"loss_changes":[8.337332E0,6.3700294E0,0E0,2.4119601E0,0E0,2.6742458E-2,1.8420208E0,0E0,0E0,3.2364814E0,0E0,0E0,0E0],"parents":[2147483647,0,0,1,1,3,3,5,5,6,6,9,9],"right_children":[2,4,-1,6,-1,8,10,-1,-1,12,-1,-1,-1],"split_conditions":[1.7741411E1,8E0,-4.690258E-2,7.7722707E0,-4.299855E-2,1.8375925E1,4.9561302E1,4.420131E-2,1.2375933E-2,3.0846485E1,4.1926008E-2,1.1079949E-2,-2.9664522E-2],"split_indices":[2,5,0,2,0,1,3,0,0,0,0,0,0],"split_type":[0,0,0,0,0,0,0,0,0,0,0,0,0],"sum_hessian":[5.158801E1,4.396973E1,7.6182775E0,3.9288933E1,4.680799E0,5.7583103E0,3.353062E1,4.6962976E0,1.0620123E0,3.0957024E1,2.5735972E0,2.5996614E1,4.96041E0],"tree_param":{"num_deleted":"0","num_feature":"6","num_nodes":"13","size_leaf_vector":"1"}},{"base_weights":[-1.3045343E-2,1.2530133E-1,-4.4496085E-2,2.3295787E-1,-4.088085E-2,1.3645512E-1,4.176153E-2,2.6209372E-1,-5.5708253E-1,4.234391E-2,6.8869772E-3,-5.109575E-2,-4.6298597E-3],"categories":[],"categories_nodes":[],"categories_segments":[],"categories_sizes":[],"default_left":[0,0,0,0,0,0,0,0,0,0,0,0,0],"id":61,"left_children":[1,3,-1,5,-1,7,-1,9,11,-1,-1,-1,-1],"loss_changes":[6.394534E0,4.820471E0,0E0,2.310546E0,0E0,3.38302E0,0E0,2.2199836E0,1.2046235E0,0E0,0E0,0E0,0E0],"parents":[2147483647,0,0,1,1,3,3,5,5,7,7,8,8],"right_children":[2,4,-1,6,-1,8,-1,10,12,-1,-1,-1,-1],"split_conditions":[8E0,2.0015238E1,-4.4496085E-2,4.8355988E1,-4.088085E-2,3.1447472E1,4.176153E-2,7.7722707E0,4.242575E1,4.234391E-2,6.8869772E-3,-5.109575E-2,-4.6298597E-3],"split_indices":[5,2,0,3,0,0,0,2,3,0,0,0,0],"split_type":[0,0,0,0,0,0,0,0,0,0,0,0,0],"sum_hessian":[5.079189E1,4.4610672E1,6.1812167E0,4.0715023E1,3.8956487E0,3.6149345E1,4.5656786E0,3.1131733E1,5.017613E0,4.4403687E0,2.6691364E1,1.9080428E0,3.10957E0],"tree_param":{"num_deleted":"0","num_feature":"6","num_nodes":"13","size_leaf_vector":"1"}},{"base_weights":[2.7068768E-2,1.7268883E-1,-4.4434834E-2,3.0323455E-1,-4.1895416E-2,2.1004328E-1,4.7338262E-2,3.0144063E-1,-4.8735462E-2,9.64379E-3,4.3951437E-2],"categories":[],"categories_nodes":[],"categories_segments":[],"categories_sizes":[],"default_left":[0,0,0,0,0,0,0,0,0,0,0],"id":62,"left_children":[1,3,-1,5,-1,7,-1,9,-1,-1,-1],"loss_changes":[6.9588E0,6.1734705E0,0E0,2.228144E0,0E0,4.260806E0,0E0,2.0110674E0,0E0,0E0,0E0],"parents":[2147483647,0,0,1,1,3,3,5,5,7,7],"right_children":[2,4,-1,6,-1,8,-1,10,-1,-1,-1],"split_conditions":[8E0,1.8011234E1,-4.4434834E-2,4.8355988E1,-4.1895416E-2,3.6386765E1,4.7338262E-2,3.9548164E1,-4.8735462E-2,9.64379E-3,4.3951437E-2],"split_indices":[5,2,0,3,0,0,0,3,0,0,0],"split_type":[0,0,0,0,0,0,0,0,0,0,0],"sum_hessian":[5.0032146E1,4.3867935E1,6.1642146E0,3.9469353E1,4.39858E0,3.5635307E1,3.8340447E0,3.377529E1,1.8600172E0,2.9554155E1,4.221136E0],"tree_param":{"num_deleted":"0","num_feature":"6","num_nodes":"11","size_leaf_vector":"1"}},{"base_weights":[-2.1951947E-2,1.1261713E-1,-4.3979876E-2,2.0885691E-1,-3.9526258E-2,8.51218E-1,8.227367E-2,3.477928E-1,5.2351046E-2,5.46099E-1,6.9167605E-3,3.242146E-2,-3.3393435E-3,3.7431028E-2,-3.5595067E-3,-3.532008E-2,3.5901114E-3],"categories":[],"categories_nodes":[],"categories_segments":[],"categories_sizes":[],"default_left":[0,0,0,0,0,0,0,0,0,0,0,0,0,0,0,0,0],"id":63,"left_children":[1,3,-1,5,-1,7,9,11,-1,13,15,-1,-1,-1,-1,-1,-1],"loss_changes":[5.777917E0,3.9389179E0,0E0,3.1847172E0,0E0,2.7483463E-1,1.2036717E0,4.5618585E-1,0E0,6.552757E-1,1.4730365E0,0E0,0E0,0E0,0E0,0E0,0E0],"parents":[2147483647,0,0,1,1,3,3,5,5,6,6,7,7,9,9,10,10],"right_children":[2,4,-1,6,-1,8,10,12,-1,14,16,-1,-1,-1,-1,-1,-1],"split_conditions":[8E0,2.0015238E1,-4.3979876E-2,1.0362655E1,-3.9526258E-2,8.990103E0,7.7722707E0,1.7406372E1,5.2351046E-2,7E0,8.187142E0,3.242146E-2,-3.3393435E-3,3.7431028E-2,-3.5595067E-3,-3.532008E-2,3.5901114E-3],"split_indices":[5,2,0,1,0,1,2,0,0,4,2,0,0,0,0,0,0],"split_type":[0,0,0,0,0,0,0,0,0,0,0,0,0,0,0,0,0],"sum_hessian":[4.820486E1,4.2417953E1,5.786908E0,3.9027847E1,3.390104E0,5.4823694E0,3.354548E1,2.3126354E0,3.1697338E0,3.8152993E0,2.9730179E1,1.013571E0,1.2990645E0,2.7125914E0,1.102708E0,1.6545027E0,2.8075676E1],"tree_param":{"num_deleted":"0","num_feature":"6","num_nodes":"17","size_leaf_vector":"1"}},{"base_weights":[9.409812E-2,2.3532796E-1,-4.331444E-2,7.642153E-1,1.23522684E-1,4.548846E-3,4.5839015E-2,3.623978E-2,6.165429E-1,1.6289574E-1,-4.5795012E-2,7.2109858E-3,3.733104E-2,2.384093E-3,3.1229451E-2],"categories":[],"categories_nodes":[],"categories_segments":[],"categories_sizes":[],"default_left":[0,0,0,0,0,0,0,0,0,0,0,0,0,0,0],"id":64,"left_children":[1,3,-1,5,7,-1,-1,9,11,13,-1,-1,-1,-1,-1],"loss_changes":[6.654396E0,2.4037848E0,0E0,6.540346E-1,1.5297272E0,0E0,0E0,3.972657E0,2.217853E-1,1.5038841E0,0E0,0E0,0E0,0E0,0E0],"parents":[2147483647,0,0,1,1,3,3,4,4,7,7,8,8,9,9],"right_children":[2,4,-1,6,8,-1,-1,10,12,14,-1,-1,-1,-1,-1],"split_conditions":[8E0,1.0362655E1,-4.331444E-2,8.633921E0,4.7477367E1,4.548846E-3,4.5839015E-2,3.1447472E1,4E0,3.6431755E1,-4.5795012E-2,7.2109858E-3,3.733104E-2,2.384093E-3,3.1229451E-2],"split_indices":[5,1,0,1,3,0,0,0,5,3,0,0,0,0,0],"split_type":[0,0,0,0,0,0,0,0,0,0,0,0,0,0,0],"sum_hessian":[4.6557934E1,4.1247272E1,5.310659E0,6.1796455E0,3.5067627E1,1.4365886E0,4.743057E0,3.0705175E1,4.3624525E0,2.7831835E1,2.8733416E0,1.3973355E0,2.9651167E0,2.3156492E1,4.6753426E0],"tree_param":{"num_deleted":"0","num_feature":"6","num_nodes":"15","size_leaf_vector":"1"}},{"base_weights":[-2.8221123E-3,1.2795061E-1,-4.3239947E-2,2.296022E-1,-3.9428573E-2,5.3534605E-2,1.3583665E-1,4.0019426E-2,3.6712363E-2,3.2583397E-2,-4.7635823E-3],"categories":[],"categories_nodes":[],"categories_segments":[],"categories_sizes":[],"default_left":[0,0,0,0,0,0,0,0,0,0,0],"id":65,"left_children":[1,3,-1,5,-1,-1,7,-1,9,-1,-1],"loss_changes":[5.3717422E0,4.0377307E0,0E0,2.8543901E0,0E0,0E0,2.3003917E0,0E0,2.6451366E0,0E0,0E0],"parents":[2147483647,0,0,1,1,3,3,6,6,8,8],"right_children":[2,4,-1,6,-1,-1,8,-1,10,-1,-1],"split_conditions":[8E0,2.0015238E1,-4.3239947E-2,9.46076E0,-3.9428573E-2,5.3534605E-2,7.7722707E0,4.0019426E-2,4E0,3.2583397E-2,-4.7635823E-3],"split_indices":[5,2,0,0,0,0,2,0,4,0,0],"split_type":[0,0,0,0,0,0,0,0,0,0,0],"sum_hessian":[4.5672714E1,4.0395733E1,5.276979E0,3.7037395E1,3.3583379E0,2.6698308E0,3.4367565E1,3.5425959E0,3.082497E1,4.751013E0,2.6073957E1],"tree_param":{"num_deleted":"0","num_feature":"6","num_nodes":"11","size_leaf_vector":"1"}},{"base_weights":[8.364962E-2,2.2773378E-1,-4.3158006E-2,3.8332522E-1,-6.561045E-1,5.1279795E-1,3.1967964E-2,1.3710356E-4,-4.3059435E-2,2.0696886E-1,6.3040584E-1,2.4308303E-1,-2.7400458E-2,-1.1625129E-2,3.429587E-2,1.6428126E-2,4.3019634E-2,1.9912596E-3,3.9613444E-2],"categories":[],"categories_nodes":[],"categories_segments":[],"categories_sizes":[],"default_left":[0,0,0,0,0,0,0,0,0,0,0,0,0,0,0,0,0,0,0],"id":66,"left_children":[1,3,-1,5,7,9,11,-1,-1,13,15,17,-1,-1,-1,-1,-1,-1,-1],"loss_changes":[6.438085E0,5.8210287E0,0E0,1.5789456E0,8.713472E-1,7.888527E-1,1.4200199E0,0E0,0E0,1.9670885E0,9.6490765E-1,9.0584475E-1,0E0,0E0,0E0,0E0,0E0,0E0,0E0],"parents":[2147483647,0,0,1,1,3,3,4,4,5,5,6,6,9,9,10,10,11,11],"right_children":[2,4,-1,6,8,10,12,-1,-1,14,16,18,-1,-1,-1,-1,-1,-1,-1],"split_conditions":[8E0,1.7741411E1,-4.3158006E-2,1.4638839E1,1.1012016E1,4E0,1.6708597E1,1.3710356E-4,-4.3059435E-2,3.2812473E1,1.086064E1,1.6053722E1,-2.7400458E-2,-1.1625129E-2,3.429587E-2,1.6428126E-2,4.3019634E-2,1.9912596E-3,3.9613444E-2],"split_indices":[5,2,0,2,1,5,1,0,0,3,2,1,0,0,0,0,0,0,0],"split_type":[0,0,0,0,0,0,0,0,0,0,0,0,0,0,0,0,0,0,0],"sum_hessian":[4.47521E1,3.950045E1,5.2516503E0,3.4069183E1,5.431265E0,2.4559645E1,9.509541E0,1.5235116E0,3.9077535E0,7.5878687E0,1.6971777E1,7.397633E0,2.111907E0,4.225349E0,3.3625195E0,8.3895855E0,8.5821905E0,6.1821055E0,1.2155274E0],"tree_param":{"num_deleted":"0","num_feature":"6","num_nodes":"19","size_leaf_vector":"1"}},{"base_weights":[-5.2772764E-2,7.941926E-2,-4.3412793E-2,5.168317E-1,-7.5237625E-3,6.0236347E-1,3.8199567E-3,-8.162553E-2,2.8262554E-2,7.0287E-3,3.4613322E-2,1.3191636E-1,-4.713475E-1,-7.818817E-3,4.0278524E-2,-6.308106E-2,-1.7491308E-3],"categories":[],"categories_nodes":[],"categories_segments":[],"categories_sizes":[],"default_left":[0,0,0,0,0,0,0,0,0,0,0,0,0,0,0,0,0],"id":67,"left_children":[1,3,-1,5,7,9,-1,11,-1,-1,-1,13,15,-1,-1,-1,-1],"loss_changes":[5.1227126E0,1.5729082E0,0E0,2.122227E-1,1.5487384E0,1.3497639E-1,0E0,2.7436416E0,0E0,0E0,0E0,4.320233E0,3.964392E0,0E0,0E0,0E0,0E0],"parents":[2147483647,0,0,1,1,3,3,4,4,5,5,7,7,11,11,12,12],"right_children":[2,4,-1,6,8,10,-1,12,-1,-1,-1,14,16,-1,-1,-1,-1],"split_conditions":[1.8011234E1,1.0406297E1,-4.3412793E-2,1.5074505E1,4.8355988E1,8.684323E0,3.8199567E-3,2.5070755E1,2.8262554E-2,7.0287E-3,3.4613322E-2,2.6853134E1,3.6811794E1,-7.818817E-3,4.0278524E-2,-6.308106E-2,-1.7491308E-3],"split_indices":[2,1,0,2,3,1,0,0,0,0,0,3,3,0,0,0,0],"split_type":[0,0,0,0,0,0,0,0,0,0,0,0,0,0,0,0,0],"sum_hessian":[4.5880695E1,4.025746E1,5.6232333E0,5.8552203E0,3.4402245E1,4.5951767E0,1.2600435E0,3.122062E1,3.1816235E0,1.1665874E0,3.4285896E0,2.0596571E1,1.0624048E1,1.4961578E1,5.6349926E0,3.1066244E0,7.5174236E0],"tree_param":{"num_deleted":"0","num_feature":"6","num_nodes":"17","size_leaf_vector":"1"}},{"base_weights":[9.637466E-3,1.3054414E-1,-4.243206E-2,2.3936997E-1,-6.6467637E-1,3.365612E-1,-3.161781E-1,-1.4672494E-3,-4.0498104E-2,4.447302E-2,2.4523158E-1,2.9791757E-2,-7.9105633E-1,-3.610785E-2,1.5776454E-2,-8.651632E-3,-4.8508167E-2],"categories":[],"categories_nodes":[],"categories_segments":[],"categories_sizes":[],"default_left":[0,0,0,0,0,0,0,0,0,0,0,0,0,0,0,0,0],"id":68,"left_children":[1,3,-1,5,7,9,11,-1,-1,-1,13,-1,15,-1,-1,-1,-1],"loss_changes":[4.855522E0,3.702405E0,0E0,2.0907288E0,4.556105E-1,1.3857696E0,3.0645638E0,0E0,0E0,0E0,2.175559E0,0E0,3.1553173E-1,0E0,0E0,0E0,0E0],"parents":[2147483647,0,0,1,1,3,3,4,4,5,5,6,6,10,10,12,12],"right_children":[2,4,-1,6,8,10,12,-1,-1,-1,14,-1,16,-1,-1,-1,-1],"split_conditions":[8E0,1.781538E1,-4.243206E-2,1.8327583E1,1.0645862E1,7.701114E0,5E0,-1.4672494E-3,-4.0498104E-2,4.447302E-2,8.187142E0,2.9791757E-2,9.62096E0,-3.610785E-2,1.5776454E-2,-8.651632E-3,-4.8508167E-2],"split_indices":[5,2,0,1,1,2,4,0,0,0,2,0,2,0,0,0,0],"split_type":[0,0,0,0,0,0,0,0,0,0,0,0,0,0,0,0,0],"sum_hessian":[4.4722874E1,3.994384E1,4.7790337E0,3.5750393E1,4.1934476E0,3.076274E1,4.987654E0,1.0041782E0,3.1892695E0,3.1222115E0,2.7640528E1,1.620582E0,3.367072E0,1.2443063E0,2.6396221E1,1.1983051E0,2.168767E0],"tree_param":{"num_deleted":"0","num_feature":"6","num_nodes":"17","size_leaf_vector":"1"}},{"base_weights":[-3.6657136E-2,5.7390798E-2,-4.0629093E-2,5.8547723E-1,-4.561399E-2,1.22397825E-1,4.0759277E-2,-1.7497179E-1,3.093915E-1,2.2153119E-2,-9.604989E-3,2.9268095E-2,-8.521512E-1,7.3981214E-1,-3.2324627E-1,-1.2348001E-2,3.702347E-2,1.9908487E-3,-5.24305E-2,1.1496881E-2,4.041934E-2,-3.6037233E-2,2.2578446E-2],"categories":[],"categories_nodes":[],"categories_segments":[],"categories_sizes":[],"default_left":[0,0,0,0,0,0,0,0,0,0,0,0,0,0,0,0,0,0,0,0,0,0,0],"id":69,"left_children":[1,3,-1,5,7,9,-1,11,13,-1,-1,15,17,19,21,-1,-1,-1,-1,-1,-1,-1,-1],"loss_changes":[3.3571281E0,2.2784128E0,0E0,6.266098E-1,1.6874446E0,4.3211702E-1,0E0,3.7186487E0,2.9239955E0,0E0,0E0,4.403677E0,1.1319904E0,2.9915333E-2,1.7693409E0,0E0,0E0,0E0,0E0,0E0,0E0,0E0,0E0],"parents":[2147483647,0,0,1,1,3,3,4,4,5,5,7,7,8,8,11,11,12,12,13,13,14,14],"right_children":[2,4,-1,6,8,10,-1,12,14,-1,-1,16,18,20,22,-1,-1,-1,-1,-1,-1,-1,-1],"split_conditions":[2.0015238E1,1.0362655E1,-4.0629093E-2,8.990103E0,3.980689E1,1.7406372E1,4.0759277E-2,2.4961998E1,3.563258E1,2.2153119E-2,-9.604989E-3,2.6853134E1,1.0994684E1,1.4464421E1,4.9561302E1,-1.2348001E-2,3.702347E-2,1.9908487E-3,-5.24305E-2,1.1496881E-2,4.041934E-2,-3.6037233E-2,2.2578446E-2],"split_indices":[2,1,0,1,3,0,0,0,0,0,0,3,2,1,3,0,0,0,0,0,0,0,0],"split_type":[0,0,0,0,0,0,0,0,0,0,0,0,0,0,0,0,0,0,0,0,0,0,0],"sum_hessian":[4.436531E1,4.039515E1,3.9701614E0,5.828668E0,3.4566483E1,2.4408622E0,3.387806E0,2.5706581E1,8.8598995E0,1.0061691E0,1.4346931E0,2.0485004E1,5.221576E0,5.171807E0,3.6880927E0,1.5224586E1,5.2604194E0,1.0863991E0,4.135177E0,1.1291693E0,4.0426373E0,2.4836879E0,1.204405E0],"tree_param":{"num_deleted":"0","num_feature":"6","num_nodes":"23","size_leaf_vector":"1"}},{"base_weights":[-2.4929645E-2,9.0906456E-2,-4.2162564E-2,1.8047784E-1,-3.8193103E-2,7.595319E-1,7.163653E-2,1.3116878E-2,4.8707783E-2,-2.643138E-1,2.9650256E-1,1.742903E-2,-3.9959427E-2,5.2534293E-2,-4.5500784E-3],"categories":[],"categories_nodes":[],"categories_segments":[],"categories_sizes":[],"default_left":[0,0,0,0,0,0,0,0,0,0,0,0,0,0,0],"id":70,"left_children":[1,3,-1,5,-1,7,9,-1,-1,11,13,-1,-1,-1,-1],"loss_changes":[4.2908216E0,3.1886802E0,0E0,2.2697396E0,0E0,3.559549E-1,2.5068026E0,0E0,0E0,4.677302E0,5.861101E0,0E0,