{"learner":{"attributes":{},"feature_names":["prime_cost","overhead_pct","profit_pct","estimated_budget","complexity_score","competitor_density"],"feature_types":["float","float","float","float","int","int"],"gradient_booster":{"model":{"cats":{"enc":[],"feature_segments":[],"sorted_idx":[]},"gbtree_model_param":{"num_parallel_tree":"1","num_trees":"300"},"iteration_indptr":[0,1,2,3,4,5,6,7,8,9,10,11,12,13,14,15,16,17,18,19,20,21,22,23,24,25,26,27,28,29,30,31,32,33,34,35,36,37,38,39,40,41,42,43,44,45,46,47,48,49,50,51,52,53,54,55,56,57,58,59,60,61,62,63,64,65,66,67,68,69,70,71,72,73,74,75,76,77,78,79,80,81,82,83,84,85,86,87,88,89,90,91,92,93,94,95,96,97,98,99,100,101,102,103,104,105,106,107,108,109,110,111,112,113,114,115,116,117,118,119,120,121,122,123,124,125,126,127,128,129,130,131,132,133,134,135,136,137,138,139,140,141,142,143,144,145,146,147,148,149,150,151,152,153,154,155,156,157,158,159,160,161,162,163,164,165,166,167,168,169,170,171,172,173,174,175,176,177,178,179,180,181,182,183,184,185,186,187,188,189,190,191,192,193,194,195,196,197,198,199,200,201,202,203,204,205,206,207,208,209,210,211,212,213,214,215,216,217,218,219,220,221,222,223,224,225,226,227,228,229,230,231,232,233,234,235,236,237,238,239,240,241,242,243,244,245,246,247,248,249,250,251,252,253,254,255,256,257,258,259,260,261,262,263,264,265,266,267,268,269,270,271,272,273,274,275,276,277,278,279,280,281,282,283,284,285,286,287,288,289,290,291,292,293,294,295,296,297,298,299,300],"tree_info":[0,0,0,0,0,0,0,0,0,0,0,0,0,0,0,0,0,0,0,0,0,0,0,0,0,0,0,0,0,0,0,0,0,0,0,0,0,0,0,0,0,0,0,0,0,0,0,0,0,0,0,0,0,0,0,0,0,0,0,0,0,0,0,0,0,0,0,0,0,0,0,0,0,0,0,0,0,0,0,0,0,0,0,0,0,0,0,0,0,0,0,0,0,0,0,0,0,0,0,0,0,0,0,0,0,0,0,0,0,0,0,0,0,0,0,0,0,0,0,0,0,0,0,0,0,0,0,0,0,0,0,0,0,0,0,0,0,0,0,0,0,0,0,0,0,0,0,0,0,0,0,0,0,0,0,0,0,0,0,0,0,0,0,0,0,0,0,0,0,0,0,0,0,0,0,0,0,0,0,0,0,0,0,0,0,0,0,0,0,0,0,0,0,0,0,0,0,0,0,0,0,0,0,0,0,0,0,0,0,0,0,0,0,0,0,0,0,0,0,0,0,0,0,0,0,0,0,0,0,0,0,0,0,0,0,0,0,0,0,0,0,0,0,0,0,0,0,0,0,0,0,0,0,0,0,0,0,0,0,0,0,0,0,0,0,0,0,0,0,0,0,0,0,0,0,0,0,0,0,0,0,0,0,0,0,0,0,0,0,0,0,0,0,0,0,0,0,0,0,0],"trees":[{"base_weights":[6.6519375E-3,1.3497341E0,-6.868291E-2,2.9388494E0,-6.760524E-2,3.998096E-2,1.4798E-1],"categories":[],"categories_nodes":[],"categories_segments":[],"categories_sizes":[],"default_left":[0,0,0,0,0,0,0],"id":0,"left_children":[1,3,-1,5,-1,-1,-1],"loss_changes":[3.82736E2,4.5322668E2,0E0,5.720215E-1,0E0,0E0,0E0],"parents":[2147483647,0,0,1,1,3,3],"right_children":[2,4,-1,6,-1,-1,-1],"split_conditions":[1.8011234E1,8E0,-6.868291E-2,1.1732276E1,-6.760524E-2,3.998096E-2,1.4798E-1],"split_indices":[2,5,0,3,0,0,0],"split_type":[0,0,0,0,0,0,0],"sum_hessian":[2.0445235E2,1.036348E2,1.0081754E2,6.519937E1,3.8435432E1,1.0061631E0,6.419321E1],"tree_param":{"num_deleted":"0","num_feature":"6","num_nodes":"7","size_leaf_vector":"1"}},{"base_weights":[3.49589E-3,1.2411948E0,-6.737667E-2,5.468379E-1,1.4089888E0,8.8796985E-1,-6.147069E-1,5.062811E-1,1.4982575E0,3.9403805E-1,1.541731E0,-4.9922414E-2,3.996654E-2,1.0116115E0,-4.799237E-1,1.6201682E0,9.3236876E-1,3.397177E-2,-4.206258E-2,2.314483E-2,9.966316E-2,-1.1349625E-2,1.4477781E-2,1.0688313E-3,6.4399175E-2,-4.339114E-2,1.4477781E-2,5.620104E-2,9.2664845E-2,8.7032415E-2,2.4780245E-2],"categories":[],"categories_nodes":[],"categories_segments":[],"categories_sizes":[],"default_left":[0,0,0,0,0,0,0,0,0,0,0,0,0,0,0,0,0,0,0,0,0,0,0,0,0,0,0,0,0,0,0],"id":1,"left_children":[1,3,-1,5,7,9,11,13,15,17,19,-1,21,23,25,27,29,-1,-1,-1,-1,-1,-1,-1,-1,-1,-1,-1,-1,-1,-1],"loss_changes":[3.3910123E2,1.1560013E1,0E0,9.354967E0,6.0589447E0,5.073803E0,1.4562879E0,5.0323853E0,3.7654266E0,4.5784125E0,2.5985508E0,0E0,2.6861364E-1,1.7114902E0,1.376357E0,5.038025E0,4.7543583E0,0E0,0E0,0E0,0E0,0E0,0E0,0E0,0E0,0E0,0E0,0E0,0E0,0E0,0E0],"parents":[2147483647,0,0,1,1,3,3,4,4,5,5,6,6,7,7,8,8,9,9,10,10,12,12,13,13,14,14,15,15,16,16],"right_children":[2,4,-1,6,8,10,12,14,16,18,20,-1,22,24,26,28,30,-1,-1,-1,-1,-1,-1,-1,-1,-1,-1,-1,-1,-1,-1],"split_conditions":[1.8011234E1,1.9002789E1,-6.737667E-2,1.3566838E1,6.5672407E0,1.5685589E1,1.5144978E1,1.6014416E1,8E0,1.4959712E1,1.1091418E1,-4.9922414E-2,1.8056263E1,3.0587955E1,1.8558052E1,1.1669073E1,1.9120226E1,3.397177E-2,-4.206258E-2,2.314483E-2,9.966316E-2,-1.1349625E-2,1.4477781E-2,1.0688313E-3,6.4399175E-2,-4.339114E-2,1.4477781E-2,5.620104E-2,9.2664845E-2,8.7032415E-2,2.4780245E-2],"split_indices":[2,3,0,0,2,3,1,1,4,3,2,0,3,3,1,1,0,0,0,0,0,0,0,0,0,0,0,0,0,0,0],"split_type":[0,0,0,0,0,0,0,0,0,0,0,0,0,0,0,0,0,0,0,0,0,0,0,0,0,0,0,0,0,0,0],"sum_hessian":[2.0079118E2,1.04833176E2,9.5958E1,2.123179E1,8.360139E1,1.659389E1,4.637902E0,8.123717E0,7.547767E1,1.036535E1,6.228539E0,2.5929294E0,2.0449727E0,5.3543773E0,2.7693403E0,6.0566624E1,1.4911045E1,8.785544E0,1.5798053E0,2.435243E0,3.7932963E0,1.0318484E0,1.0131241E0,1.4033943E0,3.9509828E0,1.756216E0,1.0131241E0,2.1222374E1,3.934425E1,4.1835666E0,1.0727479E1],"tree_param":{"num_deleted":"0","num_feature":"6","num_nodes":"31","size_leaf_vector":"1"}},{"base_weights":[-3.457342E-2,8.1254435E-1,-6.703387E-2,9.5019203E-1,3.922602E-1,1.802601E-1,1.0281509E0,-3.5271708E-2,5.091221E-1,5.14257E-1,-4.8819572E-1,9.5978014E-2,9.6163857E-1,8.151277E-1,1.3305616E-1,-2.2320962E-2,4.3618612E-2,6.5542893E-3,-4.1681405E-2,-3.6308737E-4,5.2298613E-2,5.0272424E-2,-1.4787813E-3,-1.4346457E-2,3.0953337E-2],"categories":[],"categories_nodes":[],"categories_segments":[],"categories_sizes":[],"default_left":[0,0,0,0,0,0,0,0,0,0,0,0,0,0,0,0,0,0,0,0,0,0,0,0,0],"id":2,"left_children":[1,3,-1,5,7,9,11,-1,13,15,17,-1,19,21,23,-1,-1,-1,-1,-1,-1,-1,-1,-1,-1],"loss_changes":[2.276394E2,6.8485794E0,0E0,5.41642E0,4.528058E0,2.437569E0,3.1660156E0,0E0,3.3384447E0,2.803688E0,9.1703486E-1,0E0,6.5990295E0,2.653348E0,3.1644952E0,0E0,0E0,0E0,0E0,0E0,0E0,0E0,0E0,0E0,0E0],"parents":[2147483647,0,0,1,1,3,3,4,4,5,5,6,6,8,8,9,9,10,10,12,12,13,13,14,14],"right_children":[2,4,-1,6,8,10,12,-1,14,16,18,-1,20,22,24,-1,-1,-1,-1,-1,-1,-1,-1,-1,-1],"split_conditions":[8E0,1.6895704E1,-6.703387E-2,1.5555909E1,1.7272053E1,1.0652522E1,1.2153055E1,-3.5271708E-2,1.8685635E1,1.119128E1,1.08450165E1,9.5978014E-2,1.9986362E1,3.1962442E1,6E0,-2.2320962E-2,4.3618612E-2,6.5542893E-3,-4.1681405E-2,-3.6308737E-4,5.2298613E-2,5.0272424E-2,-1.4787813E-3,-1.4346457E-2,3.0953337E-2],"split_indices":[5,1,0,3,1,0,0,0,1,3,1,0,3,0,5,0,0,0,0,0,0,0,0,0,0],"split_type":[0,0,0,0,0,0,0,0,0,0,0,0,0,0,0,0,0,0,0,0,0,0,0,0,0],"sum_hessian":[2.0375882E2,1.238255E2,7.993332E1,9.2326675E1,3.1498825E1,8.7934675E0,8.35332E1,2.5461485E0,2.8952677E1,6.0174837E0,2.7759836E0,3.8655956E0,7.966761E1,1.5319587E1,1.3633091E1,1.5670774E0,4.4504066E0,1.2161753E0,1.5598081E0,6.4522514E0,7.3215355E1,1.2347307E1,2.9722798E0,7.533045E0,6.1000457E0],"tree_param":{"num_deleted":"0","num_feature":"6","num_nodes":"25","size_leaf_vector":"1"}},{"base_weights":[3.0162903E-2,1.2208247E0,-6.608016E-2,7.033523E-1,1.3336039E0,1.0221097E0,-4.1145924E-2,1.0731524E0,1.5576855E0,5.6960803E-1,1.5862489E0,7.400219E-4,1.107314E0,1.1977466E-2,1.5832533E0,4.2745505E-2,-4.0854227E-2,2.8226614E-2,9.522316E-2,5.9595753E-2,2.4665127E-2,9.915781E-2,6.920829E-2],"categories":[],"categories_nodes":[],"categories_segments":[],"categories_sizes":[],"default_left":[0,0,0,0,0,0,0,0,0,0,0,0,0,0,0,0,0,0,0,0,0,0,0],"id":3,"left_children":[1,3,-1,5,7,9,-1,11,13,15,17,-1,19,-1,21,-1,-1,-1,-1,-1,-1,-1,-1],"loss_changes":[3.3313345E2,5.4836273E0,0E0,1.1449915E1,3.535965E0,3.8151016E0,0E0,1.5917931E0,1.1625443E0,5.373844E0,1.4176445E0,0E0,1.6496506E0,0E0,8.137665E-1,0E0,0E0,0E0,0E0,0E0,0E0,0E0,0E0],"parents":[2147483647,0,0,1,1,3,3,4,4,5,5,7,7,8,8,9,9,10,10,12,12,14,14],"right_children":[2,4,-1,6,8,10,-1,12,14,16,18,-1,20,-1,22,-1,-1,-1,-1,-1,-1,-1,-1],"split_conditions":[1.8011234E1,1.9002789E1,-6.608016E-2,1.3898678E1,1.1303599E1,1.5685589E1,-4.1145924E-2,5.19911E0,1.9444773E1,1.4959712E1,1.1091418E1,7.400219E-4,8E0,1.1977466E-2,2.0527428E1,4.2745505E-2,-4.0854227E-2,2.8226614E-2,9.522316E-2,5.9595753E-2,2.4665127E-2,9.915781E-2,6.920829E-2],"split_indices":[2,3,0,0,2,3,0,2,3,3,2,0,4,0,0,0,0,0,0,0,0,0,0],"split_type":[0,0,0,0,0,0,0,0,0,0,0,0,0,0,0,0,0,0,0,0,0,0,0],"sum_hessian":[2.0497751E2,1.0903459E2,9.5942924E1,2.0805918E1,8.8228676E1,1.7484625E1,3.3212943E0,4.3480335E1,4.474834E1,1.0817495E1,6.6671286E0,1.4043903E0,4.2075943E1,1.0487676E0,4.3699574E1,9.289697E0,1.5277984E0,2.2421467E0,4.4249816E0,3.6153385E1,5.922558E0,1.1546055E1,3.215352E1],"tree_param":{"num_deleted":"0","num_feature":"6","num_nodes":"23","size_leaf_vector":"1"}},{"base_weights":[1.567991E-2,1.0613565E0,-6.496272E-2,8.147816E-1,1.2696759E0,4.815867E-1,1.0724168E0,2.8570685E-1,1.3570216E0,6.7906296E-1,-6.437219E-1,1.4674525E0,8.012105E-1,7.345706E-1,-2.6064692E-2,1.4255044E0,3.2675815E-1,8.510144E-2,2.2846391E-2,-4.9285945E-2,1.0196111E-2,9.262562E-2,3.1814598E-2,-2.6797328E-2,5.753651E-2,-1.3110879E-3,5.623371E-2,7.357521E-2,-3.097532E-3,-2.675443E-2,4.9506888E-2],"categories":[],"categories_nodes":[],"categories_segments":[],"categories_sizes":[],"default_left":[0,0,0,0,0,0,0,0,0,0,0,0,0,0,0,0,0,0,0,0,0,0,0,0,0,0,0,0,0,0,0],"id":4,"left_children":[1,3,-1,5,7,9,11,13,15,17,19,21,23,25,-1,27,29,-1,-1,-1,-1,-1,-1,-1,-1,-1,-1,-1,-1,-1,-1],"loss_changes":[2.791456E2,4.77388E0,0E0,4.1684227E0,4.7262726E0,6.128887E0,2.0343018E0,2.5990744E0,3.3713303E0,4.284196E0,1.4582925E0,2.3398933E0,9.949092E0,1.3194594E0,0E0,3.5599976E0,3.2095656E0,0E0,0E0,0E0,0E0,0E0,0E0,0E0,0E0,0E0,0E0,0E0,0E0,0E0,0E0],"parents":[2147483647,0,0,1,1,3,3,4,4,5,5,6,6,7,7,8,8,9,9,10,10,11,11,12,12,13,13,15,15,16,16],"right_children":[2,4,-1,6,8,10,12,14,16,18,20,22,24,26,-1,28,30,-1,-1,-1,-1,-1,-1,-1,-1,-1,-1,-1,-1,-1,-1],"split_conditions":[1.8011234E1,1.1303599E1,-6.496272E-2,3.0587955E1,1.5685589E1,2.0784601E1,2.6974077E1,1.5341967E1,1.7436623E1,5.9512296E0,8.909545E0,3.625838E1,3.9474136E1,1.316931E1,-2.6064692E-2,3.894805E1,1.7644321E1,8.510144E-2,2.2846391E-2,-4.9285945E-2,1.0196111E-2,9.262562E-2,3.1814598E-2,-2.6797328E-2,5.753651E-2,-1.3110879E-3,5.623371E-2,7.357521E-2,-3.097532E-3,-2.675443E-2,4.9506888E-2],"split_indices":[2,2,0,3,3,0,0,2,2,2,2,3,3,3,0,0,2,0,0,0,0,0,0,0,0,0,0,0,0,0,0],"split_type":[0,0,0,0,0,0,0,0,0,0,0,0,0,0,0,0,0,0,0,0,0,0,0,0,0,0,0,0,0,0,0],"sum_hessian":[2.0101265E2,1.1207777E2,8.893488E1,5.357523E1,5.850254E1,2.4612974E1,2.8962255E1,5.1180096E0,5.338453E1,2.12759E1,3.3370755E0,9.994118E0,1.8968138E1,3.3464336E0,1.7715758E0,4.9697445E1,3.6870847E0,2.6072032E0,1.8668695E1,2.2616715E0,1.0754039E0,5.9901676E0,4.0039496E0,3.8201213E0,1.5148017E1,1.4504676E0,1.895966E0,4.8217052E1,1.4803941E0,1.6877677E0,1.9993169E0],"tree_param":{"num_deleted":"0","num_feature":"6","num_nodes":"31","size_leaf_vector":"1"}},{"base_weights":[2.7569378E-2,1.0727142E0,-6.400637E-2,2.200481E0,-6.765783E-2,1.1872186E-2,1.1119175E-1],"categories":[],"categories_nodes":[],"categories_segments":[],"categories_sizes":[],"default_left":[0,0,0,0,0,0,0],"id":5,"left_children":[1,3,-1,5,-1,-1,-1],"loss_changes":[2.851236E2,3.201513E2,0E0,3.1176758E0,0E0,0E0,0E0],"parents":[2147483647,0,0,1,1,3,3],"right_children":[2,4,-1,6,-1,-1,-1],"split_conditions":[1.8011234E1,8E0,-6.400637E-2,1.1732276E1,-6.765783E-2,1.1872186E-2,1.1119175E-1],"split_indices":[2,5,0,3,0,0,0],"split_type":[0,0,0,0,0,0,0],"sum_hessian":[2.0661223E2,1.14933846E2,9.167838E1,7.852237E1,3.641147E1,1.0544862E0,7.746789E1],"tree_param":{"num_deleted":"0","num_feature":"6","num_nodes":"7","size_leaf_vector":"1"}},{"base_weights":[-2.9172253E-2,8.975181E-1,-6.3049674E-2,4.3717435E-1,9.8466307E-1,8.033744E-1,-6.25958E-1,1.3290681E0,8.41949E-1,9.902549E-1,-2.45662E-2,-4.128498E-2,1.8682538E-3,1.0451093E0,1.7287315E0,9.797833E-2,1.0272957E0,-9.474463E-3,5.924752E-2,5.667294E-2,-1.0786783E-2,3.1310182E-2,9.3283065E-2,2.1474004E-2,-5.4284025E-2,5.6508522E-2,2.4391945E-2],"categories":[],"categories_nodes":[],"categories_segments":[],"categories_sizes":[],"default_left":[0,0,0,0,0,0,0,0,0,0,0,0,0,0,0,0,0,0,0,0,0,0,0,0,0,0,0],"id":6,"left_children":[1,3,-1,5,7,9,11,13,15,17,-1,-1,-1,19,21,23,25,-1,-1,-1,-1,-1,-1,-1,-1,-1,-1],"loss_changes":[2.2976418E2,4.1783295E0,0E0,8.322346E0,3.5896988E0,4.207078E0,7.871108E-1,1.1824074E0,9.615429E0,3.387169E0,0E0,0E0,0E0,2.2415104E0,2.525711E-1,6.414246E0,2.573265E0,0E0,0E0,0E0,0E0,0E0,0E0,0E0,0E0,0E0,0E0],"parents":[2147483647,0,0,1,1,3,3,4,4,5,5,6,6,7,7,8,8,9,9,13,13,14,14,15,15,16,16],"right_children":[2,4,-1,6,8,10,12,14,16,18,-1,-1,-1,20,22,24,26,-1,-1,-1,-1,-1,-1,-1,-1,-1,-1],"split_conditions":[1.8011234E1,1.8378077E1,-6.3049674E-2,1.1946192E1,1.9895657E1,8E0,1.8376669E1,1.3767745E1,3.2939323E1,1.2053443E1,-2.45662E-2,-4.128498E-2,1.8682538E-3,1.8525661E1,1.9444773E1,2.5777586E1,8E0,-9.474463E-3,5.924752E-2,5.667294E-2,-1.0786783E-2,3.1310182E-2,9.3283065E-2,2.1474004E-2,-5.4284025E-2,5.6508522E-2,2.4391945E-2],"split_indices":[2,3,0,0,0,4,1,2,3,3,0,0,0,1,3,0,4,0,0,0,0,0,0,0,0,0,0],"split_type":[0,0,0,0,0,0,0,0,0,0,0,0,0,0,0,0,0,0,0,0,0,0,0,0,0,0,0],"sum_hessian":[1.9928825E2,1.13884865E2,8.540339E1,1.908498E1,9.479989E1,1.4377073E1,4.7079062E0,2.5338627E1,6.946126E1,1.2769093E1,1.607981E0,3.4302025E0,1.2777035E0,1.6927032E1,8.411594E0,1.4158502E1,5.5302757E1,1.8125868E0,1.0956506E1,1.5913014E1,1.0140184E0,1.5449749E0,6.86662E0,1.155852E1,2.5999815E0,4.5525913E1,9.776845E0],"tree_param":{"num_deleted":"0","num_feature":"6","num_nodes":"27","size_leaf_vector":"1"}},{"base_weights":[1.4187904E-2,7.606183E-1,-6.4694814E-2,8.2020193E-1,2.0236818E-1,-2.170251E-2,8.4199774E-1,4.7787222E-1,-5.665549E-1,7.565227E-1,1.1084937E0,1.3370799E-1,8.606914E-1,-4.196316E-2,-3.549765E-3,4.1980367E-2,-1.907115E-2,1.628461E-2,6.267995E-2,4.8041157E-2,-1.6241848E-2,5.6016423E-2,1.0850569E-2],"categories":[],"categories_nodes":[],"categories_segments":[],"categories_sizes":[],"default_left":[0,0,0,0,0,0,0,0,0,0,0,0,0,0,0,0,0,0,0,0,0,0,0],"id":7,"left_children":[1,3,-1,5,7,-1,9,11,13,15,17,19,21,-1,-1,-1,-1,-1,-1,-1,-1,-1,-1],"loss_changes":[1.9448506E2,4.051979E0,0E0,3.4887924E0,3.1426427E0,0E0,1.7272034E0,1.27138E0,4.855348E-1,8.6813965E0,2.4546947E0,2.8628101E0,5.587189E-1,0E0,0E0,0E0,0E0,0E0,0E0,0E0,0E0,0E0,0E0],"parents":[2147483647,0,0,1,1,3,3,4,4,6,6,7,7,8,8,9,9,10,10,11,11,12,12],"right_children":[2,4,-1,6,8,-1,10,12,14,16,18,20,22,-1,-1,-1,-1,-1,-1,-1,-1,-1,-1],"split_conditions":[8E0,1.8685635E1,-6.4694814E-2,1.2053443E1,8E0,-2.170251E-2,4.4660862E1,3.452762E1,1.9155796E1,3.1962442E1,3E0,1.3724293E1,1.9548384E1,-4.196316E-2,-3.549765E-3,4.1980367E-2,-1.907115E-2,1.628461E-2,6.267995E-2,4.8041157E-2,-1.6241848E-2,5.6016423E-2,1.0850569E-2],"split_indices":[5,1,0,3,4,0,3,3,1,0,5,3,1,0,0,0,0,0,0,0,0,0,0],"split_type":[0,0,0,0,0,0,0,0,0,0,0,0,0,0,0,0,0,0,0,0,0,0,0],"sum_hessian":[1.9717914E2,1.25808E2,7.137114E1,1.1325115E2,1.2556849E1,1.6113375E0,1.1163982E2,9.523212E0,3.0336359E0,8.743498E1,2.4204832E1,5.7252965E0,3.797916E0,1.5094262E0,1.5242096E0,8.1729836E1,5.7051525E0,4.292505E0,1.9912327E1,1.6513133E0,4.073983E0,2.1786306E0,1.6192852E0],"tree_param":{"num_deleted":"0","num_feature":"6","num_nodes":"23","size_leaf_vector":"1"}},{"base_weights":[3.893937E-2,9.51808E-1,-6.2161464E-2,8.310926E-1,1.371974E0,9.349966E-1,-4.4742858E-1,-9.037244E-3,1.4939058E0,7.778296E-1,1.2472925E0,3.1747806E-1,-9.9337846E-1,2.9628107E-1,1.6315224E0,4.4357177E-2,-5.4851055E-2,6.891796E-2,2.0970719E-2,4.366948E-2,-2.2589793E-2,-5.673306E-2,-1.2487411E-2,2.9771363E-2,-1.1575217E-2,4.999654E-2,9.29499E-2],"categories":[],"categories_nodes":[],"categories_segments":[],"categories_sizes":[],"default_left":[0,0,0,0,0,0,0,0,0,0,0,0,0,0,0,0,0,0,0,0,0,0,0,0,0,0,0],"id":8,"left_children":[1,3,-1,5,7,9,11,-1,13,15,17,19,21,23,25,-1,-1,-1,-1,-1,-1,-1,-1,-1,-1,-1,-1],"loss_changes":[2.3446486E2,4.7934036E0,0E0,1.2827797E1,4.922306E0,3.28611E0,3.529821E0,0E0,3.289463E0,1.3340252E1,2.3921967E0,2.0896432E0,2.1395922E-1,7.032657E-1,1.0591698E0,0E0,0E0,0E0,0E0,0E0,0E0,0E0,0E0,0E0,0E0,0E0,0E0],"parents":[2147483647,0,0,1,1,3,3,4,4,5,5,6,6,8,8,9,9,10,10,11,11,12,12,13,13,14,14],"right_children":[2,4,-1,6,8,10,12,-1,14,16,18,20,22,24,26,-1,-1,-1,-1,-1,-1,-1,-1,-1,-1,-1,-1],"split_conditions":[1.8011234E1,4.4815163E1,-6.2161464E-2,3.1962442E1,2.9309515E1,3.2939323E1,1.3602537E1,-9.037244E-3,1.0670917E1,2.5777586E1,3.0545742E1,3.5970295E1,1.3570974E1,3.6902103E1,3.3597313E1,4.4357177E-2,-5.4851055E-2,6.891796E-2,2.0970719E-2,4.366948E-2,-2.2589793E-2,-5.673306E-2,-1.2487411E-2,2.9771363E-2,-1.1575217E-2,4.999654E-2,9.29499E-2],"split_indices":[2,3,0,0,0,3,1,0,1,0,0,0,2,0,0,0,0,0,0,0,0,0,0,0,0,0,0],"split_type":[0,0,0,0,0,0,0,0,0,0,0,0,0,0,0,0,0,0,0,0,0,0,0,0,0,0,0],"sum_hessian":[1.9830899E2,1.1598707E2,8.232192E1,9.241413E1,2.3572937E1,8.571672E1,6.6974134E0,1.6812332E0,2.1891705E1,5.93425E1,2.6374218E1,2.963653E0,3.7337604E0,2.5812254E0,1.9310478E1,5.6570927E1,2.771573E0,2.2195395E1,4.178824E0,1.6418421E0,1.321811E0,2.6957524E0,1.038008E0,1.565657E0,1.0155684E0,6.54206E0,1.2768419E1],"tree_param":{"num_deleted":"0","num_feature":"6","num_nodes":"27","size_leaf_vector":"1"}},{"base_weights":[6.4745788E-3,8.708793E-1,-6.137649E-2,9.385466E-2,-6.651558E-2],"categories":[],"categories_nodes":[],"categories_segments":[],"categories_sizes":[],"default_left":[0,0,0,0,0],"id":9,"left_children":[1,3,-1,-1,-1],"loss_changes":[2.0686533E2,2.5508456E2,0E0,0E0,0E0],"parents":[2147483647,0,0,1,1],"right_children":[2,4,-1,-1,-1],"split_conditions":[1.8011234E1,8E0,-6.137649E-2,9.385466E-2,-6.651558E-2],"split_indices":[2,5,0,0,0],"split_type":[0,0,0,0,0],"sum_hessian":[1.9193176E2,1.1304171E2,7.889005E1,7.767977E1,3.5361935E1],"tree_param":{"num_deleted":"0","num_feature":"6","num_nodes":"5","size_leaf_vector":"1"}},{"base_weights":[-1.4291045E-2,7.6699686E-1,-6.0655054E-2,1.6998147E0,-6.560667E-2,1.5647638E0,1.0382183E-1,1.7047282E0,-5.1004845E-1,9.0128854E-2,4.7593094E-2,-4.6096068E-2,1.953131E-2],"categories":[],"categories_nodes":[],"categories_segments":[],"categories_sizes":[],"default_left":[0,0,0,0,0,0,0,0,0,0,0,0,0],"id":10,"left_children":[1,3,-1,5,-1,7,-1,9,11,-1,-1,-1,-1],"loss_changes":[1.828663E2,2.3150479E2,0E0,9.2367554E-1,0E0,1.9584076E1,0E0,2.748581E0,2.1564465E0,0E0,0E0,0E0,0E0],"parents":[2147483647,0,0,1,1,3,3,5,5,7,7,8,8],"right_children":[2,4,-1,6,-1,8,-1,10,12,-1,-1,-1,-1],"split_conditions":[1.8011234E1,8E0,-6.0655054E-2,4.4815163E1,-6.560667E-2,3.1962442E1,1.0382183E-1,2.7971249E1,4.315208E1,9.0128854E-2,4.7593094E-2,-4.6096068E-2,1.953131E-2],"split_indices":[2,5,0,3,0,0,0,0,3,0,0,0,0],"split_type":[0,0,0,0,0,0,0,0,0,0,0,0,0],"sum_hessian":[1.9324814E2,1.17216225E2,7.6031906E1,8.103962E1,3.617661E1,6.344422E1,1.7595396E1,5.9601913E1,3.8423088E0,5.1512623E1,8.089291E0,2.620418E0,1.2218906E0],"tree_param":{"num_deleted":"0","num_feature":"6","num_nodes":"13","size_leaf_vector":"1"}},{"base_weights":[4.992204E-4,7.25409E-1,-5.9888106E-2,1.6132692E0,-6.4374186E-2,5.3706546E-3,1.6331638E0,8.587909E-2,1.1389155E0,4.012812E-2,7.272745E-2],"categories":[],"categories_nodes":[],"categories_segments":[],"categories_sizes":[],"default_left":[0,0,0,0,0,0,0,0,0,0,0],"id":11,"left_children":[1,3,-1,5,-1,-1,7,-1,9,-1,-1],"loss_changes":[1.64137E2,2.1248796E2,0E0,2.285431E0,0E0,0E0,1.4234314E0,0E0,4.022541E-1,0E0,0E0],"parents":[2147483647,0,0,1,1,3,3,6,6,8,8],"right_children":[2,4,-1,6,-1,-1,8,-1,10,-1,-1],"split_conditions":[1.8011234E1,8E0,-5.9888106E-2,1.119128E1,-6.4374186E-2,5.3706546E-3,8E0,8.587909E-2,3.6139927E1,4.012812E-2,7.272745E-2],"split_indices":[2,5,0,3,0,0,4,0,3,0,0],"split_type":[0,0,0,0,0,0,0,0,0,0,0],"sum_hessian":[1.869602E2,1.1673431E2,7.02259E1,8.114212E1,3.5592182E1,1.1414728E0,8.000065E1,6.621582E1,1.3784832E1,8.388438E0,5.396394E0],"tree_param":{"num_deleted":"0","num_feature":"6","num_nodes":"11","size_leaf_vector":"1"}},{"base_weights":[6.7381826E-3,7.365552E-1,-5.9274334E-2,1.5782425E0,-6.339288E-2,4.28021E-3,7.9933904E-2],"categories":[],"categories_nodes":[],"categories_segments":[],"categories_sizes":[],"default_left":[0,0,0,0,0,0,0],"id":12,"left_children":[1,3,-1,5,-1,-1,-1],"loss_changes":[1.6095345E2,1.9557175E2,0E0,2.3415222E0,0E0,0E0,0E0],"parents":[2147483647,0,0,1,1,3,3],"right_children":[2,4,-1,6,-1,-1,-1],"split_conditions":[1.8011234E1,8E0,-5.9274334E-2,1.1732276E1,-6.339288E-2,4.28021E-3,7.9933904E-2],"split_indices":[2,5,0,3,0,0,0],"split_type":[0,0,0,0,0,0,0],"sum_hessian":[1.8297789E2,1.1373657E2,6.924132E1,8.025059E1,3.3485985E1,1.153937E0,7.909665E1],"tree_param":{"num_deleted":"0","num_feature":"6","num_nodes":"7","size_leaf_vector":"1"}},{"base_weights":[1.5300453E-2,7.136591E-1,-5.8646232E-2,1.4987446E0,-6.24469E-2,1.5796398E0,9.475622E-1,7.982959E-2,2.8537009E-2,-4.1308007E-3,1.0591203E0,6.289812E-2,2.8080542E-2],"categories":[],"categories_nodes":[],"categories_segments":[],"categories_sizes":[],"default_left":[0,0,0,0,0,0,0,0,0,0,0,0,0],"id":13,"left_children":[1,3,-1,5,-1,7,9,-1,-1,-1,11,-1,-1],"loss_changes":[1.5286986E2,1.8062938E2,0E0,2.218338E0,0E0,3.0575562E-1,1.6002369E0,0E0,0E0,0E0,4.755888E-1,0E0,0E0],"parents":[2147483647,0,0,1,1,3,3,5,5,6,6,10,10],"right_children":[2,4,-1,6,-1,8,10,-1,-1,-1,12,-1,-1],"split_conditions":[1.8011234E1,8E0,-5.8646232E-2,8E0,-6.24469E-2,1.7436623E1,1.4736222E1,7.982959E-2,2.8537009E-2,-4.1308007E-3,2.7080275E1,6.289812E-2,2.8080542E-2],"split_indices":[2,5,0,4,0,2,0,0,0,0,0,0,0],"split_type":[0,0,0,0,0,0,0,0,0,0,0,0,0],"sum_hessian":[1.8221458E2,1.1501557E2,6.719901E1,8.23214E1,3.269417E1,7.015855E1,1.2162856E1,6.8426315E1,1.7322314E0,1.2137713E0,1.0949085E1,6.730538E0,4.2185473E0],"tree_param":{"num_deleted":"0","num_feature":"6","num_nodes":"13","size_leaf_vector":"1"}},{"base_weights":[3.3538144E-3,6.805111E-1,-5.8099248E-2,5.787138E-1,1.05026E0,6.853199E-1,-2.4173254E-1,6.3819915E-1,1.193125E0,4.3471834E-1,8.7422067E-1,-4.985279E-2,1.5298212E-1,8.0516803E-1,1.6301911E-3,1.320721E0,6.621035E-1,2.5449762E-2,-4.384427E-2,4.8698686E-2,8.816394E-3,3.408047E-2,-3.6070876E-2,2.3081057E-2,5.2147925E-2,2.4781158E-2,7.154862E-2,1.5981977E-4,4.3293796E-2],"categories":[],"categories_nodes":[],"categories_segments":[],"categories_sizes":[],"default_left":[0,0,0,0,0,0,0,0,0,0,0,0,0,0,0,0,0,0,0,0,0,0,0,0,0,0,0,0,0],"id":14,"left_children":[1,3,-1,5,7,9,11,13,15,17,19,-1,21,23,-1,25,27,-1,-1,-1,-1,-1,-1,-1,-1,-1,-1,-1,-1],"loss_changes":[1.3965198E2,3.6051064E0,0E0,8.036802E0,5.8875847E-1,3.402542E0,3.458242E0,7.8821874E-1,2.0157433E-1,3.98591E0,2.9312172E0,0E0,4.2585835E0,3.0905724E-2,0E0,3.6410713E-1,6.795707E-1,0E0,0E0,0E0,0E0,0E0,0E0,0E0,0E0,0E0,0E0,0E0,0E0],"parents":[2147483647,0,0,1,1,3,3,4,4,5,5,6,6,7,7,8,8,9,9,10,10,12,12,13,13,15,15,16,16],"right_children":[2,4,-1,6,8,10,12,14,16,18,20,-1,22,24,-1,26,28,-1,-1,-1,-1,-1,-1,-1,-1,-1,-1,-1,-1],"split_conditions":[1.8011234E1,4.4815163E1,-5.8099248E-2,3.0545742E1,3.34544E1,2.5034458E1,3.8803234E1,3.252324E1,3.8305153E1,1.9895657E1,1.8147705E1,-4.985279E-2,3.572437E1,1.3570974E1,1.6301911E-3,6.9584556E0,3.8896572E1,2.5449762E-2,-4.384427E-2,4.8698686E-2,8.816394E-3,3.408047E-2,-3.6070876E-2,2.3081057E-2,5.2147925E-2,2.4781158E-2,7.154862E-2,1.5981977E-4,4.3293796E-2],"split_indices":[2,3,0,0,0,3,3,0,0,0,1,0,0,2,0,2,0,0,0,0,0,0,0,0,0,0,0,0,0],"split_type":[0,0,0,0,0,0,0,0,0,0,0,0,0,0,0,0,0,0,0,0,0,0,0,0,0,0,0,0,0],"sum_hessian":[1.7497026E2,1.10928024E2,6.404224E1,8.899227E1,2.1935751E1,7.890439E1,1.0087884E1,7.054846E0,1.4880905E1,3.5332504E1,4.3571884E1,2.9385939E0,7.14929E0,5.2718067E0,1.7830391E0,1.0798956E1,4.0819497E0,3.401798E1,1.314529E0,3.7776695E1,5.7951884E0,4.5930166E0,2.5562732E0,3.3594902E0,1.9123164E0,1.920644E0,8.878311E0,1.2041061E0,2.8778439E0],"tree_param":{"num_deleted":"0","num_feature":"6","num_nodes":"29","size_leaf_vector":"1"}},{"base_weights":[-3.1788386E-2,6.260331E-1,-5.760203E-2,1.3988265E0,-6.1871614E-2,2.677445E-3,1.4184623E0,7.4198924E-2,9.5585704E-1,2.5065212E-2,7.2033726E-2],"categories":[],"categories_nodes":[],"categories_segments":[],"categories_sizes":[],"default_left":[0,0,0,0,0,0,0,0,0,0,0],"id":15,"left_children":[1,3,-1,5,-1,-1,7,-1,9,-1,-1],"loss_changes":[1.2943352E2,1.6113396E2,0E0,2.0032654E0,0E0,0E0,9.316406E-1,0E0,2.016883E0,0E0,0E0],"parents":[2147483647,0,0,1,1,3,3,6,6,8,8],"right_children":[2,4,-1,6,-1,-1,8,-1,10,-1,-1],"split_conditions":[1.8011234E1,8E0,-5.760203E-2,1.119128E1,-6.1871614E-2,2.677445E-3,8E0,7.4198924E-2,3.6139927E1,2.5065212E-2,7.2033726E-2],"split_indices":[2,5,0,3,0,0,4,0,3,0,0],"split_type":[0,0,0,0,0,0,0,0,0,0,0],"sum_hessian":[1.736611E2,1.09690865E2,6.397023E1,7.771232E1,3.1978552E1,1.1715944E0,7.654072E1,6.5111465E1,1.1429257E1,6.9485116E0,4.480746E0],"tree_param":{"num_deleted":"0","num_feature":"6","num_nodes":"11","size_leaf_vector":"1"}},{"base_weights":[-2.0442475E-2,6.156861E-1,-5.7056595E-2,5.2457905E-1,9.4233996E-1,6.4016455E-1,-3.6416173E-1,-3.0618513E-3,1.0088423E0,-1.8597508E-2,6.628272E-1,-5.8983654E-2,1.7309168E-3,5.633613E-2,4.279988E-1,2.4993848E-2,3.9972536E-2,3.4238745E-2,-3.4471255E-2,3.9236125E-2,-1.908714E-2],"categories":[],"categories_nodes":[],"categories_segments":[],"categories_sizes":[],"default_left":[0,0,0,0,0,0,0,0,0,0,0,0,0,0,0,0,0,0,0,0,0],"id":16,"left_children":[1,3,-1,5,7,9,11,-1,13,-1,15,-1,17,-1,19,-1,-1,-1,-1,-1,-1],"loss_changes":[1.1941065E2,2.6861725E0,0E0,9.048939E0,1.5334663E0,1.9967613E0,3.139347E0,0E0,9.376831E-1,0E0,1.2699356E0,0E0,4.369831E0,0E0,1.7759469E0,0E0,0E0,0E0,0E0,0E0,0E0],"parents":[2147483647,0,0,1,1,3,3,4,4,5,5,6,6,8,8,10,10,12,12,14,14],"right_children":[2,4,-1,6,8,10,12,-1,14,-1,16,-1,18,-1,20,-1,-1,-1,-1,-1,-1],"split_conditions":[1.8011234E1,4.4815163E1,-5.7056595E-2,3.0545742E1,2.9309515E1,1.119128E1,3.789089E1,-3.0618513E-3,3.8111755E1,-1.8597508E-2,1.1183508E1,-5.8983654E-2,3.502931E1,5.633613E-2,1.2434834E1,2.4993848E-2,3.9972536E-2,3.4238745E-2,-3.4471255E-2,3.9236125E-2,-1.908714E-2],"split_indices":[2,3,0,0,0,3,3,0,0,0,2,0,0,0,2,0,0,0,0,0,0],"split_type":[0,0,0,0,0,0,0,0,0,0,0,0,0,0,0,0,0,0,0,0,0],"sum_hessian":[1.6551375E2,1.0587011E2,5.9643642E1,8.481912E1,2.105099E1,7.5305E1,9.514123E0,1.3131787E0,1.973781E1,1.3117055E0,7.399329E1,2.2577944E0,7.2563286E0,1.5626632E1,4.111179E0,3.5870045E1,3.812325E1,3.6542256E0,3.6021032E0,2.8753633E0,1.2358154E0],"tree_param":{"num_deleted":"0","num_feature":"6","num_nodes":"21","size_leaf_vector":"1"}},{"base_weights":[2.5220951E-2,6.158329E-1,-5.656289E-2,6.841334E-1,2.5871852E-1,-1.9254122E-2,7.0368385E-1,9.465712E-2,7.3162246E-1,-1.5818754E-2,7.2023386E-1,4.2113015E-1,-7.0091033E-1,1.0769737E-2,4.3782663E-2,3.6802053E-2,-1.6481385E-3,-1.1723008E-2,3.0659929E-2,-4.6053756E-2,-1.0226608E-3],"categories":[],"categories_nodes":[],"categories_segments":[],"categories_sizes":[],"default_left":[0,0,0,0,0,0,0,0,0,0,0,0,0,0,0,0,0,0,0,0,0],"id":17,"left_children":[1,3,-1,5,7,-1,9,11,13,-1,15,17,19,-1,-1,-1,-1,-1,-1,-1,-1],"loss_changes":[1.1490385E2,2.5384445E0,0E0,2.211811E0,1.4422703E0,0E0,1.7731323E0,4.350294E0,1.7343712E-1,0E0,1.1002998E0,1.6163437E0,7.179501E-1,0E0,0E0,0E0,0E0,0E0,0E0,0E0,0E0],"parents":[2147483647,0,0,1,1,3,3,4,4,6,6,7,7,8,8,10,10,11,11,12,12],"right_children":[2,4,-1,6,8,-1,10,12,14,-1,16,18,20,-1,-1,-1,-1,-1,-1,-1,-1],"split_conditions":[1.8011234E1,8E0,-5.656289E-2,1.0847256E1,4.4815163E1,-1.9254122E-2,5.19911E0,2.7080275E1,1.3361266E1,-1.5818754E-2,1.9598701E1,1.8056263E1,1.5341967E1,1.0769737E-2,4.3782663E-2,3.6802053E-2,-1.6481385E-3,-1.1723008E-2,3.0659929E-2,-4.6053756E-2,-1.0226608E-3],"split_indices":[2,4,0,3,3,0,2,0,1,0,1,3,2,0,0,0,0,0,0,0,0],"split_type":[0,0,0,0,0,0,0,0,0,0,0,0,0,0,0,0,0,0,0,0,0],"sum_hessian":[1.6620665E2,1.10329185E2,5.587746E1,9.184709E1,1.848209E1,1.3135201E0,9.053358E1,1.4612747E1,3.8693419E0,1.1561807E0,8.9377396E1,1.0694679E1,3.918068E0,1.3884407E0,2.4809012E0,8.756251E1,1.8148848E0,2.3732648E0,8.321415E0,2.6930935E0,1.2249743E0],"tree_param":{"num_deleted":"0","num_feature":"6","num_nodes":"21","size_leaf_vector":"1"}},{"base_weights":[1.9129367E-3,5.8685035E-1,-5.958231E-2,1.289078E0,-5.6018323E-2,1.6897641E-3,1.3072265E0,1.1427428E0,1.4817097E0,6.765999E-2,-4.202729E-2,7.606288E-2,2.6742367E-2],"categories":[],"categories_nodes":[],"categories_segments":[],"categories_sizes":[],"default_left":[0,0,0,0,0,0,0,0,0,0,0,0,0],"id":18,"left_children":[1,3,-1,5,-1,-1,7,9,11,-1,-1,-1,-1],"loss_changes":[1.179029E2,1.3731326E2,0E0,1.7958069E0,0E0,0E0,5.909729E-1,2.00621E1,5.0631714E-1,0E0,0E0,0E0,0E0],"parents":[2147483647,0,0,1,1,3,3,6,6,7,7,8,8],"right_children":[2,4,-1,6,-1,-1,8,10,12,-1,-1,-1,-1],"split_conditions":[8E0,1.8011234E1,-5.958231E-2,1.1732276E1,-5.6018323E-2,1.6897641E-3,3.50104E1,2.5777586E1,3.894805E1,6.765999E-2,-4.202729E-2,7.606288E-2,2.6742367E-2],"split_indices":[5,2,0,3,0,0,3,0,0,0,0,0,0],"split_type":[0,0,0,0,0,0,0,0,0,0,0,0,0],"sum_hessian":[1.6687561E2,1.12332306E2,5.45433E1,7.976682E1,3.256548E1,1.1776017E0,7.8589226E1,4.433978E1,3.4249443E1,4.0373264E1,3.966515E0,3.2293983E1,1.9554585E0],"tree_param":{"num_deleted":"0","num_feature":"6","num_nodes":"13","size_leaf_vector":"1"}},{"base_weights":[-4.9186863E-2,4.917037E-1,-5.8933567E-2,1.1833068E0,-5.5601448E-2,1.2442092E0,5.7167417E-1,1.0966508E0,1.4835198E0,6.701997E-2,6.256729E-2,6.3531555E-2,-2.6402581E-2,7.713013E-2,3.4459606E-2,-1.50147155E-2,4.461733E-2],"categories":[],"categories_nodes":[],"categories_segments":[],"categories_sizes":[],"default_left":[0,0,0,0,0,0,0,0,0,0,0,0,0,0,0,0,0],"id":19,"left_children":[1,3,-1,5,-1,7,9,11,13,-1,15,-1,-1,-1,-1,-1,-1],"loss_changes":[9.872101E1,1.22579384E2,0E0,2.1522064E0,0E0,8.1181335E-1,3.3645728E0,1.383046E1,4.0031433E-2,0E0,2.1798422E0,0E0,0E0,0E0,0E0,0E0,0E0],"parents":[2147483647,0,0,1,1,3,3,5,5,6,6,7,7,8,8,10,10],"right_children":[2,4,-1,6,-1,8,10,12,14,-1,16,-1,-1,-1,-1,-1,-1],"split_conditions":[8E0,1.8011234E1,-5.8933567E-2,1.8558052E1,-5.5601448E-2,3.96021E1,9.115513E0,2.8626917E1,3.894805E1,6.701997E-2,4.272829E1,6.3531555E-2,-2.6402581E-2,7.713013E-2,3.4459606E-2,-1.50147155E-2,4.461733E-2],"split_indices":[5,2,0,1,0,3,2,0,0,0,3,0,0,0,0,0,0],"split_type":[0,0,0,0,0,0,0,0,0,0,0,0,0,0,0,0,0],"sum_hessian":[1.5964337E2,1.0833045E2,5.131291E1,7.587278E1,3.2457672E1,6.806144E1,7.811346E0,4.555493E1,2.2506506E1,2.4616048E0,5.3497415E0,4.1345413E1,4.2095165E0,2.0071543E1,2.434963E0,4.16604E0,1.1837014E0],"tree_param":{"num_deleted":"0","num_feature":"6","num_nodes":"17","size_leaf_vector":"1"}},{"base_weights":[8.456262E-4,5.283206E-1,-5.5312224E-2,5.764963E-1,1.7121506E-1,4.9149436E-1,8.075941E-1,5.6254417E-1,-2.2371678E-1,5.616796E-1,-2.201821E-1,1.0890684E-1,8.8541436E-1,-5.9006223E-3,7.089442E-1,-4.2326716E-1,2.0820152E-2,1.8696636E-2,3.5603125E-2,-4.5615397E-2,1.0668944E-2,2.2842368E-2,-1.6760623E-2,4.3191337E-3,4.603505E-2,4.150523E-2,6.461549E-3,-3.9090082E-2,3.5328267E-3],"categories":[],"categories_nodes":[],"categories_segments":[],"categories_sizes":[],"default_left":[0,0,0,0,0,0,0,0,0,0,0,0,0,0,0,0,0,0,0,0,0,0,0,0,0,0,0,0,0],"id":20,"left_children":[1,3,-1,5,7,9,11,13,15,17,19,21,23,-1,25,27,-1,-1,-1,-1,-1,-1,-1,-1,-1,-1,-1,-1,-1],"loss_changes":[9.414389E1,1.7797852E0,0E0,1.4847164E0,2.3516386E0,3.7492256E0,1.2195616E0,8.327558E-1,1.183247E0,1.6070805E0,2.3654683E0,7.041657E-1,5.305424E-1,0E0,3.3734345E-1,1.2073445E0,0E0,0E0,0E0,0E0,0E0,0E0,0E0,0E0,0E0,0E0,0E0,0E0,0E0],"parents":[2147483647,0,0,1,1,3,3,4,4,5,5,6,6,7,7,8,8,9,9,10,10,11,11,12,12,14,14,15,15],"right_children":[2,4,-1,6,8,10,12,14,16,18,20,22,24,-1,26,28,-1,-1,-1,-1,-1,-1,-1,-1,-1,-1,-1,-1,-1],"split_conditions":[1.8011234E1,1.8314783E1,-5.5312224E-2,1.5794516E1,6E0,1.4979467E1,6.8374186E0,1.8425613E1,3.9006104E1,1.1363514E1,3.452762E1,6.035702E0,1.4281061E1,-5.9006223E-3,1.5795177E1,1.9126133E1,2.0820152E-2,1.8696636E-2,3.5603125E-2,-4.5615397E-2,1.0668944E-2,2.2842368E-2,-1.6760623E-2,4.3191337E-3,4.603505E-2,4.150523E-2,6.461549E-3,-3.9090082E-2,3.5328267E-3],"split_indices":[2,1,0,1,4,1,2,1,3,2,3,2,3,0,2,1,0,0,0,0,0,0,0,0,0,0,0,0,0],"split_type":[0,0,0,0,0,0,0,0,0,0,0,0,0,0,0,0,0,0,0,0,0,0,0,0,0,0,0,0,0],"sum_hessian":[1.5921486E2,1.0819022E2,5.1024635E1,9.478834E1,1.3401889E1,7.158489E1,2.3203444E1,6.518472E0,6.8834167E0,6.535079E1,6.2341037E0,2.565878E0,2.0637566E1,1.1883234E0,5.3301487E0,5.5058093E0,1.3776072E0,3.0615334E1,3.473546E1,1.9757868E0,4.258317E0,1.4226551E0,1.1432229E0,1.0186771E0,1.9618889E1,4.051467E0,1.2786816E0,2.8524237E0,2.6533859E0],"tree_param":{"num_deleted":"0","num_feature":"6","num_nodes":"29","size_leaf_vector":"1"}},{"base_weights":[-2.9839097E-2,5.0770056E-1,-5.8479317E-2,1.1182737E0,-5.4681983E-2,9.9634767E-1,7.476744E-2,1.149746E0,-1.6996692E-1,3.901639E-2,6.519346E-2,-5.6963693E-2,1.0962837E-2],"categories":[],"categories_nodes":[],"categories_segments":[],"categories_sizes":[],"default_left":[0,0,0,0,0,0,0,0,0,0,0,0,0],"id":21,"left_children":[1,3,-1,5,-1,7,-1,9,11,-1,-1,-1,-1],"loss_changes":[9.738888E1,1.0687274E2,0E0,2.1294022E0,0E0,1.13745E1,0E0,2.133957E0,3.3186119E0,0E0,0E0,0E0,0E0],"parents":[2147483647,0,0,1,1,3,3,5,5,7,7,8,8],"right_children":[2,4,-1,6,-1,8,-1,10,12,-1,-1,-1,-1],"split_conditions":[8E0,1.8011234E1,-5.8479317E-2,4.4815163E1,-5.4681983E-2,3.0545742E1,7.476744E-2,2.2054853E1,3.6139927E1,3.901639E-2,6.519346E-2,-5.6963693E-2,1.0962837E-2],"split_indices":[5,2,0,3,0,0,0,3,3,0,0,0,0],"split_type":[0,0,0,0,0,0,0,0,0,0,0,0,0],"sum_hessian":[1.569917E2,1.0705557E2,4.9936134E1,7.772251E1,2.9333063E1,6.1484116E1,1.6238392E1,5.4349995E1,7.1341214E0,1.7784733E1,3.656526E1,1.4918461E0,5.6422753E0],"tree_param":{"num_deleted":"0","num_feature":"6","num_nodes":"13","size_leaf_vector":"1"}},{"base_weights":[8.88913E-3,5.3593236E-1,-5.7949364E-2,2.479059E-1,6.307042E-1,4.509093E-1,-7.853782E-1,8.749477E-1,4.58651E-1,-2.310266E-2,5.326303E-1,3.5042537E-3,-5.6248475E-2,9.1470325E-1,3.0027123E-3,-5.8621567E-2,5.991154E-1,3.147182E-2,-3.2393243E-3,5.4389346E-2,3.5043158E-2,1.8052997E-2,4.120567E-2],"categories":[],"categories_nodes":[],"categories_segments":[],"categories_sizes":[],"default_left":[0,0,0,0,0,0,0,0,0,0,0,0,0,0,0,0,0,0,0,0,0,0,0],"id":22,"left_children":[1,3,-1,5,7,9,11,13,15,-1,17,-1,-1,19,-1,-1,21,-1,-1,-1,-1,-1,-1],"loss_changes":[9.403429E1,2.716774E0,0E0,6.165817E0,2.8995476E0,2.0211902E0,1.5064619E0,9.61092E-1,1.1742437E1,0E0,1.3305779E0,0E0,0E0,3.4179306E-1,0E0,0E0,2.1142292E0,0E0,0E0,0E0,0E0,0E0,0E0],"parents":[2147483647,0,0,1,1,3,3,4,4,5,5,6,6,7,7,8,8,10,10,13,13,16,16],"right_children":[2,4,-1,6,8,10,12,14,16,-1,18,-1,-1,20,-1,-1,22,-1,-1,-1,-1,-1,-1],"split_conditions":[8E0,2.2371555E1,-5.7949364E-2,1.5373333E1,2.55351E1,1.119128E1,1.1971904E1,1.9284765E1,3.3771046E1,-2.310266E-2,1.8685635E1,3.5042537E-3,-5.6248475E-2,2.0010557E1,3.0027123E-3,-5.8621567E-2,4.4815163E1,3.147182E-2,-3.2393243E-3,5.4389346E-2,3.5043158E-2,1.8052997E-2,4.120567E-2],"split_indices":[5,3,0,0,0,3,1,1,3,0,1,0,0,0,0,0,3,0,0,0,0,0,0],"split_type":[0,0,0,0,0,0,0,0,0,0,0,0,0,0,0,0,0,0,0,0,0,0,0],"sum_hessian":[1.5076265E2,1.0425514E2,4.6507507E1,2.6706316E1,7.754882E1,2.2792099E1,3.9142172E0,3.0362076E1,4.718675E1,1.4901853E0,2.1301914E1,1.3377967E0,2.5764205E0,2.8832943E1,1.5291314E0,3.1588726E0,4.4027878E1,1.8285343E1,3.0165713E0,1.3676322E1,1.5156622E1,2.2658815E1,2.136906E1],"tree_param":{"num_deleted":"0","num_feature":"6","num_nodes":"23","size_leaf_vector":"1"}},{"base_weights":[-8.313358E-3,4.8767895E-1,-5.7370245E-2,1.0642666E0,-5.442661E-2,5.6002248E-2,6.5035915E-1,1.09402E0,9.885469E-2,2.2963725E-2,6.3025944E-2,4.169434E-2,-1.7666267E-2],"categories":[],"categories_nodes":[],"categories_segments":[],"categories_sizes":[],"default_left":[0,0,0,0,0,0,0,0,0,0,0,0,0],"id":23,"left_children":[1,3,-1,5,-1,-1,7,9,11,-1,-1,-1,-1],"loss_changes":[8.70176E1,9.868426E1,0E0,1.097168E0,0E0,0E0,2.773046E0,1.0024071E-1,2.4048176E0,0E0,0E0,0E0,0E0],"parents":[2147483647,0,0,1,1,3,3,6,6,7,7,8,8],"right_children":[2,4,-1,6,-1,-1,8,10,12,-1,-1,-1,-1],"split_conditions":[8E0,1.8011234E1,-5.7370245E-2,1.8283401E1,-5.442661E-2,5.6002248E-2,6E0,4E0,8.187142E0,2.2963725E-2,6.3025944E-2,4.169434E-2,-1.7666267E-2],"split_indices":[5,2,0,1,0,0,4,4,2,0,0,0,0],"split_type":[0,0,0,0,0,0,0,0,0,0,0,0,0],"sum_hessian":[1.520283E2,1.0630988E2,4.5718422E1,7.807454E1,2.8235344E1,6.7299225E1,1.0775313E1,5.4263525E0,5.348961E0,1.9085997E0,3.517753E0,1.715773E0,3.633188E0],"tree_param":{"num_deleted":"0","num_feature":"6","num_nodes":"13","size_leaf_vector":"1"}},{"base_weights":[-1.727287E-2,4.7025242E-1,-5.6901064E-2,1.026656E0,-5.3993493E-2,1.0875746E0,4.9111703E-1,9.1130495E-1,6.221479E-2,9.454877E-1,-3.773948E-2,4.7977813E-2,-7.29672E-3,1.6800074E-2,5.681495E-2,3.1753726E-2,-1.950319E-2],"categories":[],"categories_nodes":[],"categories_segments":[],"categories_sizes":[],"default_left":[0,0,0,0,0,0,0,0,0,0,0,0,0,0,0,0,0],"id":24,"left_children":[1,3,-1,5,-1,7,9,11,-1,13,15,-1,-1,-1,-1,-1,-1],"loss_changes":[8.069671E1,8.989792E1,0E0,1.9540024E0,0E0,7.3501587E-1,2.3455987E0,1.9549599E0,0E0,2.2397804E-1,1.528703E0,0E0,0E0,0E0,0E0,0E0,0E0],"parents":[2147483647,0,0,1,1,3,3,5,5,6,6,7,7,9,9,10,10],"right_children":[2,4,-1,6,-1,8,10,12,-1,14,16,-1,-1,-1,-1,-1,-1],"split_conditions":[8E0,1.8011234E1,-5.6901064E-2,1.8314783E1,-5.3993493E-2,1.1648448E1,6E0,1.1543777E1,6.221479E-2,4E0,8.187142E0,4.7977813E-2,-7.29672E-3,1.6800074E-2,5.681495E-2,3.1753726E-2,-1.950319E-2],"split_indices":[5,2,0,1,0,2,4,2,0,4,2,0,0,0,0,0,0],"split_type":[0,0,0,0,0,0,0,0,0,0,0,0,0,0,0,0,0],"sum_hessian":[1.4571039E2,1.01944824E2,4.376556E1,7.52663E1,2.6678526E1,6.6653534E1,8.612762E0,3.4577667E1,3.2075867E1,4.208879E0,4.403883E0,3.3156822E1,1.4208477E0,1.6617756E0,2.5471036E0,1.2377304E0,3.1661525E0],"tree_param":{"num_deleted":"0","num_feature":"6","num_nodes":"17","size_leaf_vector":"1"}},{"base_weights":[-3.3815857E-3,4.6492276E-1,-5.632178E-2,1.0435292E0,-5.2995812E-2,9.310527E-1,6.954088E-2,1.0496626E0,-7.595655E-1,5.6572057E-2,2.3515305E-2,-5.3156423E-3,-6.1345678E-2],"categories":[],"categories_nodes":[],"categories_segments":[],"categories_sizes":[],"default_left":[0,0,0,0,0,0,0,0,0,0,0,0,0],"id":25,"left_children":[1,3,-1,5,-1,7,-1,9,11,-1,-1,-1,-1],"loss_changes":[7.532549E1,9.02876E1,0E0,1.5870361E0,0E0,1.2579147E1,0E0,2.089035E0,1.2226591E0,0E0,0E0,0E0,0E0],"parents":[2147483647,0,0,1,1,3,3,5,5,7,7,8,8],"right_children":[2,4,-1,6,-1,8,-1,10,12,-1,-1,-1,-1],"split_conditions":[8E0,1.7869606E1,-5.632178E-2,4.315208E1,-5.2995812E-2,3.1962442E1,6.954088E-2,2.7971249E1,3.4735367E1,5.6572057E-2,2.3515305E-2,-5.3156423E-3,-6.1345678E-2],"split_indices":[5,2,0,3,0,0,0,0,0,0,0,0,0],"split_type":[0,0,0,0,0,0,0,0,0,0,0,0,0],"sum_hessian":[1.4122734E2,1.0008058E2,4.1146763E1,7.277968E1,2.7300901E1,5.775535E1,1.5024334E1,5.4323277E1,3.432073E0,4.6768753E1,7.55452E0,1.9432737E0,1.4887993E0],"tree_param":{"num_deleted":"0","num_feature":"6","num_nodes":"13","size_leaf_vector":"1"}},{"base_weights":[1.3522243E-2,4.8018342E-1,-5.58589E-2,1.0136627E0,-5.3243514E-2,1.1523952E0,7.82376E-1,1.177189E0,7.340399E-3,-2.349194E-2,8.9111835E-1,6.0782976E-2,3.0992527E-2,4.8996925E-2,2.7449375E-3],"categories":[],"categories_nodes":[],"categories_segments":[],"categories_sizes":[],"default_left":[0,0,0,0,0,0,0,0,0,0,0,0,0,0,0],"id":26,"left_children":[1,3,-1,5,-1,7,9,11,-1,-1,13,-1,-1,-1,-1],"loss_changes":[7.2934814E1,8.171024E1,0E0,1.4480515E0,0E0,9.156685E-1,4.581358E0,1.5696335E-1,0E0,0E0,2.0609512E0,0E0,0E0,0E0,0E0],"parents":[2147483647,0,0,1,1,3,3,5,5,6,6,7,7,10,10],"right_children":[2,4,-1,6,-1,8,10,12,-1,-1,14,-1,-1,-1,-1],"split_conditions":[8E0,1.8011234E1,-5.58589E-2,2.5777586E1,-5.3243514E-2,1.9681868E1,2.6313358E1,1.6159216E1,7.340399E-3,-2.349194E-2,1.8314783E1,6.0782976E-2,3.0992527E-2,4.8996925E-2,2.7449375E-3],"split_indices":[5,2,0,0,0,1,0,2,0,0,1,0,0,0,0],"split_type":[0,0,0,0,0,0,0,0,0,0,0,0,0,0,0],"sum_hessian":[1.3620805E2,9.682279E1,3.938526E1,7.2227776E1,2.459502E1,4.265781E1,2.9569967E1,4.1464806E1,1.1930027E0,2.0973558E0,2.747261E1,3.7682564E1,3.782243E0,2.467939E1,2.79322E0],"tree_param":{"num_deleted":"0","num_feature":"6","num_nodes":"15","size_leaf_vector":"1"}},{"base_weights":[-5.1396117E-3,4.5657244E-1,-5.5539656E-2,9.584066E-1,-5.2872058E-2,7.9290116E-1,1.1787047E0,9.01406E-1,2.3657937E-1,7.0806295E-1,1.2867442E0,4.6461333E-2,1.1706791E-3,-3.1668765E-3,3.2560676E-2,4.2821415E-2,-3.967665E-3,6.7123756E-2,1.706699E-2],"categories":[],"categories_nodes":[],"categories_segments":[],"categories_sizes":[],"default_left":[0,0,0,0,0,0,0,0,0,0,0,0,0,0,0,0,0,0,0],"id":27,"left_children":[1,3,-1,5,-1,7,9,11,13,15,17,-1,-1,-1,-1,-1,-1,-1,-1],"loss_changes":[6.973105E1,7.423019E1,0E0,1.7233887E0,0E0,2.4839096E0,5.7458496E-1,8.828411E-1,1.1167123E0,9.650152E-1,7.2932816E-1,0E0,0E0,0E0,0E0,0E0,0E0,0E0,0E0],"parents":[2147483647,0,0,1,1,3,3,5,5,6,6,7,7,8,8,9,9,10,10],"right_children":[2,4,-1,6,-1,8,10,12,14,16,18,-1,-1,-1,-1,-1,-1,-1,-1],"split_conditions":[8E0,1.8011234E1,-5.5539656E-2,3.6139927E1,-5.2872058E-2,8E0,8.139139E0,1.7436623E1,1.4181943E1,7.4204683E0,1.8803747E1,4.6461333E-2,1.1706791E-3,-3.1668765E-3,3.2560676E-2,4.2821415E-2,-3.967665E-3,6.7123756E-2,1.706699E-2],"split_indices":[5,2,0,3,0,4,2,2,2,2,1,0,0,0,0,0,0,0,0],"split_type":[0,0,0,0,0,0,0,0,0,0,0,0,0,0,0,0,0,0,0],"sum_hessian":[1.346019E2,9.5365204E1,3.9236687E1,7.190018E1,2.3465023E1,4.3681995E1,2.8218184E1,3.60337E1,7.648299E0,6.6786003E0,2.1539583E1,3.487042E1,1.1632806E0,4.9297285E0,2.718571E0,5.5459805E0,1.1326196E0,1.9943907E1,1.5956771E0],"tree_param":{"num_deleted":"0","num_feature":"6","num_nodes":"19","size_leaf_vector":"1"}},{"base_weights":[1.23648625E-2,4.554893E-1,-5.5039216E-2,9.4133914E-1,-5.2470613E-2,8.2297224E-1,6.533553E-2,9.9451995E-1,-3.0587813E-1,-3.8452651E-3,5.118109E-2,-5.9956957E-2,3.7191962E-3],"categories":[],"categories_nodes":[],"categories_segments":[],"categories_sizes":[],"default_left":[0,0,0,0,0,0,0,0,0,0,0,0,0],"id":28,"left_children":[1,3,-1,5,-1,7,-1,9,11,-1,-1,-1,-1],"loss_changes":[6.3750813E1,6.85637E1,0E0,1.9690094E0,0E0,1.1123631E1,0E0,1.5983124E0,2.8525038E0,0E0,0E0,0E0,0E0],"parents":[2147483647,0,0,1,1,3,3,5,5,7,7,8,8],"right_children":[2,4,-1,6,-1,8,-1,10,12,-1,-1,-1,-1],"split_conditions":[8E0,1.8011234E1,-5.5039216E-2,4.4815163E1,-5.2470613E-2,3.0545742E1,6.533553E-2,1.119128E1,3.6139927E1,-3.8452651E-3,5.118109E-2,-5.9956957E-2,3.7191962E-3],"split_indices":[5,2,0,3,0,0,0,3,3,0,0,0,0],"split_type":[0,0,0,0,0,0,0,0,0,0,0,0,0],"sum_hessian":[1.272264E2,9.142327E1,3.580313E1,6.939419E1,2.2029078E1,5.4870567E1,1.4523623E1,4.7735374E1,7.1351914E0,1.2188586E0,4.6516518E1,1.4874997E0,5.6476917E0],"tree_param":{"num_deleted":"0","num_feature":"6","num_nodes":"13","size_leaf_vector":"1"}},{"base_weights":[1.62191E-2,4.490997E-1,-5.465448E-2,3.7851202E-1,7.025485E-1,4.7951037E-1,-8.212987E-1,-3.6749989E-3,7.523123E-1,3.6725435E-1,7.785155E-1,-6.336378E-2,-2.1349643E-1,2.9172876E-1,8.235952E-1,2.5945568E-2,-4.515535E-2,4.3607187E-2,1.1808625E-2,2.0759527E-2,-3.719411E-2,2.246601E-2,-4.065777E-3,4.36791E-2,5.703743E-3],"categories":[],"categories_nodes":[],"categories_segments":[],"categories_sizes":[],"default_left":[0,0,0,0,0,0,0,0,0,0,0,0,0,0,0,0,0,0,0,0,0,0,0,0,0],"id":29,"left_children":[1,3,-1,5,7,9,11,-1,13,15,17,-1,19,21,23,-1,-1,-1,-1,-1,-1,-1,-1,-1,-1],"loss_changes":[6.1187595E1,1.3733482E0,0E0,9.341255E0,7.8103065E-1,2.0211897E0,1.3833475E0,0E0,3.4245586E-1,1.0461185E1,7.013664E-1,0E0,1.5708998E0,2.6741472E-1,4.260149E-1,0E0,0E0,0E0,0E0,0E0,0E0,0E0,0E0,0E0,0E0],"parents":[2147483647,0,0,1,1,3,3,4,4,5,5,6,6,8,8,9,9,10,10,12,12,13,13,14,14],"right_children":[2,4,-1,6,8,10,12,-1,14,16,18,-1,20,22,24,-1,-1,-1,-1,-1,-1,-1,-1,-1,-1],"split_conditions":[8E0,4.4815163E1,-5.465448E-2,3.1962442E1,9.270009E0,3.50104E1,4.0837296E1,-3.6749989E-3,3E0,2.5777586E1,4.1238174E1,-6.336378E-2,3.572437E1,5.0262318E1,1.8700531E1,2.5945568E-2,-4.515535E-2,4.3607187E-2,1.1808625E-2,2.0759527E-2,-3.719411E-2,2.246601E-2,-4.065777E-3,4.36791E-2,5.703743E-3],"split_indices":[5,3,0,0,1,3,3,0,5,0,3,0,0,3,1,0,0,0,0,0,0,0,0,0,0],"split_type":[0,0,0,0,0,0,0,0,0,0,0,0,0,0,0,0,0,0,0,0,0,0,0,0,0],"sum_hessian":[1.2539924E2,9.062874E1,3.47705E1,7.283658E1,1.7792164E1,6.7735085E1,5.101496E0,1.0434204E0,1.6748745E1,5.086646E1,1.6868624E1,2.316641E0,2.7848551E0,2.927259E0,1.38214855E1,4.597003E1,4.896425E0,1.3866633E1,3.0019898E0,1.3737212E0,1.411134E0,1.9141593E0,1.0130997E0,1.2695817E1,1.1256679E0],"tree_param":{"num_deleted":"0","num_feature":"6","num_nodes":"25","size_leaf_vector":"1"}},{"base_weights":[1.1483341E-2,4.1988644E-1,-5.430019E-2,8.9249307E-1,-5.231529E-2,7.8929096E-1,6.302097E-2,8.9613736E-1,-4.844261E-1,3.839192E-2,6.550025E-2,-5.727441E-2,1.3307706E-3],"categories":[],"categories_nodes":[],"categories_segments":[],"categories_sizes":[],"default_left":[0,0,0,0,0,0,0,0,0,0,0,0,0],"id":30,"left_children":[1,3,-1,5,-1,7,-1,9,11,-1,-1,-1,-1],"loss_changes":[5.666343E1,6.476247E1,0E0,1.6706963E0,0E0,8.259068E0,0E0,1.8295174E0,1.7530949E0,0E0,0E0,0E0,0E0],"parents":[2147483647,0,0,1,1,3,3,5,5,7,7,8,8],"right_children":[2,4,-1,6,-1,8,-1,10,12,-1,-1,-1,-1],"split_conditions":[8E0,1.8011234E1,-5.430019E-2,4.4815163E1,-5.231529E-2,3.1962442E1,6.302097E-2,3.6139927E1,8.139139E0,3.839192E-2,6.550025E-2,-5.727441E-2,1.3307706E-3],"split_indices":[5,2,0,3,0,0,0,3,2,0,0,0,0],"split_type":[0,0,0,0,0,0,0,0,0,0,0,0,0],"sum_hessian":[1.2440223E2,9.1113846E1,3.3288387E1,6.919961E1,2.1914242E1,5.649749E1,1.2702115E1,5.2398457E1,4.0990334E0,4.217842E1,1.02200365E1,1.2459049E0,2.8531284E0],"tree_param":{"num_deleted":"0","num_feature":"6","num_nodes":"13","size_leaf_vector":"1"}},{"base_weights":[6.06905E-3,3.9903784E-1,-5.387426E-2,8.5362524E-1,-5.1224567E-2,7.4545133E-1,6.209124E-2,8.7320966E-1,-5.8578235E-1,3.619928E-2,6.462023E-2,-4.3913417E-2,7.990749E-3],"categories":[],"categories_nodes":[],"categories_segments":[],"categories_sizes":[],"default_left":[0,0,0,0,0,0,0,0,0,0,0,0,0],"id":31,"left_children":[1,3,-1,5,-1,7,-1,9,11,-1,-1,-1,-1],"loss_changes":[5.309748E1,6.0086006E1,0E0,2.0095406E0,0E0,1.02343445E1,0E0,2.3523483E0,1.3625587E0,0E0,0E0,0E0,0E0],"parents":[2147483647,0,0,1,1,3,3,5,5,7,7,8,8],"right_children":[2,4,-1,6,-1,8,-1,10,12,-1,-1,-1,-1],"split_conditions":[8E0,1.7869606E1,-5.387426E-2,4.4815163E1,-5.1224567E-2,3.1962442E1,6.209124E-2,3.575507E1,4.315208E1,3.619928E-2,6.462023E-2,-4.3913417E-2,7.990749E-3],"split_indices":[5,2,0,3,0,0,0,3,3,0,0,0,0],"split_type":[0,0,0,0,0,0,0,0,0,0,0,0,0],"sum_hessian":[1.2268988E2,9.050022E1,3.2189663E1,6.8898605E1,2.1601618E1,5.6167503E1,1.27311E1,5.156306E1,4.604441E0,4.0037636E1,1.1525425E1,3.1793096E0,1.4251317E0],"tree_param":{"num_deleted":"0","num_feature":"6","num_nodes":"13","size_leaf_vector":"1"}},{"base_weights":[-8.409517E-3,3.874435E-1,-5.3593446E-2,8.447851E-1,-5.1719602E-2,9.327451E-1,4.3730116E-1,9.5199347E-1,7.91736E-3,1.1432211E-1,8.0397433E-1,3.6129694E-2,5.2675765E-2,-1.4523252E-2,1.8534057E-2,2.027085E-2,5.0319564E-2],"categories":[],"categories_nodes":[],"categories_segments":[],"categories_sizes":[],"default_left":[0,0,0,0,0,0,0,0,0,0,0,0,0,0,0,0,0],"id":32,"left_children":[1,3,-1,5,-1,7,9,11,-1,13,15,-1,-1,-1,-1,-1,-1],"loss_changes":[4.9900467E1,5.7055016E1,0E0,1.9548683E0,0E0,6.442642E-1,1.5170622E0,4.4608307E-1,0E0,9.7822595E-1,9.19261E-2,0E0,0E0,0E0,0E0,0E0,0E0],"parents":[2147483647,0,0,1,1,3,3,5,5,6,6,7,7,9,9,10,10],"right_children":[2,4,-1,6,-1,8,10,12,-1,14,16,-1,-1,-1,-1,-1,-1],"split_conditions":[8E0,1.8011234E1,-5.3593446E-2,8E0,-5.1719602E-2,1.7436623E1,3.575507E1,4E0,7.91736E-3,1.0937662E1,1.1238655E1,3.6129694E-2,5.2675765E-2,-1.4523252E-2,1.8534057E-2,2.027085E-2,5.0319564E-2],"split_indices":[5,2,0,4,0,2,3,5,0,2,2,0,0,0,0,0,0],"split_type":[0,0,0,0,0,0,0,0,0,0,0,0,0,0,0,0,0],"sum_hessian":[1.16549355E2,8.539742E1,3.115193E1,6.492104E1,2.0476377E1,5.2334923E1,1.2586123E1,5.084187E1,1.4930531E0,7.3892155E0,5.196908E0,1.8087915E1,3.2753956E1,2.813578E0,4.575638E0,2.7618089E0,2.435099E0],"tree_param":{"num_deleted":"0","num_feature":"6","num_nodes":"17","size_leaf_vector":"1"}},{"base_weights":[-1.977696E-2,3.7541577E-1,-5.190847E-2,8.093454E-1,-5.3557254E-2,7.096192E-1,5.968948E-2,7.9328626E-1,2.744422E-1,4.06414E-2,4.501709E-3,-8.985485E-3,2.7597386E-2],"categories":[],"categories_nodes":[],"categories_segments":[],"categories_sizes":[],"default_left":[0,0,0,0,0,0,0,0,0,0,0,0,0],"id":33,"left_children":[1,3,-1,5,-1,7,-1,9,11,-1,-1,-1,-1],"loss_changes":[4.6782734E1,5.34567E1,0E0,1.6455956E0,0E0,1.7517586E0,0E0,5.4304314E-1,1.3911917E0,0E0,0E0,0E0,0E0],"parents":[2147483647,0,0,1,1,3,3,5,5,7,7,8,8],"right_children":[2,4,-1,6,-1,8,-1,10,12,-1,-1,-1,-1],"split_conditions":[1.8011234E1,8E0,-5.190847E-2,4.4815163E1,-5.3557254E-2,8E0,5.968948E-2,1.7436623E1,1.0937662E1,4.06414E-2,4.501709E-3,-8.985485E-3,2.7597386E-2],"split_indices":[2,5,0,3,0,4,0,2,2,0,0,0,0],"split_type":[0,0,0,0,0,0,0,0,0,0,0,0,0],"sum_hessian":[1.1427318E2,8.2780945E1,3.1492233E1,6.4017815E1,1.8763132E1,5.3091515E1,1.0926298E1,4.383995E1,9.251566E0,4.2503075E1,1.3368754E0,3.6426287E0,5.6089373E0],"tree_param":{"num_deleted":"0","num_feature":"6","num_nodes":"13","size_leaf_vector":"1"}},{"base_weights":[4.425885E-3,3.858913E-1,-5.294753E-2,7.95792E-1,-5.1042087E-2,8.2713455E-1,3.367335E-1,9.340886E-1,6.624822E-1,4.4255104E-2,-5.4677013E-2,3.7658922E-2,6.2094208E-2,-1.1113981E-2,3.7364285E-2,-3.4453418E-2,2.9368196E-2],"categories":[],"categories_nodes":[],"categories_segments":[],"categories_sizes":[],"default_left":[0,0,0,0,0,0,0,0,0,0,0,0,0,0,0,0,0],"id":34,"left_children":[1,3,-1,5,-1,7,9,11,13,-1,15,-1,-1,-1,-1,-1,-1],"loss_changes":[4.6183056E1,4.9124207E1,0E0,6.630554E-1,0E0,4.4787598E-1,1.3081322E0,9.7350883E-1,2.213809E0,0E0,2.1832373E0,0E0,0E0,0E0,0E0,0E0,0E0],"parents":[2147483647,0,0,1,1,3,3,5,5,6,6,7,7,8,8,10,10],"right_children":[2,4,-1,6,-1,8,10,12,14,-1,16,-1,-1,-1,-1,-1,-1],"split_conditions":[8E0,1.8011234E1,-5.294753E-2,1.8982006E1,-5.1042087E-2,2.5777586E1,8.781607E0,1.5794516E1,2.6313358E1,4.4255104E-2,6E0,3.7658922E-2,6.2094208E-2,-1.1113981E-2,3.7364285E-2,-3.4453418E-2,2.9368196E-2],"split_indices":[5,2,0,1,0,0,2,1,0,0,5,0,0,0,0,0,0],"split_type":[0,0,0,0,0,0,0,0,0,0,0,0,0,0,0,0,0],"sum_hessian":[1.1184457E2,8.278439E1,2.9060167E1,6.444144E1,1.834296E1,5.9572285E1,4.8691473E0,3.3280807E1,2.629148E1,1.5026339E0,3.3665133E0,2.3131832E1,1.0148975E1,2.1578038E0,2.4133675E1,1.6565014E0,1.7100118E0],"tree_param":{"num_deleted":"0","num_feature":"6","num_nodes":"17","size_leaf_vector":"1"}},{"base_weights":[2.0935644E-4,3.7032107E-1,-5.1444896E-2,7.6343465E-1,-5.2778956E-2,8.8406426E-1,5.8293104E-1,4.0758651E-1,9.6713656E-1,-4.4833833E-1,6.8376327E-1,4.7805812E-2,-1.9182597E-3,5.0091602E-2,8.720557E-4,-2.7072523E-2,-7.0485543E-3,3.7425097E-2,-2.3522365E-3],"categories":[],"categories_nodes":[],"categories_segments":[],"categories_sizes":[],"default_left":[0,0,0,0,0,0,0,0,0,0,0,0,0,0,0,0,0,0,0],"id":35,"left_children":[1,3,-1,5,-1,7,9,11,13,15,17,-1,-1,-1,-1,-1,-1,-1,-1],"loss_changes":[4.3254616E1,4.7624523E1,0E0,9.229088E-1,0E0,1.0963802E0,3.3633003E0,1.827085E0,1.0151367E0,1.5888453E-2,1.3208475E0,0E0,0E0,0E0,0E0,0E0,0E0,0E0,0E0],"parents":[2147483647,0,0,1,1,3,3,5,5,6,6,7,7,8,8,9,9,10,10],"right_children":[2,4,-1,6,-1,8,10,12,14,16,18,-1,-1,-1,-1,-1,-1,-1,-1],"split_conditions":[1.8011234E1,8E0,-5.1444896E-2,2.5777586E1,-5.2778956E-2,3E0,2.6313358E1,9.881075E0,1.9598701E1,8.513824E0,1.8803747E1,4.7805812E-2,-1.9182597E-3,5.0091602E-2,8.720557E-4,-2.7072523E-2,-7.0485543E-3,3.7425097E-2,-2.3522365E-3],"split_indices":[2,5,0,0,0,5,0,2,1,2,1,0,0,0,0,0,0,0,0],"split_type":[0,0,0,0,0,0,0,0,0,0,0,0,0,0,0,0,0,0,0],"sum_hessian":[1.115632E2,8.25241E1,2.9039104E1,6.505371E1,1.747039E1,3.6657757E1,2.8395954E1,6.319189E0,3.0338568E1,2.2221687E0,2.6173786E1,2.3206956E0,3.9984937E0,2.9216303E1,1.1222632E0,1.1210033E0,1.1011654E0,2.4021616E1,2.1521697E0],"tree_param":{"num_deleted":"0","num_feature":"6","num_nodes":"19","size_leaf_vector":"1"}},{"base_weights":[-5.3935233E-3,3.5838118E-1,-5.2398033E-2,7.4025315E-1,-5.042815E-2,8.381443E-1,4.5913807E-1,3.5332984E-1,9.3110085E-1,-3.39254E-2,5.8937615E-1,3.6137693E-2,3.7395433E-3,4.901032E-2,7.6093064E-3,1.42164575E-2,4.5025233E-2],"categories":[],"categories_nodes":[],"categories_segments":[],"categories_sizes":[],"default_left":[0,0,0,0,0,0,0,0,0,0,0,0,0,0,0,0,0],"id":36,"left_children":[1,3,-1,5,-1,7,9,11,13,-1,15,-1,-1,-1,-1,-1,-1],"loss_changes":[4.032323E1,4.1895786E1,0E0,1.326664E0,0E0,1.6953449E0,3.107611E0,8.554071E-1,1.2691078E0,0E0,1.3510461E0,0E0,0E0,0E0,0E0,0E0,0E0],"parents":[2147483647,0,0,1,1,3,3,5,5,6,6,7,7,8,8,10,10],"right_children":[2,4,-1,6,-1,8,10,12,14,-1,16,-1,-1,-1,-1,-1,-1],"split_conditions":[8E0,1.8011234E1,-5.2398033E-2,3.0545742E1,-5.042815E-2,3E0,3.0870262E1,9.881075E0,1.71803E1,-3.39254E-2,1.1648448E1,3.6137693E-2,3.7395433E-3,4.901032E-2,7.6093064E-3,1.42164575E-2,4.5025233E-2],"split_indices":[5,2,0,0,0,5,0,2,2,0,2,0,0,0,0,0,0],"split_type":[0,0,0,0,0,0,0,0,0,0,0,0,0,0,0,0,0],"sum_hessian":[1.0433068E2,7.783024E1,2.650044E1,6.119356E1,1.6636683E1,4.391854E1,1.7275019E1,7.838403E0,3.608014E1,1.3420748E0,1.5932943E1,2.6839283E0,5.154475E0,3.3697315E1,2.3828251E0,9.0114765E0,6.921468E0],"tree_param":{"num_deleted":"0","num_feature":"6","num_nodes":"17","size_leaf_vector":"1"}},{"base_weights":[-1.2809855E-2,3.59369E-1,-5.0977975E-2,7.2575706E-1,-5.1729392E-2,8.187693E-1,3.0815792E-1,5.092516E-1,9.043669E-1,4.7635573E-1,-2.0704078E-2,-7.702092E-3,3.3959158E-2,4.6552014E-2,1.0855691E-2,-3.2977627E-3,3.0139048E-2],"categories":[],"categories_nodes":[],"categories_segments":[],"categories_sizes":[],"default_left":[0,0,0,0,0,0,0,0,0,0,0,0,0,0,0,0,0],"id":37,"left_children":[1,3,-1,5,-1,7,9,11,13,15,-1,-1,-1,-1,-1,-1,-1],"loss_changes":[3.816874E1,3.874823E1,0E0,2.0588226E0,0E0,8.1272507E-1,1.7087119E0,1.5361362E0,4.643631E-1,7.6356006E-1,0E0,0E0,0E0,0E0,0E0,0E0,0E0],"parents":[2147483647,0,0,1,1,3,3,5,5,6,6,7,7,8,8,9,9],"right_children":[2,4,-1,6,-1,8,10,12,14,16,-1,-1,-1,-1,-1,-1,-1],"split_conditions":[1.8011234E1,8E0,-5.0977975E-2,8E0,-5.1729392E-2,2.1372713E1,1.8558052E1,3E0,1.7436623E1,1.0478972E1,-2.0704078E-2,-7.702092E-3,3.3959158E-2,4.6552014E-2,1.0855691E-2,-3.2977627E-3,3.0139048E-2],"split_indices":[2,5,0,4,0,3,1,5,2,1,0,0,0,0,0,0,0],"split_type":[0,0,0,0,0,0,0,0,0,0,0,0,0,0,0,0,0],"sum_hessian":[9.988938E1,7.339828E1,2.6491102E1,5.850117E1,1.489711E1,4.7059013E1,1.1442156E1,1.1700355E1,3.5358658E1,9.556946E0,1.8852109E0,2.4052913E0,9.295064E0,3.3696133E1,1.6625258E0,1.897174E0,7.6597714E0],"tree_param":{"num_deleted":"0","num_feature":"6","num_nodes":"17","size_leaf_vector":"1"}},{"base_weights":[-4.399449E-2,2.841546E-1,-5.067885E-2,1.7898907E-1,7.2306573E-1,3.0641842E-1,-6.349318E-1,7.11802E-3,7.728936E-1,1.308134E-1,7.2104234E-1,9.041987E-3,-7.9850817E-1,6.6056773E-3,4.1284326E-2,1.3700257E-2,-7.450473E-2,4.0167894E-2,1.2798242E-2,2.3614187E-3,-4.8511162E-2],"categories":[],"categories_nodes":[],"categories_segments":[],"categories_sizes":[],"default_left":[0,0,0,0,0,0,0,0,0,0,0,0,0,0,0,0,0,0,0,0,0],"id":38,"left_children":[1,3,-1,5,7,9,11,-1,13,15,17,-1,19,-1,-1,-1,-1,-1,-1,-1,-1],"loss_changes":[3.1997766E1,3.3436885E0,0E0,6.627984E0,3.012848E-1,3.859716E0,1.3083022E0,0E0,3.2614946E-1,9.546249E0,4.0443134E-1,0E0,1.127759E0,0E0,0E0,0E0,0E0,0E0,0E0,0E0,0E0],"parents":[2147483647,0,0,1,1,3,3,4,4,5,5,6,6,8,8,9,9,10,10,12,12],"right_children":[2,4,-1,6,8,10,12,-1,14,16,18,-1,20,-1,-1,-1,-1,-1,-1,-1,-1],"split_conditions":[1.8011234E1,4.4815163E1,-5.067885E-2,3.0545742E1,2.9973715E1,3.2939323E1,6.9215517E0,7.11802E-3,9.802028E0,2.5777586E1,2.921751E1,9.041987E-3,1.0396037E1,6.6056773E-3,4.1284326E-2,1.3700257E-2,-7.450473E-2,4.0167894E-2,1.2798242E-2,2.3614187E-3,-4.8511162E-2],"split_indices":[2,3,0,0,0,3,2,0,1,0,0,0,1,0,0,0,0,0,0,0,0],"split_type":[0,0,0,0,0,0,0,0,0,0,0,0,0,0,0,0,0,0,0,0,0],"sum_hessian":[9.8663666E1,7.424339E1,2.4420277E1,6.102844E1,1.321495E1,5.330622E1,7.722218E0,1.3491143E0,1.1865835E1,3.837066E1,1.4935564E1,1.2721819E0,6.450036E0,1.169795E0,1.069604E1,3.6019623E1,2.351034E0,1.2071608E1,2.863957E0,1.2109226E0,5.2391133E0],"tree_param":{"num_deleted":"0","num_feature":"6","num_nodes":"21","size_leaf_vector":"1"}},{"base_weights":[2.5040068E-2,3.7653112E-1,-5.1758256E-2,7.3411E-1,-4.954122E-2,6.3004607E-1,5.638669E-2,6.641132E-1,-1.2764039E-2,3.57271E-2,9.98973E-3],"categories":[],"categories_nodes":[],"categories_segments":[],"categories_sizes":[],"default_left":[0,0,0,0,0,0,0,0,0,0,0],"id":39,"left_children":[1,3,-1,5,-1,7,-1,9,-1,-1,-1],"loss_changes":[3.5979477E1,3.6154808E1,0E0,1.665762E0,0E0,1.6217003E0,0E0,9.4935036E-1,0E0,0E0,0E0],"parents":[2147483647,0,0,1,1,3,3,5,5,7,7],"right_children":[2,4,-1,6,-1,8,-1,10,-1,-1,-1],"split_conditions":[8E0,1.8011234E1,-5.1758256E-2,4.4815163E1,-4.954122E-2,4.2974712E1,5.638669E-2,1.8685635E1,-1.2764039E-2,3.57271E-2,9.98973E-3],"split_indices":[5,2,0,3,0,3,0,1,0,0,0],"split_type":[0,0,0,0,0,0,0,0,0,0,0],"sum_hessian":[9.45037E1,7.1458E1,2.3045706E1,5.7011868E1,1.4446129E1,4.7147835E1,9.864036E0,4.564143E1,1.5064034E0,4.068392E1,4.957507E0],"tree_param":{"num_deleted":"0","num_feature":"6","num_nodes":"11","size_leaf_vector":"1"}},{"base_weights":[-8.044791E-3,3.1342626E-1,-5.0222464E-2,2.1290325E-1,6.657184E-1,2.8133875E-1,-5.4972358E-2,3.6850223E-1,7.7784187E-1,3.9775985E-1,-6.7952976E-2,4.863622E-1,-3.7720732E-3,1.0083435E-2,8.2774645E-1,3.1365578E-3,3.3531483E-2,-5.2700438E-2,3.2770775E-2,3.574847E-3,3.005354E-2,9.084439E-3,4.5438666E-2],"categories":[],"categories_nodes":[],"categories_segments":[],"categories_sizes":[],"default_left":[0,0,0,0,0,0,0,0,0,0,0,0,0,0,0,0,0,0,0,0,0,0,0],"id":40,"left_children":[1,3,-1,5,7,9,-1,11,13,15,17,19,-1,-1,21,-1,-1,-1,-1,-1,-1,-1,-1],"loss_changes":[3.0253422E1,2.387813E0,0E0,5.432355E0,2.261262E-1,2.2640595E0,0E0,3.5664117E-1,1.2842369E-1,3.7431612E0,1.1109056E1,1.933657E-1,0E0,0E0,3.1287527E-1,0E0,0E0,0E0,0E0,0E0,0E0,0E0,0E0],"parents":[2147483647,0,0,1,1,3,3,4,4,5,5,7,7,8,8,9,9,10,10,11,11,14,14],"right_children":[2,4,-1,6,8,10,-1,12,14,16,18,20,-1,-1,22,-1,-1,-1,-1,-1,-1,-1,-1],"split_conditions":[1.8011234E1,4.315208E1,-5.0222464E-2,3.415353E1,3.34544E1,2.5660069E1,-5.4972358E-2,3.252324E1,1.0315808E1,2.2054853E1,3.6139927E1,9.075478E0,-3.7720732E-3,1.0083435E-2,6.9584556E0,3.1365578E-3,3.3531483E-2,-5.2700438E-2,3.2770775E-2,3.574847E-3,3.005354E-2,9.084439E-3,4.5438666E-2],"split_indices":[2,3,0,0,0,0,0,0,1,3,3,2,0,0,2,0,0,0,0,0,0,0,0],"split_type":[0,0,0,0,0,0,0,0,0,0,0,0,0,0,0,0,0,0,0,0,0,0,0],"sum_hessian":[9.246607E1,7.042895E1,2.2037127E1,5.6042206E1,1.4386744E1,5.4011284E1,2.0309198E0,5.114867E0,9.271876E0,4.0405212E1,1.3606071E1,3.9663224E0,1.1485447E0,1.1408846E0,8.130992E0,1.8688913E1,2.1716301E1,5.564191E0,8.041881E0,1.2107408E0,2.7555816E0,1.2674513E0,6.8635406E0],"tree_param":{"num_deleted":"0","num_feature":"6","num_nodes":"23","size_leaf_vector":"1"}},{"base_weights":[1.3907881E-2,3.4999025E-1,-5.1461186E-2,6.9843453E-1,-4.9182948E-2,7.926292E-1,2.5483456E-1,3.40097E-3,8.106144E-1,6.1904904E-2,4.1042235E-2,2.5366617E-2,4.4523206E-2,-1.0659012E-2,2.6828784E-2],"categories":[],"categories_nodes":[],"categories_segments":[],"categories_sizes":[],"default_left":[0,0,0,0,0,0,0,0,0,0,0,0,0,0,0],"id":41,"left_children":[1,3,-1,5,-1,7,9,-1,11,13,-1,-1,-1,-1,-1],"loss_changes":[3.276905E1,3.3524635E1,0E0,2.1634731E0,0E0,5.472317E-1,1.1928873E0,0E0,6.3825226E-1,1.3647096E0,0E0,0E0,0E0,0E0,0E0],"parents":[2147483647,0,0,1,1,3,3,5,5,6,6,8,8,9,9],"right_children":[2,4,-1,6,-1,8,10,-1,12,14,-1,-1,-1,-1,-1],"split_conditions":[8E0,1.8011234E1,-5.1461186E-2,8E0,-4.9182948E-2,1.1732276E1,4.4815163E1,3.40097E-3,8.513824E0,1.4181943E1,4.1042235E-2,2.5366617E-2,4.4523206E-2,-1.0659012E-2,2.6828784E-2],"split_indices":[5,2,0,4,0,3,3,0,2,2,0,0,0,0,0],"split_type":[0,0,0,0,0,0,0,0,0,0,0,0,0,0,0],"sum_hessian":[9.144395E1,6.966375E1,2.1780201E1,5.5610596E1,1.4053154E1,4.52214E1,1.0389193E1,1.2110512E0,4.401035E1,8.57552E0,1.8136725E0,1.0704925E1,3.3305428E1,5.7779326E0,2.7975874E0],"tree_param":{"num_deleted":"0","num_feature":"6","num_nodes":"15","size_leaf_vector":"1"}},{"base_weights":[-1.7666554E-2,3.0837873E-1,-5.12396E-2,6.2473106E-1,-4.770841E-2,4.7939855E-1,1.0002744E0,7.1740425E-1,-8.4681076E-1,5.4722756E-2,7.7748816E-3,2.5435572E-2,5.7534624E-2,-7.978982E-2,-4.2202747E-3],"categories":[],"categories_nodes":[],"categories_segments":[],"categories_sizes":[],"default_left":[0,0,0,0,0,0,0,0,0,0,0,0,0,0,0],"id":42,"left_children":[1,3,-1,5,-1,7,9,11,13,-1,-1,-1,-1,-1,-1],"loss_changes":[3.023102E1,2.8391167E1,0E0,2.5905972E0,0E0,1.4015089E1,1.00531E0,2.7200832E0,3.8178387E0,0E0,0E0,0E0,0E0,0E0,0E0],"parents":[2147483647,0,0,1,1,3,3,5,5,6,6,7,7,8,8],"right_children":[2,4,-1,6,-1,8,10,12,14,-1,-1,-1,-1,-1,-1],"split_conditions":[8E0,1.7869606E1,-5.12396E-2,4.0837296E1,-4.770841E-2,2.7971249E1,3.8305153E1,3.0587955E1,3.5995117E1,5.4722756E-2,7.7748816E-3,2.5435572E-2,5.7534624E-2,-7.978982E-2,-4.2202747E-3],"split_indices":[5,2,0,3,0,0,0,3,3,0,0,0,0,0,0],"split_type":[0,0,0,0,0,0,0,0,0,0,0,0,0,0,0],"sum_hessian":[9.0101906E1,6.859037E1,2.1511541E1,5.5251385E1,1.3338982E1,4.1476738E1,1.3774649E1,3.5554985E1,5.9217525E0,1.2127093E1,1.6475554E0,2.5464235E1,1.0090749E1,2.4357593E0,3.4859931E0],"tree_param":{"num_deleted":"0","num_feature":"6","num_nodes":"15","size_leaf_vector":"1"}},{"base_weights":[-3.2873407E-2,2.7264112E-1,-5.100137E-2,5.593635E-1,-4.8538007E-2,6.3388675E-1,7.737592E-2,5.0982606E-1,9.547401E-1,5.95067E-1,-3.555784E-1,3.1061633E-2,-2.5655234E-2,5.3499628E-2,2.5264244E-3,1.1250725E-3,4.2608447E-2,2.4902212E-2,-4.012906E-2],"categories":[],"categories_nodes":[],"categories_segments":[],"categories_sizes":[],"default_left":[0,0,0,0,0,0,0,0,0,0,0,0,0,0,0,0,0,0,0],"id":43,"left_children":[1,3,-1,5,-1,7,9,11,13,15,17,-1,-1,-1,-1,-1,-1,-1,-1],"loss_changes":[2.7535704E1,2.543035E1,0E0,2.0113392E0,0E0,1.4852467E0,2.1885703E0,4.634796E0,1.2661266E0,6.2723434E-1,2.4713793E0,0E0,0E0,0E0,0E0,0E0,0E0,0E0,0E0],"parents":[2147483647,0,0,1,1,3,3,5,5,6,6,7,7,8,8,9,9,10,10],"right_children":[2,4,-1,6,-1,8,10,12,14,16,18,-1,-1,-1,-1,-1,-1,-1,-1],"split_conditions":[8E0,1.8011234E1,-5.100137E-2,1.8314783E1,-4.8538007E-2,1.5794516E1,6E0,1.4979467E1,1.6235846E1,4E0,8.187142E0,3.1061633E-2,-2.5655234E-2,5.3499628E-2,2.5264244E-3,1.1250725E-3,4.2608447E-2,2.4902212E-2,-4.012906E-2],"split_indices":[5,2,0,1,0,1,4,1,2,4,2,0,0,0,0,0,0,0,0],"split_type":[0,0,0,0,0,0,0,0,0,0,0,0,0,0,0,0,0,0,0],"sum_hessian":[8.937969E1,6.8808075E1,2.0571617E1,5.6361515E1,1.2446561E1,4.8541103E1,7.820413E0,3.6872864E1,1.16682415E1,3.3911371E0,4.429276E0,3.3605595E1,3.2672658E0,1.0186507E1,1.4817344E0,1.3878707E0,2.0032663E0,1.4830232E0,2.9462528E0],"tree_param":{"num_deleted":"0","num_feature":"6","num_nodes":"19","size_leaf_vector":"1"}},{"base_weights":[1.4772357E-2,3.3961853E-1,-5.0740737E-2,6.4685065E-1,-4.8241522E-2,5.26111E-1,5.435429E-2,6.5926254E-1,-6.698693E-1,2.60934E-2,5.5652123E-2,-6.40747E-4,-5.5138707E-2],"categories":[],"categories_nodes":[],"categories_segments":[],"categories_sizes":[],"default_left":[0,0,0,0,0,0,0,0,0,0,0,0,0],"id":44,"left_children":[1,3,-1,5,-1,7,-1,9,11,-1,-1,-1,-1],"loss_changes":[2.8647179E1,2.6704414E1,0E0,2.259531E0,0E0,7.4073505E0,0E0,1.9045162E0,1.3733847E0,0E0,0E0,0E0,0E0],"parents":[2147483647,0,0,1,1,3,3,5,5,7,7,8,8],"right_children":[2,4,-1,6,-1,8,-1,10,12,-1,-1,-1,-1],"split_conditions":[8E0,1.8011234E1,-5.0740737E-2,4.4815163E1,-4.8241522E-2,3.1962442E1,5.435429E-2,3.6139927E1,5E0,2.60934E-2,5.5652123E-2,-6.40747E-4,-5.5138707E-2],"split_indices":[5,2,0,3,0,0,0,3,5,0,0,0,0],"split_type":[0,0,0,0,0,0,0,0,0,0,0,0,0],"sum_hessian":[8.362221E1,6.4075745E1,1.9546467E1,5.226911E1,1.1806632E1,4.2741756E1,9.527355E0,3.8863724E1,3.8780305E0,3.1481781E1,7.3819427E0,1.9491903E0,1.9288404E0],"tree_param":{"num_deleted":"0","num_feature":"6","num_nodes":"13","size_leaf_vector":"1"}},{"base_weights":[1.677171E-2,3.18785E-1,-5.038921E-2,5.999562E-1,-4.7951724E-2,4.826806E-1,5.3575266E-2,5.9544694E-1,-5.51638E-2,3.7587125E-2,8.002243E-3],"categories":[],"categories_nodes":[],"categories_segments":[],"categories_sizes":[],"default_left":[0,0,0,0,0,0,0,0,0,0,0],"id":45,"left_children":[1,3,-1,5,-1,7,-1,9,-1,-1,-1],"loss_changes":[2.6366674E1,2.420524E1,0E0,2.4979572E0,0E0,8.791227E0,0E0,2.8135967E0,0E0,0E0,0E0],"parents":[2147483647,0,0,1,1,3,3,5,5,7,7],"right_children":[2,4,-1,6,-1,8,-1,10,-1,-1,-1],"split_conditions":[8E0,1.8011234E1,-5.038921E-2,4.4815163E1,-4.7951724E-2,3.572437E1,5.3575266E-2,2.5777586E1,-5.51638E-2,3.7587125E-2,8.002243E-3],"split_indices":[5,2,0,3,0,0,0,0,0,0,0],"split_type":[0,0,0,0,0,0,0,0,0,0,0],"sum_hessian":[8.317234E1,6.476894E1,1.8403397E1,5.352237E1,1.1246571E1,4.448294E1,9.03943E0,4.211312E1,2.3698213E0,3.0454407E1,1.1658713E1],"tree_param":{"num_deleted":"0","num_feature":"6","num_nodes":"11","size_leaf_vector":"1"}},{"base_weights":[-4.2239223E-3,2.8563485E-1,-5.0166696E-2,5.6443256E-1,-4.658529E-2,4.4493744E-1,8.9236236E-1,6.6226053E-1,2.0790996E-1,9.839618E-1,4.446549E-3,3.813522E-2,-6.064563E-3,-1.3951107E-2,2.2026662E-2,2.0340998E-2,5.504945E-2],"categories":[],"categories_nodes":[],"categories_segments":[],"categories_sizes":[],"default_left":[0,0,0,0,0,0,0,0,0,0,0,0,0,0,0,0,0],"id":46,"left_children":[1,3,-1,5,-1,7,9,11,13,15,-1,-1,-1,-1,-1,-1,-1],"loss_changes":[2.4209455E1,2.2521374E1,0E0,1.6937065E0,0E0,1.9794035E0,8.8799095E-1,1.7439594E0,2.5147762E0,3.4902954E-1,0E0,0E0,0E0,0E0,0E0,0E0,0E0],"parents":[2147483647,0,0,1,1,3,3,5,5,6,6,7,7,8,8,9,9],"right_children":[2,4,-1,6,-1,8,10,12,14,16,-1,-1,-1,-1,-1,-1,-1],"split_conditions":[8E0,1.7869606E1,-5.0166696E-2,1.4467584E1,-4.658529E-2,1.0044873E1,1.8685635E1,3.6696495E1,4E0,3E0,4.446549E-3,3.813522E-2,-6.064563E-3,-1.3951107E-2,2.2026662E-2,2.0340998E-2,5.504945E-2],"split_indices":[5,2,0,2,0,2,1,0,5,5,0,0,0,0,0,0,0],"split_type":[0,0,0,0,0,0,0,0,0,0,0,0,0,0,0,0,0],"sum_hessian":[8.160637E1,6.380854E1,1.7797829E1,5.235454E1,1.14539995E1,4.0099422E1,1.2255118E1,1.9983318E1,2.0116104E1,1.0799199E1,1.455919E0,1.77363E1,2.2470176E0,6.4388022E0,1.3677301E1,2.5752327E0,8.223967E0],"tree_param":{"num_deleted":"0","num_feature":"6","num_nodes":"17","size_leaf_vector":"1"}},{"base_weights":[3.3772387E-2,3.2163912E-1,-4.985225E-2,6.013681E-1,-4.6199795E-2,4.88953E-1,5.2652735E-2,7.075748E-1,2.8105342E-1,3.9874893E-2,-7.7439407E-3,2.1423025E-2,-1.8440148E-2],"categories":[],"categories_nodes":[],"categories_segments":[],"categories_sizes":[],"default_left":[0,0,0,0,0,0,0,0,0,0,0,0,0],"id":47,"left_children":[1,3,-1,5,-1,7,-1,9,11,-1,-1,-1,-1],"loss_changes":[2.4069979E1,2.2618624E1,0E0,2.1413803E0,0E0,1.7898531E0,0E0,1.7264519E0,2.4653325E0,0E0,0E0,0E0,0E0],"parents":[2147483647,0,0,1,1,3,3,5,5,7,7,8,8],"right_children":[2,4,-1,6,-1,8,-1,10,12,-1,-1,-1,-1],"split_conditions":[8E0,1.7869606E1,-4.985225E-2,4.4815163E1,-4.6199795E-2,6E0,5.2652735E-2,1.6159216E1,1.821787E1,3.9874893E-2,-7.7439407E-3,2.1423025E-2,-1.8440148E-2],"split_indices":[5,2,0,3,0,4,0,2,1,0,0,0,0],"split_type":[0,0,0,0,0,0,0,0,0,0,0,0,0],"sum_hessian":[7.9034546E1,6.2319214E1,1.671533E1,5.1313168E1,1.1006044E1,4.2754894E1,8.558274E0,1.9668531E1,2.3086363E1,1.787964E1,1.7888923E0,1.909559E1,3.990773E0],"tree_param":{"num_deleted":"0","num_feature":"6","num_nodes":"13","size_leaf_vector":"1"}},{"base_weights":[-1.8230755E-2,2.5519338E-1,-4.9627338E-2,5.0929964E-1,-4.5821883E-2,3.881889E-1,5.1843654E-2,5.238812E-1,-7.7527785E-1,1.5952503E-2,5.545103E-2,5.269396E-3,-5.9637565E-2],"categories":[],"categories_nodes":[],"categories_segments":[],"categories_sizes":[],"default_left":[0,0,0,0,0,0,0,0,0,0,0,0,0],"id":48,"left_children":[1,3,-1,5,-1,7,-1,9,11,-1,-1,-1,-1],"loss_changes":[2.1021584E1,1.8827232E1,0E0,2.8767033E0,0E0,7.248146E0,0E0,4.369481E0,1.9381597E0,0E0,0E0,0E0,0E0],"parents":[2147483647,0,0,1,1,3,3,5,5,7,7,8,8],"right_children":[2,4,-1,6,-1,8,-1,10,12,-1,-1,-1,-1],"split_conditions":[8E0,1.7869606E1,-4.9627338E-2,4.4815163E1,-4.5821883E-2,3.1962442E1,5.1843654E-2,3.50104E1,1.3602537E1,1.5952503E-2,5.545103E-2,5.269396E-3,-5.9637565E-2],"split_indices":[5,2,0,3,0,0,0,3,1,0,0,0,0],"split_type":[0,0,0,0,0,0,0,0,0,0,0,0,0],"sum_hessian":[7.695861E1,6.0670586E1,1.6288023E1,5.0321945E1,1.0348641E1,4.2338455E1,7.9834924E0,3.840867E1,3.9297853E0,2.9594288E1,8.814381E0,1.5042042E0,2.425581E0],"tree_param":{"num_deleted":"0","num_feature":"6","num_nodes":"13","size_leaf_vector":"1"}},{"base_weights":[-4.741501E-2,1.894065E-1,-4.835744E-2,9.083213E-2,3.247912E-2,1.9455421E-1,-8.154457E-1,3.979332E-2,5.6608015E-1,-3.5880078E-3,-5.657211E-2,9.362857E-3,-7.488551E-2,3.453429E-2,-4.0666535E-3],"categories":[],"categories_nodes":[],"categories_segments":[],"categories_sizes":[],"default_left":[0,0,0,0,0,0,0,0,0,0,0,0,0,0,0],"id":49,"left_children":[1,3,-1,5,-1,7,9,11,13,-1,-1,-1,-1,-1,-1],"loss_changes":[1.6841536E1,2.7378073E0,0E0,5.0411763E0,0E0,2.703697E0,1.2176023E0,8.113234E0,1.1748595E0,0E0,0E0,0E0,0E0,0E0,0E0],"parents":[2147483647,0,0,1,1,3,3,5,5,6,6,7,7,8,8],"right_children":[2,4,-1,6,-1,8,10,12,14,-1,-1,-1,-1,-1,-1],"split_conditions":[1.8011234E1,4.4815163E1,-4.835744E-2,3.1962442E1,3.247912E-2,3.3771046E1,1.3602537E1,2.5777586E1,3.0545742E1,-3.5880078E-3,-5.657211E-2,9.362857E-3,-7.488551E-2,3.453429E-2,-4.0666535E-3],"split_indices":[2,3,0,0,0,3,1,0,0,0,0,0,0,0,0],"split_type":[0,0,0,0,0,0,0,0,0,0,0,0,0,0,0],"sum_hessian":[7.548016E1,6.0655968E1,1.4824194E1,5.0941223E1,9.7147455E0,4.6414482E1,4.526739E0,3.3547302E1,1.2867179E1,1.7157885E0,2.8109505E0,3.1412682E1,2.1346214E0,1.0734336E1,2.1328437E0],"tree_param":{"num_deleted":"0","num_feature":"6","num_nodes":"15","size_leaf_vector":"1"}},{"base_weights":[1.7692028E-2,2.6270026E-1,-4.853817E-2,1.7948614E-1,3.187032E-2,2.5025558E-1,-5.9302616E-1,1.15293115E-1,6.2893444E-1,1.52100995E-2,-5.9255343E-2,1.546963E-2,-5.6765396E-2,8.752249E-3,3.9231926E-2],"categories":[],"categories_nodes":[],"categories_segments":[],"categories_sizes":[],"default_left":[0,0,0,0,0,0,0,0,0,0,0,0,0,0,0],"id":50,"left_children":[1,3,-1,5,-1,7,9,11,13,-1,-1,-1,-1,-1,-1],"loss_changes":[1.8544407E1,1.7971683E0,0E0,2.967064E0,0E0,2.3772633E0,2.8166792E0,9.226689E0,7.3690414E-1,0E0,0E0,0E0,0E0,0E0,0E0],"parents":[2147483647,0,0,1,1,3,3,5,5,6,6,7,7,8,8],"right_children":[2,4,-1,6,-1,8,10,12,14,-1,-1,-1,-1,-1,-1],"split_conditions":[1.7869606E1,4.4815163E1,-4.853817E-2,3.2868702E1,3.187032E-2,3.5158695E1,1.3602537E1,2.5777586E1,1.0872438E1,1.52100995E-2,-5.9255343E-2,1.546963E-2,-5.6765396E-2,8.752249E-3,3.9231926E-2],"split_indices":[2,3,0,0,0,3,1,0,1,0,0,0,0,0,0],"split_type":[0,0,0,0,0,0,0,0,0,0,0,0,0,0,0],"sum_hessian":[7.451989E1,6.030607E1,1.421382E1,5.0557377E1,9.748693E0,4.693384E1,3.6235347E0,3.5563385E1,1.1370456E1,1.6338476E0,1.9896872E0,3.1436836E1,4.1265483E0,3.4468474E0,7.923608E0],"tree_param":{"num_deleted":"0","num_feature":"6","num_nodes":"15","size_leaf_vector":"1"}},{"base_weights":[-3.754769E-2,1.8408674E-1,-4.7913123E-2,1.00512646E-1,5.8604383E-1,1.6998576E-1,-9.623219E-1,2.873918E-1,3.3307355E-2,8.8536866E-2,6.656603E-1,-9.935582E-3,-6.0896125E-2,3.02587E-3,1.7985685E-2,1.382942E-2,-2.9016906E-2,4.7107087E-3,3.9008696E-2],"categories":[],"categories_nodes":[],"categories_segments":[],"categories_sizes":[],"default_left":[0,0,0,0,0,0,0,0,0,0,0,0,0,0,0,0,0,0,0],"id":51,"left_children":[1,3,-1,5,7,9,11,13,-1,15,17,-1,-1,-1,-1,-1,-1,-1,-1],"loss_changes":[1.5244959E1,1.9686162E0,0E0,3.9421325E0,5.213499E-2,1.9145907E0,4.0009975E-1,4.242152E-2,0E0,5.5865293E0,3.6790776E-1,0E0,0E0,0E0,0E0,0E0,0E0,0E0,0E0],"parents":[2147483647,0,0,1,1,3,3,4,4,5,5,6,6,7,7,9,9,10,10],"right_children":[2,4,-1,6,8,10,12,14,-1,16,18,-1,-1,-1,-1,-1,-1,-1,-1],"split_conditions":[1.8011234E1,4.4815163E1,-4.7913123E-2,3.572437E1,3.34544E1,3.9474136E1,9.183033E0,1.0252944E1,3.3307355E-2,2.5777586E1,1.2478488E1,-9.935582E-3,-6.0896125E-2,3.02587E-3,1.7985685E-2,1.382942E-2,-2.9016906E-2,4.7107087E-3,3.9008696E-2],"split_indices":[2,3,0,0,0,3,2,2,0,0,1,0,0,0,0,0,0,0,0],"split_type":[0,0,0,0,0,0,0,0,0,0,0,0,0,0,0,0,0,0,0],"sum_hessian":[7.2842995E1,5.93551E1,1.3487897E1,5.0173237E1,9.181859E0,4.788336E1,2.2898746E0,2.9121485E0,6.2697105E0,4.213791E1,5.745453E0,1.0200101E0,1.2698643E0,1.1479131E0,1.7642355E0,3.334858E1,8.789332E0,1.2634269E0,4.4820256E0],"tree_param":{"num_deleted":"0","num_feature":"6","num_nodes":"19","size_leaf_vector":"1"}},{"base_weights":[-2.537949E-2,2.4291803E-1,-4.9462598E-2,4.6470425E-1,-4.622439E-2,2.536403E-1,8.0339473E-1,5.49853E-1,-1.0514541E0,5.0635435E-2,2.6506063E-1,7.732328E-3,4.5636807E-2,-7.4741654E-2,-2.2188485E-2,-4.3157656E-2,4.4826306E-2],"categories":[],"categories_nodes":[],"categories_segments":[],"categories_sizes":[],"default_left":[0,0,0,0,0,0,0,0,0,0,0,0,0,0,0,0,0],"id":52,"left_children":[1,3,-1,5,-1,7,9,11,13,-1,15,-1,-1,-1,-1,-1,-1],"loss_changes":[1.9196508E1,1.5483858E1,0E0,3.3366432E0,0E0,1.2938612E1,1.8221416E0,3.6902256E0,1.0227275E0,0E0,5.439311E0,0E0,0E0,0E0,0E0,0E0,0E0],"parents":[2147483647,0,0,1,1,3,3,5,5,6,6,7,7,8,8,10,10],"right_children":[2,4,-1,6,-1,8,10,12,14,-1,16,-1,-1,-1,-1,-1,-1],"split_conditions":[8E0,1.8011234E1,-4.9462598E-2,3.6139927E1,-4.622439E-2,2.5660069E1,3.572437E1,2.2054853E1,3.3771046E1,5.0635435E-2,4.4815163E1,7.732328E-3,4.5636807E-2,-7.4741654E-2,-2.2188485E-2,-4.3157656E-2,4.4826306E-2],"split_indices":[5,2,0,3,0,0,0,3,3,0,3,0,0,0,0,0,0],"split_type":[0,0,0,0,0,0,0,0,0,0,0,0,0,0,0,0,0],"sum_hessian":[7.230187E1,5.714369E1,1.5158184E1,4.8526463E1,8.617227E0,3.0973433E1,1.7553032E1,2.5715551E1,5.257881E0,1.2004339E1,5.548692E0,1.2992224E1,1.2723328E1,2.195856E0,3.0620253E0,1.8594978E0,3.6891942E0],"tree_param":{"num_deleted":"0","num_feature":"6","num_nodes":"17","size_leaf_vector":"1"}},{"base_weights":[-2.632295E-2,2.4702255E-1,-4.922789E-2,4.730279E-1,-4.5954783E-2,7.192104E-2,6.232365E-1,4.504528E-1,-7.242117E-2,5.4237913E-2,4.1871297E-1,1.4683862E-3,4.9881436E-2,-7.9178095E-2,3.181095E-2],"categories":[],"categories_nodes":[],"categories_segments":[],"categories_sizes":[],"default_left":[0,0,0,0,0,0,0,0,0,0,0,0,0,0,0],"id":53,"left_children":[1,3,-1,5,-1,7,9,11,-1,-1,13,-1,-1,-1,-1],"loss_changes":[1.8471876E1,1.4916024E1,0E0,2.7680483E0,0E0,8.623409E0,2.739686E0,2.701556E0,0E0,0E0,1.1927763E1,0E0,0E0,0E0,0E0],"parents":[2147483647,0,0,1,1,3,3,5,5,6,6,7,7,10,10],"right_children":[2,4,-1,6,-1,8,10,12,-1,-1,14,-1,-1,-1,-1],"split_conditions":[8E0,1.8011234E1,-4.922789E-2,2.2054853E1,-4.5954783E-2,1.5373333E1,2.1163324E1,1.6930214E1,-7.242117E-2,5.4237913E-2,2.9911446E1,1.4683862E-3,4.9881436E-2,-7.9178095E-2,3.181095E-2],"split_indices":[5,2,0,3,0,0,0,3,0,0,3,0,0,0,0],"split_type":[0,0,0,0,0,0,0,0,0,0,0,0,0,0,0],"sum_hessian":[6.859388E1,5.394716E1,1.4646723E1,4.568693E1,8.260227E0,1.2850533E1,3.28364E1,1.0852276E1,1.9982574E0,8.761535E0,2.4074863E1,6.7281933E0,4.124082E0,1.7435825E0,2.233128E1],"tree_param":{"num_deleted":"0","num_feature":"6","num_nodes":"15","size_leaf_vector":"1"}},{"base_weights":[-1.7492328E-2,2.5098544E-1,-4.9062606E-2,4.5124108E-1,-4.536606E-2,3.4532055E-1,4.8982028E-2,4.5784622E-1,-5.8295876E-2,2.8410275E-2,-3.4212195E-3],"categories":[],"categories_nodes":[],"categories_segments":[],"categories_sizes":[],"default_left":[0,0,0,0,0,0,0,0,0,0,0],"id":54,"left_children":[1,3,-1,5,-1,7,-1,9,-1,-1,-1],"loss_changes":[1.821192E1,1.3190583E1,0E0,2.3284397E0,0E0,7.545992E0,0E0,2.3095121E0,0E0,0E0,0E0],"parents":[2147483647,0,0,1,1,3,3,5,5,7,7],"right_children":[2,4,-1,6,-1,8,-1,10,-1,-1,-1],"split_conditions":[8E0,1.8011234E1,-4.9062606E-2,4.4815163E1,-4.536606E-2,3.502931E1,4.8982028E-2,2.8626917E1,-5.8295876E-2,2.8410275E-2,-3.4212195E-3],"split_indices":[5,2,0,3,0,0,0,0,0,0,0],"split_type":[0,0,0,0,0,0,0,0,0,0,0],"sum_hessian":[6.843294E1,5.410133E1,1.4331612E1,4.6647102E1,7.454225E0,4.0235252E1,6.411851E0,3.8095715E1,2.1395395E0,3.1425982E1,6.6697316E0],"tree_param":{"num_deleted":"0","num_feature":"6","num_nodes":"11","size_leaf_vector":"1"}},{"base_weights":[-2.8683791E-2,2.2749916E-1,-4.8772916E-2,-6.249368E-2,3.508965E-1,2.2118863E-1,-1.1522046E0,6.3957864E-1,1.5285896E-2,-1.1721282E-1,3.8785994E-2,5.043787E-3,-8.550709E-2,4.1462895E-2,4.3227813E-1,-6.607991E-2,3.0789772E-1,2.2719862E-2,-5.3120803E-2,-5.7206493E-2,3.676595E-2,3.8473416E-2,1.3657883E-3],"categories":[],"categories_nodes":[],"categories_segments":[],"categories_sizes":[],"default_left":[0,0,0,0,0,0,0,0,0,0,0,0,0,0,0,0,0,0,0,0,0,0,0],"id":55,"left_children":[1,3,-1,5,7,9,11,13,15,17,-1,-1,-1,-1,19,-1,21,-1,-1,-1,-1,-1,-1],"loss_changes":[1.6681997E1,1.9622269E0,0E0,5.520647E0,3.6900444E0,2.7846222E0,2.7450333E0,4.477892E-1,7.7155247E0,5.7685304E0,0E0,0E0,0E0,0E0,6.519531E0,0E0,2.0691414E0,0E0,0E0,0E0,0E0,0E0,0E0],"parents":[2147483647,0,0,1,1,3,3,4,4,5,5,6,6,7,7,8,8,9,9,14,14,16,16],"right_children":[2,4,-1,6,8,10,12,14,16,18,-1,-1,-1,-1,20,-1,22,-1,-1,-1,-1,-1,-1],"split_conditions":[8E0,2.2371555E1,-4.8772916E-2,1.5373333E1,2.7971249E1,1.6930214E1,1.1971904E1,2.0958994E1,3.575507E1,1.0934379E1,3.8785994E-2,5.043787E-3,-8.550709E-2,4.1462895E-2,2.9234152E1,-6.607991E-2,3.1962442E1,2.2719862E-2,-5.3120803E-2,-5.7206493E-2,3.676595E-2,3.8473416E-2,1.3657883E-3],"split_indices":[5,3,0,0,0,3,1,0,3,0,0,0,0,0,3,0,0,0,0,0,0,0,0],"split_type":[0,0,0,0,0,0,0,0,0,0,0,0,0,0,0,0,0,0,0,0,0,0,0],"sum_hessian":[6.6863335E1,5.322198E1,1.36413555E1,1.6034136E1,3.7187843E1,1.3354585E1,2.6795516E0,1.950474E1,1.7683105E1,8.783252E0,4.5713325E0,1.0778925E0,1.6016592E0,8.618537E0,1.0886202E1,2.5439155E0,1.513919E1,5.796867E0,2.9863853E0,1.307764E0,9.578438E0,5.0648575E0,1.0074332E1],"tree_param":{"num_deleted":"0","num_feature":"6","num_nodes":"23","size_leaf_vector":"1"}},{"base_weights":[-6.763327E-2,1.7151405E-1,-4.8516497E-2,3.6968076E-1,-4.5376953E-2,2.4795945E-1,4.856847E-2,3.4904608E-1,-6.3248165E-2,-3.3856758E-3,2.6602376E-2],"categories":[],"categories_nodes":[],"categories_segments":[],"categories_sizes":[],"default_left":[0,0,0,0,0,0,0,0,0,0,0],"id":56,"left_children":[1,3,-1,5,-1,7,-1,9,-1,-1,-1],"loss_changes":[1.4433089E1,1.1689026E1,0E0,3.0964632E0,0E0,6.4432793E0,0E0,2.901351E0,0E0,0E0,0E0],"parents":[2147483647,0,0,1,1,3,3,5,5,7,7],"right_children":[2,4,-1,6,-1,8,-1,10,-1,-1,-1],"split_conditions":[8E0,1.8011234E1,-4.8516497E-2,4.4815163E1,-4.5376953E-2,3.572437E1,4.856847E-2,2.1372713E1,-6.3248165E-2,-3.3856758E-3,2.6602376E-2],"split_indices":[5,2,0,3,0,0,0,3,0,0,0],"split_type":[0,0,0,0,0,0,0,0,0,0,0],"sum_hessian":[6.508686E1,5.2095444E1,1.2991412E1,4.4567993E1,7.5274525E0,3.8243465E1,6.3245287E0,3.6569355E1,1.6741081E0,1.1350409E1,2.5218948E1],"tree_param":{"num_deleted":"0","num_feature":"6","num_nodes":"11","size_leaf_vector":"1"}},{"base_weights":[2.340282E-2,2.6457778E-1,-4.8061255E-2,4.694063E-1,-4.508212E-2,3.5847503E-1,4.8657298E-2,7.6590884E-1,2.6447162E-1,-5.34711E-3,5.0220292E-2,-3.175459E-2,1.6641399E-2],"categories":[],"categories_nodes":[],"categories_segments":[],"categories_sizes":[],"default_left":[0,0,0,0,0,0,0,0,0,0,0,0,0],"id":57,"left_children":[1,3,-1,5,-1,7,-1,9,11,-1,-1,-1,-1],"loss_changes":[1.5568003E1,1.2984201E1,0E0,2.1873236E0,0E0,1.2826419E0,0E0,1.5109546E0,2.2427757E0,0E0,0E0,0E0,0E0],"parents":[2147483647,0,0,1,1,3,3,5,5,7,7,8,8],"right_children":[2,4,-1,6,-1,8,-1,10,12,-1,-1,-1,-1],"split_conditions":[8E0,1.8011234E1,-4.8061255E-2,4.4815163E1,-4.508212E-2,1.0284581E1,4.8657298E-2,1.8439562E1,1.0478972E1,-5.34711E-3,5.0220292E-2,-3.175459E-2,1.6641399E-2],"split_indices":[5,2,0,3,0,1,0,3,1,0,0,0,0],"split_type":[0,0,0,0,0,0,0,0,0,0,0,0,0],"sum_hessian":[6.3487473E1,5.1583813E1,1.1903658E1,4.438566E1,7.198156E0,3.777799E1,6.60767E0,5.7422023E0,3.2035786E1,1.35066E0,4.391542E0,1.6769094E0,3.0358875E1],"tree_param":{"num_deleted":"0","num_feature":"6","num_nodes":"13","size_leaf_vector":"1"}},{"base_weights":[-5.6710345E-5,2.2638476E-1,-4.777682E-2,3.922033E-1,1.041133E-2,-8.1655875E-2,6.138402E-1,-1.1100243E0,3.2912046E-1,2.990927E-1,-7.304881E-2,7.15084E-1,2.808027E-1,-7.1911424E-2,-3.8232738E-1,7.473619E-1,-2.9502915E-2,-2.2334533E-2,2.4737468E-2,1.2859622E-2,4.1589968E-2,-4.679503E-2,3.550703E-2,2.8775102E-2,-5.7592668E-2,3.9473828E-2,1.0952432E-2,-3.8677342E-2,2.7228523E-2],"categories":[],"categories_nodes":[],"categories_segments":[],"categories_sizes":[],"default_left":[0,0,0,0,0,0,0,0,0,0,0,0,0,0,0,0,0,0,0,0,0,0,0,0,0,0,0,0,0],"id":58,"left_children":[1,3,-1,5,7,9,11,13,15,17,-1,19,21,-1,23,25,27,-1,-1,-1,-1,-1,-1,-1,-1,-1,-1,-1,-1],"loss_changes":[1.3830402E1,1.8465717E0,0E0,3.1173916E0,8.746724E0,5.788256E0,4.740901E-1,7.461667E-1,2.8785737E0,1.507314E0,0E0,5.718298E-1,3.9622974E0,0E0,2.9100974E0,2.3520947E-2,5.2116175E0,0E0,0E0,0E0,0E0,0E0,0E0,0E0,0E0,0E0,0E0,0E0,0E0],"parents":[2147483647,0,0,1,1,3,3,4,4,5,5,6,6,7,7,8,8,9,9,11,11,12,12,14,14,15,15,16,16],"right_children":[2,4,-1,6,8,10,12,14,16,18,-1,20,22,-1,24,26,28,-1,-1,-1,-1,-1,-1,-1,-1,-1,-1,-1,-1],"split_conditions":[8E0,2.5777586E1,-4.777682E-2,1.8439562E1,3.50104E1,1.3566838E1,2.1716618E1,3.3771046E1,3.1962442E1,1.119128E1,-7.304881E-2,2.1372713E1,2.9911446E1,-7.1911424E-2,2.921751E1,1.7836124E1,4.4815163E1,-2.2334533E-2,2.4737468E-2,1.2859622E-2,4.1589968E-2,-4.679503E-2,3.550703E-2,2.8775102E-2,-5.7592668E-2,3.9473828E-2,1.0952432E-2,-3.8677342E-2,2.7228523E-2],"split_indices":[5,0,0,3,3,0,0,3,0,3,0,3,3,0,0,1,3,0,0,0,0,0,0,0,0,0,0,0,0],"split_type":[0,0,0,0,0,0,0,0,0,0,0,0,0,0,0,0,0,0,0,0,0,0,0,0,0,0,0,0,0],"sum_hessian":[6.1923225E1,5.0676373E1,1.1246851E1,2.8205204E1,2.247117E1,9.18955E0,1.9015654E1,4.4265537E0,1.8044617E1,7.815354E0,1.3741966E0,1.3702824E1,5.31283E0,2.37774E0,2.0488138E0,7.8295255E0,1.0215091E1,1.3575927E0,6.4577613E0,3.4340641E0,1.026876E1,1.0780026E0,4.234827E0,1.025058E0,1.0237559E0,6.793634E0,1.0358913E0,4.297598E0,5.917493E0],"tree_param":{"num_deleted":"0","num_feature":"6","num_nodes":"29","size_leaf_vector":"1"}},{"base_weights":[3.782649E-2,2.742124E-1,-4.7756888E-2,4.7394267E-1,-4.479937E-2,3.728583E-1,4.7787182E-2,4.748508E-1,-6.355117E-2,1.7856913E-2,3.6149167E-2,1.2190323E-2,-1.9987052E-2],"categories":[],"categories_nodes":[],"categories_segments":[],"categories_sizes":[],"default_left":[0,0,0,0,0,0,0,0,0,0,0,0,0],"id":59,"left_children":[1,3,-1,5,-1,7,-1,9,11,-1,-1,-1,-1],"loss_changes":[1.50602255E1,1.2508213E1,0E0,1.8263178E0,0E0,1.7520223E0,0E0,6.610961E-1,9.458131E-1,0E0,0E0,0E0,0E0],"parents":[2147483647,0,0,1,1,3,3,5,5,7,7,8,8],"right_children":[2,4,-1,6,-1,8,-1,10,12,-1,-1,-1,-1],"split_conditions":[8E0,1.8011234E1,-4.7756888E-2,4.4815163E1,-4.479937E-2,8E0,4.7787182E-2,1.4467584E1,6E0,1.7856913E-2,3.6149167E-2,1.2190323E-2,-1.9987052E-2],"split_indices":[5,2,0,3,0,4,0,2,5,0,0,0,0],"split_type":[0,0,0,0,0,0,0,0,0,0,0,0,0],"sum_hessian":[6.2045937E1,5.0700077E1,1.134586E1,4.3816452E1,6.8836246E0,3.768403E1,6.1324244E0,3.0473932E1,7.210097E0,2.2323229E1,8.1507015E0,3.9101155E0,3.2999816E0],"tree_param":{"num_deleted":"0","num_feature":"6","num_nodes":"13","size_leaf_vector":"1"}},{"base_weights":[-1.346195E-2,1.9621453E-1,-4.748371E-2,3.774238E-1,-4.4713773E-2,1.9059934E-1,6.998505E-1,4.5768997E-1,-9.697447E-1,5.1195025E-2,-3.6959525E-2,6.960557E-3,4.725049E-2,-7.104447E-2,-1.6929438E-2,-5.4261457E-2,4.101753E-2],"categories":[],"categories_nodes":[],"categories_segments":[],"categories_sizes":[],"default_left":[0,0,0,0,0,0,0,0,0,0,0,0,0,0,0,0,0],"id":60,"left_children":[1,3,-1,5,-1,7,9,11,13,-1,15,-1,-1,-1,-1,-1,-1],"loss_changes":[1.2698192E1,1.0791673E1,0E0,2.6416483E0,0E0,9.909345E0,3.9837599E0,3.8270993E0,1.2374487E0,0E0,6.294405E0,0E0,0E0,0E0,0E0,0E0,0E0],"parents":[2147483647,0,0,1,1,3,3,5,5,6,6,7,7,8,8,10,10],"right_children":[2,4,-1,6,-1,8,10,12,14,-1,16,-1,-1,-1,-1,-1,-1],"split_conditions":[8E0,1.8011234E1,-4.748371E-2,3.6139927E1,-4.4713773E-2,2.5777586E1,3.572437E1,2.5400951E1,3.3771046E1,5.1195025E-2,4.4815163E1,6.960557E-3,4.725049E-2,-7.104447E-2,-1.6929438E-2,-5.4261457E-2,4.101753E-2],"split_indices":[5,2,0,3,0,0,0,3,3,0,3,0,0,0,0,0,0],"split_type":[0,0,0,0,0,0,0,0,0,0,0,0,0,0,0,0,0],"sum_hessian":[6.2737877E1,5.1903786E1,1.0834088E1,4.506854E1,6.8352485E0,2.9542057E1,1.5526482E1,2.4506624E1,5.035434E0,1.0513146E1,5.013335E0,1.5598307E1,8.908317E0,2.2067902E0,2.8286433E0,2.1358664E0,2.877469E0],"tree_param":{"num_deleted":"0","num_feature":"6","num_nodes":"17","size_leaf_vector":"1"}},{"base_weights":[-1.7136903E-2,2.0283641E-1,-4.7455247E-2,3.7465176E-1,-4.4107974E-2,2.7828497E-1,4.6243157E-2,4.5152685E-1,-4.916808E-1,1.4534767E-2,4.9794488E-2,-4.7096528E-2,1.0328687E-2],"categories":[],"categories_nodes":[],"categories_segments":[],"categories_sizes":[],"default_left":[0,0,0,0,0,0,0,0,0,0,0,0,0],"id":61,"left_children":[1,3,-1,5,-1,7,-1,9,11,-1,-1,-1,-1],"loss_changes":[1.2803683E1,9.761898E0,0E0,2.0956402E0,0E0,5.450142E0,0E0,2.5573516E0,2.608344E0,0E0,0E0,0E0,0E0],"parents":[2147483647,0,0,1,1,3,3,5,5,7,7,8,8],"right_children":[2,4,-1,6,-1,8,-1,10,12,-1,-1,-1,-1],"split_conditions":[8E0,1.8011234E1,-4.7455247E-2,4.4815163E1,-4.4107974E-2,3.0545742E1,4.6243157E-2,3.452762E1,4.0837296E1,1.4534767E-2,4.9794488E-2,-4.7096528E-2,1.0328687E-2],"split_indices":[5,2,0,3,0,0,0,3,3,0,0,0,0],"split_type":[0,0,0,0,0,0,0,0,0,0,0,0,0],"sum_hessian":[6.051548E1,4.9592476E1,1.0923004E1,4.3378017E1,6.214461E0,3.819426E1,5.183756E0,3.1516615E1,6.6776457E0,2.551287E1,6.0037446E0,3.8476307E0,2.830015E0],"tree_param":{"num_deleted":"0","num_feature":"6","num_nodes":"13","size_leaf_vector":"1"}},{"base_weights":[-1.4767491E-2,1.8338144E-1,-4.6775706E-2,3.5376516E-1,-4.3919075E-2,2.5168625E-1,4.6023335E-2,5.0408375E-1,-2.3584013E-1,3.4192295E-3,4.3023143E-2,-5.1568817E-2,1.5604078E-2],"categories":[],"categories_nodes":[],"categories_segments":[],"categories_sizes":[],"default_left":[0,0,0,0,0,0,0,0,0,0,0,0,0],"id":62,"left_children":[1,3,-1,5,-1,7,-1,9,11,-1,-1,-1,-1],"loss_changes":[1.0871529E1,9.192861E0,0E0,2.2570362E0,0E0,4.7740097E0,0E0,3.8610716E0,6.2438602E0,0E0,0E0,0E0,0E0],"parents":[2147483647,0,0,1,1,3,3,5,5,7,7,8,8],"right_children":[2,4,-1,6,-1,8,-1,10,12,-1,-1,-1,-1],"split_conditions":[8E0,1.8011234E1,-4.6775706E-2,4.4815163E1,-4.3919075E-2,2.5777586E1,4.6023335E-2,2.1372713E1,3.6139927E1,3.4192295E-3,4.3023143E-2,-5.1568817E-2,1.5604078E-2],"split_indices":[5,2,0,3,0,0,0,3,3,0,0,0,0],"split_type":[0,0,0,0,0,0,0,0,0,0,0,0,0],"sum_hessian":[5.7647682E1,4.809767E1,9.550008E0,4.2021233E1,6.0764384E0,3.6831047E1,5.1901855E0,2.424513E1,1.2585918E1,1.1444857E1,1.2800274E1,4.773237E0,7.8126817E0],"tree_param":{"num_deleted":"0","num_feature":"6","num_nodes":"13","size_leaf_vector":"1"}},{"base_weights":[-1.4394631E-2,1.8330915E-1,-4.6576835E-2,3.493058E-1,-4.355364E-2,8.597659E-1,2.687493E-1,4.8082218E-2,1.1182732E-2,1.15867846E-1,6.282459E-1,1.6160201E-2,-5.3897654E-3,4.222492E-2,-1.9279845E-2],"categories":[],"categories_nodes":[],"categories_segments":[],"categories_sizes":[],"default_left":[0,0,0,0,0,0,0,0,0,0,0,0,0,0,0],"id":63,"left_children":[1,3,-1,5,-1,7,9,-1,-1,11,13,-1,-1,-1,-1],"loss_changes":[1.0500312E1,8.653069E0,0E0,1.4929872E0,0E0,1.2579799E-1,1.997369E0,0E0,0E0,1.3172432E0,2.7401147E0,0E0,0E0,0E0,0E0],"parents":[2147483647,0,0,1,1,3,3,5,5,6,6,9,9,10,10],"right_children":[2,4,-1,6,-1,8,10,-1,-1,12,14,-1,-1,-1,-1],"split_conditions":[8E0,1.8011234E1,-4.6576835E-2,1.1159591E1,-4.355364E-2,1.4772936E1,1.4467584E1,4.8082218E-2,1.1182732E-2,1.0113615E1,1.8685635E1,1.6160201E-2,-5.3897654E-3,4.222492E-2,-1.9279845E-2],"split_indices":[5,2,0,0,0,2,2,0,0,2,1,0,0,0,0],"split_type":[0,0,0,0,0,0,0,0,0,0,0,0,0,0,0],"sum_hessian":[5.5967857E1,4.6700905E1,9.266953E0,4.0926373E1,5.7745347E0,4.2599072E0,3.6666466E1,3.230725E0,1.0291822E0,2.665382E1,1.0012644E1,1.3600803E1,1.3053018E1,8.390074E0,1.6225694E0],"tree_param":{"num_deleted":"0","num_feature":"6","num_nodes":"15","size_leaf_vector":"1"}},{"base_weights":[-4.992732E-2,1.3439646E-1,-4.6403106E-2,5.292171E-2,2.9673193E-2,1.8684675E-1,-6.038532E-1,1.9049935E-2,3.8351044E-2,-6.1237067E-2,-1.22868516E-1,1.02078775E-2,-5.8753636E-2,3.2789655E-2,-4.0773068E-2],"categories":[],"categories_nodes":[],"categories_segments":[],"categories_sizes":[],"default_left":[0,0,0,0,0,0,0,0,0,0,0,0,0,0,0],"id":64,"left_children":[1,3,-1,5,-1,7,9,11,-1,-1,13,-1,-1,-1,-1],"loss_changes":[9.36059E0,1.765203E0,0E0,3.7976222E0,0E0,3.4472544E0,2.0390809E0,6.5635543E0,0E0,0E0,3.3622372E0,0E0,0E0,0E0,0E0],"parents":[2147483647,0,0,1,1,3,3,5,5,6,6,7,7,10,10],"right_children":[2,4,-1,6,-1,8,10,12,-1,-1,14,-1,-1,-1,-1],"split_conditions":[8E0,4.4815163E1,-4.6403106E-2,3.0545742E1,2.9673193E-2,3.452762E1,3.8803234E1,2.5777586E1,3.8351044E-2,-6.1237067E-2,3.572437E1,1.02078775E-2,-5.8753636E-2,3.2789655E-2,-4.0773068E-2],"split_indices":[5,3,0,0,0,3,3,0,0,0,0,0,0,0,0],"split_type":[0,0,0,0,0,0,0,0,0,0,0,0,0,0,0],"sum_hessian":[5.6060406E1,4.7034615E1,9.02579E0,4.0892365E1,6.14225E0,3.4560528E1,6.3318367E0,2.760849E1,6.952038E0,2.0889525E0,4.242884E0,2.46209E1,2.9875913E0,2.0223498E0,2.2205346E0],"tree_param":{"num_deleted":"0","num_feature":"6","num_nodes":"15","size_leaf_vector":"1"}},{"base_weights":[5.302764E-2,2.4785262E-1,-4.5992523E-2,4.307745E-1,-4.3637853E-2,8.6432385E-1,3.1254095E-1,4.9757496E-2,1.00814635E-2,8.238267E-1,1.9614388E-1,7.3809773E-3,4.731503E-2,-2.6885951E-2,1.3171836E-2],"categories":[],"categories_nodes":[],"categories_segments":[],"categories_sizes":[],"default_left":[0,0,0,0,0,0,0,0,0,0,0,0,0,0,0],"id":65,"left_children":[1,3,-1,5,-1,7,9,-1,-1,11,13,-1,-1,-1,-1],"loss_changes":[1.0653492E1,9.93121E0,0E0,1.8183422E0,0E0,5.0712824E-1,1.836772E0,0E0,0E0,3.501234E-1,1.5572215E0,0E0,0E0,0E0,0E0],"parents":[2147483647,0,0,1,1,3,3,5,5,6,6,9,9,10,10],"right_children":[2,4,-1,6,-1,8,10,-1,-1,12,14,-1,-1,-1,-1],"split_conditions":[8E0,1.8011234E1,-4.5992523E-2,7.932705E0,-4.3637853E-2,1.8283401E1,1.0284581E1,4.9757496E-2,1.00814635E-2,8.4073515E0,1.0638344E1,7.3809773E-3,4.731503E-2,-2.6885951E-2,1.3171836E-2],"split_indices":[5,2,0,2,0,1,1,0,0,1,1,0,0,0,0],"split_type":[0,0,0,0,0,0,0,0,0,0,0,0,0,0,0],"sum_hessian":[5.4003967E1,4.5614594E1,8.389373E0,3.9742798E1,5.8717966E0,7.1637635E0,3.2579033E1,5.5637264E0,1.600037E0,4.9143834E0,2.766465E1,1.0917717E0,3.8226118E0,1.7364992E0,2.592815E1],"tree_param":{"num_deleted":"0","num_feature":"6","num_nodes":"15","size_leaf_vector":"1"}},{"base_weights":[-8.262081E-2,8.960318E-2,-4.5897327E-2,2.4794063E-1,-4.3427475E-2,1.3215345E-1,4.504588E-2,6.9442445E-1,1.2382837E-2,-5.77517E-3,4.7504287E-2,-3.0103264E-2,6.717082E-3],"categories":[],"categories_nodes":[],"categories_segments":[],"categories_sizes":[],"default_left":[0,0,0,0,0,0,0,0,0,0,0,0,0],"id":66,"left_children":[1,3,-1,5,-1,7,-1,9,11,-1,-1,-1,-1],"loss_changes":[7.872677E0,7.1647024E0,0E0,2.911862E0,0E0,2.3633902E0,0E0,1.3867376E0,2.3331356E0,0E0,0E0,0E0,0E0],"parents":[2147483647,0,0,1,1,3,3,5,5,7,7,8,8],"right_children":[2,4,-1,6,-1,8,-1,10,12,-1,-1,-1,-1],"split_conditions":[8E0,1.8011234E1,-4.5897327E-2,4.4815163E1,-4.3427475E-2,1.0284581E1,4.504588E-2,1.8439562E1,1.1408701E1,-5.77517E-3,4.7504287E-2,-3.0103264E-2,6.717082E-3],"split_indices":[5,2,0,3,0,1,0,3,1,0,0,0,0],"split_type":[0,0,0,0,0,0,0,0,0,0,0,0,0],"sum_hessian":[5.3151657E1,4.4806393E1,8.3452635E0,3.908819E1,5.718204E0,3.422222E1,4.865967E0,5.167079E0,2.9055143E1,1.3712413E0,3.7958376E0,4.1599617E0,2.4895182E1],"tree_param":{"num_deleted":"0","num_feature":"6","num_nodes":"13","size_leaf_vector":"1"}},{"base_weights":[-1.3215227E-2,1.4988162E-1,-4.4913303E-2,5.797156E-1,6.248387E-2,2.423925E-3,3.3896577E-2,-2.8399432E-1,2.1028745E-1,3.8404915E-1,-1.2600216E0,4.0523008E-2,1.2913094E-3,-2.4289036E-2,3.1085823E-2,-1.0165713E-1,-8.572953E-3,-6.957353E-2,9.722811E-3],"categories":[],"categories_nodes":[],"categories_segments":[],"categories_sizes":[],"default_left":[0,0,0,0,0,0,0,0,0,0,0,0,0,0,0,0,0,0,0],"id":67,"left_children":[1,3,-1,5,7,-1,-1,9,11,13,15,-1,17,-1,-1,-1,-1,-1,-1],"loss_changes":[7.9586844E0,1.715323E0,0E0,3.7189293E-1,2.1013706E0,0E0,0E0,8.534468E0,3.5764115E0,1.9757773E0,4.070245E0,0E0,6.2312217E0,0E0,0E0,0E0,0E0,0E0,0E0],"parents":[2147483647,0,0,1,1,3,3,4,4,7,7,8,8,9,9,10,10,12,12],"right_children":[2,4,-1,6,8,-1,-1,10,12,14,16,-1,18,-1,-1,-1,-1,-1,-1],"split_conditions":[1.8011234E1,1.0167641E1,-4.4913303E-2,1.1703604E1,2.2054853E1,2.423925E-3,3.3896577E-2,1.3235962E1,2.0958994E1,1.2053443E1,1.5122463E1,4.0523008E-2,2.9911446E1,-2.4289036E-2,3.1085823E-2,-1.0165713E-1,-8.572953E-3,-6.957353E-2,9.722811E-3],"split_indices":[2,1,0,0,3,0,0,0,0,3,1,0,3,0,0,0,0,0,0],"split_type":[0,0,0,0,0,0,0,0,0,0,0,0,0,0,0,0,0,0,0],"sum_hessian":[5.3202324E1,4.5625183E1,7.5771403E0,6.7575526E0,3.886763E1,1.2874573E0,5.470095E0,1.1346937E1,2.7520693E1,7.0963483E0,4.250589E0,6.3648705E0,2.1155823E1,1.2988355E0,5.7975125E0,1.9780227E0,2.2725666E0,1.8211793E0,1.9334644E1],"tree_param":{"num_deleted":"0","num_feature":"6","num_nodes":"19","size_leaf_vector":"1"}},{"base_weights":[-4.6999227E-2,1.350432E-1,-4.5652073E-2,2.8918016E-1,-4.2545997E-2,4.1707635E-2,1.7950597E-1,-4.8667796E-2,2.5520474E-1,3.431764E-4,2.6007293E-2],"categories":[],"categories_nodes":[],"categories_segments":[],"categories_sizes":[],"default_left":[0,0,0,0,0,0,0,0,0,0,0],"id":68,"left_children":[1,3,-1,5,-1,-1,7,-1,9,-1,-1],"loss_changes":[8.162723E0,6.7820477E0,0E0,2.1178768E0,0E0,0E0,3.1158853E0,0E0,2.0772362E0,0E0,0E0],"parents":[2147483647,0,0,1,1,3,3,6,6,8,8],"right_children":[2,4,-1,6,-1,-1,8,-1,10,-1,-1],"split_conditions":[8E0,1.8011234E1,-4.5652073E-2,1.0167641E1,-4.2545997E-2,4.1707635E-2,1.0478972E1,-4.8667796E-2,1.1648448E1,3.431764E-4,2.6007293E-2],"split_indices":[5,2,0,1,0,0,1,0,2,0,0],"split_type":[0,0,0,0,0,0,0,0,0,0,0],"sum_hessian":[4.999331E1,4.20074E1,7.985905E0,3.693933E1,5.068073E0,5.081844E0,3.1857485E1,1.2322677E0,3.0625217E1,1.633737E1,1.42878475E1],"tree_param":{"num_deleted":"0","num_feature":"6","num_nodes":"11","size_leaf_vector":"1"}},{"base_weights":[-6.143393E-3,1.5153895E-1,-4.4397313E-2,3.099541E-1,-7.754941E-2,-1.185924E-1,6.031164E-1,-9.278765E-1,3.0284756E-1,2.662041E-1,-6.731877E-2,3.901772E-2,2.4318232E-1,-6.675855E-2,-3.4172884E-1,3.2401852E-2,-6.430331E-3,-5.1769353E-3,3.694459E-2,-4.775104E-2,3.2384522E-2,3.435099E-2,-5.890236E-2,-5.6358792E-2,1.7797034E-2],"categories":[],"categories_nodes":[],"categories_segments":[],"categories_sizes":[],"default_left":[0,0,0,0,0,0,0,0,0,0,0,0,0,0,0,0,0,0,0,0,0,0,0,0,0],"id":69,"left_children":[1,3,-1,5,7,9,11,13,15,17,-1,-1,19,-1,21,-1,23,-1,-1,-1,-1,-1,-1,-1,-1],"loss_changes":[7.3024335E0,1.6420804E0,0E0,3.4081619E0,6.435424E0,5.850072E0,8.267617E-1,1.006444E0,1.488102E0,1.7691946E0,0E0,0E0,3.8709083E0,0E0,4.1268272E0,0E0,3.780752E0,0E0,0E0,0E0,0E0,0E0,0E0,0E0,0E0],"parents":[2147483647,0,0,1,1,3,3,4,4,5,5,6,6,7,7,8,8,9,9,12,12,14,14,16,16],"right_children":[2,4,-1,6,8,10,12,14,16,18,-1,-1,20,-1,22,-1,24,-1,-1,-1,-1,-1,-1,-1,-1],"split_conditions":[1.8011234E1,2.5777586E1,-4.4397313E-2,1.9602797E1,3.6139927E1,1.3898678E1,2.1163324E1,3.3771046E1,3.1962442E1,1.5685589E1,-6.731877E-2,3.901772E-2,2.9911446E1,-6.675855E-2,2.921751E1,3.2401852E-2,4.0837296E1,-5.1769353E-3,3.694459E-2,-4.775104E-2,3.2384522E-2,3.435099E-2,-5.890236E-2,-5.6358792E-2,1.7797034E-2],"split_indices":[2,0,0,3,3,0,0,3,0,3,0,0,3,0,0,0,3,0,0,0,0,0,0,0,0],"split_type":[0,0,0,0,0,0,0,0,0,0,0,0,0,0,0,0,0,0,0,0,0,0,0,0,0],"sum_hessian":[5.0550854E1,4.358518E1,6.9656725E0,2.5558456E1,1.8026724E1,1.0623877E1,1.4934579E1,5.1269264E0,1.2899797E1,8.685088E0,1.9387891E0,9.224314E0,5.7102656E0,2.2710054E0,2.855921E0,5.578373E0,7.321424E0,5.3113976E0,3.3736904E0,1.0977248E0,4.6125407E0,1.360679E0,1.495242E0,1.273175E0,6.0482492E0],"tree_param":{"num_deleted":"0","num_feature":"6","num_nodes":"25","size_leaf_vector":"1"}},{"base_weights":[-6.293016E-2,1.0714644E-1,-4.5502946E-2,2.3947416E-1,-4.184043E-2,1.3073671E-1,4.4178005E-2,3.0928618E-1,-5.348959E-1,3.227379E-3,3.93478E-2,-5.3279366E-2,-7.817662E-3],"categories":[],"categories_nodes":[],"categories_segments":[],"categories_sizes":[],"default_left":[0,0,0,0,0,0,0,0,0,0,0,0,0],"id":70,"left_children":[1,3,-1,5,-1,7,-1,9,11,-1,-1,-1,-1],"loss_changes":[7.564825E0,5.7036953E0,0E0,2.6451967E0,0E0,4.3130527E0,0E0,3.2401533E0,1.3897998E0,0E0,0E0,0E0,0E0],"parents":[2147483647,0,0,1,1,3,3,5,5,7,7,8,8],"right_children":[2,4,-1,6,-1,8,-1,10,12,-1,-1,-1,-1],"split_conditions":[8E0,1.8011234E1,-4.5502946E-2,4.4815163E1,-4.184043E-2,3.0545742E1,4.4178005E-2,3.0587955E1,3.8803234E1,3.227379E-3,3.93478E-2,-5.3279366E-2,-7.817662E-3],"split_indices":[5,2,0,3,0,0,0,3,3,0,0,0,0],"split_type":[0,0,0,0,0,0,0,0,0,0,0,0,0],"sum_hessian":[5.0828724E1,4.3057632E1,7.7710896E0,3.8418297E1,4.6393366E0,3.38984E1,4.519898E0,2.7150808E1,6.74759E0,1.8703186E1,8.447622E0,2.0536036E0,4.6939864E0],"tree_param":{"num_deleted":"0","num_feature":"6","num_nodes":"13","size_leaf_vector":"1"}},{"base_weights":[-5.387774E-2,1.09840244E-1,-4.5148622E-2,2.3536769E-1,-4.1377354E-2,1.0669119E-1,8.509667E-1,2.5614178E-1,-6.175565E-1,9.940069E-3,4.657167E-2,2.3063717E-3,4.311042E-2,-1.3184625E-2,-5.174181E-2],"categories":[],"categories_nodes":[],"categories_segments":[],"categories_sizes":[],"default_left":[0,0,0,0,0,0,0,0,0,0,0,0,0,0,0],"id":71,"left_children":[1,3,-1,5,-1,7,9,11,13,-1,-1,-1,-1,-1,-1],"loss_changes":[7.1944447E0,5.334699E0,0E0,3.0224032E0,0E0,3.8004413E0,1.6388035E-1,3.600626E0,6.203463E-1,0E0,0E0,0E0,0E0,0E0,0E0],"parents":[2147483647,0,0,1,1,3,3,5,5,6,6,7,7,8,8],"right_children":[2,4,-1,6,-1,8,10,12,14,-1,-1,-1,-1,-1,-1],"split_conditions":[8E0,1.8011234E1,-4.5148622E-2,4.315208E1,-4.1377354E-2,3.0545742E1,7.2301083E0,3.245909E1,3.4735367E1,9.940069E-3,4.657167E-2,2.3063717E-3,4.311042E-2,-1.3184625E-2,-5.174181E-2],"split_indices":[5,2,0,3,0,0,2,3,0,0,0,0,0,0,0],"split_type":[0,0,0,0,0,0,0,0,0,0,0,0,0,0,0],"sum_hessian":[5.0040623E1,4.2681614E1,7.3590074E0,3.8301495E1,4.3801203E0,3.2650078E1,5.651418E0,2.7600887E1,5.049189E0,1.0018929E0,4.649525E0,2.1297115E1,6.3037724E0,3.6152744E0,1.4339147E0],"tree_param":{"num_deleted":"0","num_feature":"6","num_nodes":"15","size_leaf_vector":"1"}},{"base_weights":[-5.9139483E-2,9.350642E-2,-4.469127E-2,2.1354842E-1,-4.1053247E-2,1.1709005E-1,4.2722728E-2,2.8964186E-1,-6.425591E-1,4.113191E-3,4.84549E-2,-1.7185919E-3,-4.7695003E-2],"categories":[],"categories_nodes":[],"categories_segments":[],"categories_sizes":[],"default_left":[0,0,0,0,0,0,0,0,0,0,0,0,0],"id":72,"left_children":[1,3,-1,5,-1,7,-1,9,11,-1,-1,-1,-1],"loss_changes":[6.454843E0,4.9159036E0,0E0,2.308694E0,0E0,4.777164E0,0E0,4.039081E0,1.2536647E0,0E0,0E0,0E0,0E0],"parents":[2147483647,0,0,1,1,3,3,5,5,7,7,8,8],"right_children":[2,4,-1,6,-1,8,-1,10,12,-1,-1,-1,-1],"split_conditions":[8E0,1.8011234E1,-4.469127E-2,4.4815163E1,-4.1053247E-2,3.061256E1,4.2722728E-2,3.3771046E1,5E0,4.113191E-3,4.84549E-2,-1.7185919E-3,-4.7695003E-2],"split_indices":[5,2,0,3,0,0,0,3,5,0,0,0,0],"split_type":[0,0,0,0,0,0,0,0,0,0,0,0,0],"sum_hessian":[4.900546E1,4.2179684E1,6.8257737E0,3.7963318E1,4.216368E0,3.4025124E1,3.9381926E0,2.8231213E1,5.793911E0,2.2488523E1,5.74269E0,2.3377147E0,3.4561965E0],"tree_param":{"num_deleted":"0","num_feature":"6","num_nodes":"13","size_leaf_vector":"1"}},{"base_weights":[-3.88287E-2,1.1004137E-1,-4.436097E-2,2.2189496E-1,-4.0392227E-2,1.3237809E-1,4.2206597E-2,3.942548E-1,-3.4244078E-1,4.1373908E-3,4.423667E-2,-5.590881E-2,4.7661783E-3],"categories":[],"categories_nodes":[],"categories_segments":[],"categories_sizes":[],"default_left":[0,0,0,0,0,0,0,0,0,0,0,0,0],"id":73,"left_children":[1,3,-1,5,-1,7,-1,9,11,-1,-1,-1,-1],"loss_changes":[6.363222E0,4.6035557E0,0E0,2.0715303E0,0E0,4.5433517E0,0E0,3.4890392E0,4.5680256E0,0E0,0E0,0E0,0E0],"parents":[2147483647,0,0,1,1,3,3,5,5,7,7,8,8],"right_children":[2,4,-1,6,-1,8,-1,10,12,-1,-1,-1,-1],"split_conditions":[8E0,1.8011234E1,-4.436097E-2,4.4815163E1,-4.0392227E-2,2.5777586E1,4.2206597E-2,2.5400951E1,3.50104E1,4.1373908E-3,4.423667E-2,-5.590881E-2,4.7661783E-3],"split_indices":[5,2,0,3,0,0,0,3,3,0,0,0,0],"split_type":[0,0,0,0,0,0,0,0,0,0,0,0,0],"sum_hessian":[4.8608807E1,4.209291E1,6.515896E0,3.8196533E1,3.8963757E0,3.4452797E1,3.7437375E0,2.2315054E1,1.2137743E1,1.43622055E1,7.9528475E0,3.8179314E0,8.319812E0],"tree_param":{"num_deleted":"0","num_feature":"6",